{"learner":{"attributes":{"best_iteration":"312","best_score":"0.43042396149563866"},"feature_names":["state","local_pickup","shipping_mode","listing_type","available_quantity","total_amount","date_difference_hr","time_difference_hr"],"feature_types":["int","int","int","int","int","int","int","int"],"gradient_booster":{"model":{"gbtree_model_param":{"num_parallel_tree":"1","num_trees":"353"},"iteration_indptr":[0,1,2,3,4,5,6,7,8,9,10,11,12,13,14,15,16,17,18,19,20,21,22,23,24,25,26,27,28,29,30,31,32,33,34,35,36,37,38,39,40,41,42,43,44,45,46,47,48,49,50,51,52,53,54,55,56,57,58,59,60,61,62,63,64,65,66,67,68,69,70,71,72,73,74,75,76,77,78,79,80,81,82,83,84,85,86,87,88,89,90,91,92,93,94,95,96,97,98,99,100,101,102,103,104,105,106,107,108,109,110,111,112,113,114,115,116,117,118,119,120,121,122,123,124,125,126,127,128,129,130,131,132,133,134,135,136,137,138,139,140,141,142,143,144,145,146,147,148,149,150,151,152,153,154,155,156,157,158,159,160,161,162,163,164,165,166,167,168,169,170,171,172,173,174,175,176,177,178,179,180,181,182,183,184,185,186,187,188,189,190,191,192,193,194,195,196,197,198,199,200,201,202,203,204,205,206,207,208,209,210,211,212,213,214,215,216,217,218,219,220,221,222,223,224,225,226,227,228,229,230,231,232,233,234,235,236,237,238,239,240,241,242,243,244,245,246,247,248,249,250,251,252,253,254,255,256,257,258,259,260,261,262,263,264,265,266,267,268,269,270,271,272,273,274,275,276,277,278,279,280,281,282,283,284,285,286,287,288,289,290,291,292,293,294,295,296,297,298,299,300,301,302,303,304,305,306,307,308,309,310,311,312,313,314,315,316,317,318,319,320,321,322,323,324,325,326,327,328,329,330,331,332,333,334,335,336,337,338,339,340,341,342,343,344,345,346,347,348,349,350,351,352,353],"tree_info":[0,0,0,0,0,0,0,0,0,0,0,0,0,0,0,0,0,0,0,0,0,0,0,0,0,0,0,0,0,0,0,0,0,0,0,0,0,0,0,0,0,0,0,0,0,0,0,0,0,0,0,0,0,0,0,0,0,0,0,0,0,0,0,0,0,0,0,0,0,0,0,0,0,0,0,0,0,0,0,0,0,0,0,0,0,0,0,0,0,0,0,0,0,0,0,0,0,0,0,0,0,0,0,0,0,0,0,0,0,0,0,0,0,0,0,0,0,0,0,0,0,0,0,0,0,0,0,0,0,0,0,0,0,0,0,0,0,0,0,0,0,0,0,0,0,0,0,0,0,0,0,0,0,0,0,0,0,0,0,0,0,0,0,0,0,0,0,0,0,0,0,0,0,0,0,0,0,0,0,0,0,0,0,0,0,0,0,0,0,0,0,0,0,0,0,0,0,0,0,0,0,0,0,0,0,0,0,0,0,0,0,0,0,0,0,0,0,0,0,0,0,0,0,0,0,0,0,0,0,0,0,0,0,0,0,0,0,0,0,0,0,0,0,0,0,0,0,0,0,0,0,0,0,0,0,0,0,0,0,0,0,0,0,0,0,0,0,0,0,0,0,0,0,0,0,0,0,0,0,0,0,0,0,0,0,0,0,0,0,0,0,0,0,0,0,0,0,0,0,0,0,0,0,0,0,0,0,0,0,0,0,0,0,0,0,0,0,0,0,0,0,0,0,0,0,0,0,0,0,0,0,0,0,0,0,0,0,0,0,0,0,0,0,0,0,0,0,0,0,0,0,0,0],"trees":[{"base_weights":[-1.2697033E-3,-1.4018892E0,2.8727728E-1,-1.5418736E0,-1.1810597E0,1.5161799E-1,4.4614178E-1,-1.6911178E0,-1.2975864E0,-1.2663714E0,-7.6605004E-1,-2.4497662E-1,1.7585765E-1,4.2542848E-1,9.4416887E-1,-9.208321E-2,-1.7049843E0,-1.4880499E0,-7.4556485E-2,-1.4133712E0,-1.0678787E0,-1.3691057E0,-7.258994E-1,-2.587192E-1,3.5089668E-2,-1.906792E-3,1.9221617E-1,8.885149E-2,4.5103934E-1,1.01579644E-1,8.7680084E-1,-1.0981904E-1,-1.0184644E-1,-1.0782746E-1,-9.041259E-2,-1.0049017E-1,-8.750624E-2,-6.96615E-2,-6.2388584E-2,-1.0292805E-2,-9.781421E-2,-6.0471797E-1,-8.501615E-1,-2.9289246E-2,-2.4110398E-1,1.2236428E-2,1.1750847E-2,4.4209803E-3,9.888966E-2,-5.8457177E-2,4.517172E-1,5.9115466E-2,8.2848454E-1,-9.180049E-3,-6.3447505E-1,-4.7178835E-2,-6.1520025E-2,-1.2082581E-2,-2.1868361E-2,4.53326E-1,2.1216841E-1,4.3006647E-2,5.902557E-2,-4.369286E-2,-2.961289E-2,2.7855977E-2,2.9348807E-2,1.8189305E-1,3.0781988E-2,1.8863326E-2,7.6185246E-3],"categories":[],"categories_nodes":[],"categories_segments":[],"categories_sizes":[],"default_left":[0,0,0,0,0,0,0,0,0,0,0,0,0,0,0,0,0,0,0,0,0,0,0,0,0,0,0,0,0,0,0,0,0,0,0,0,0,0,0,0,0,0,0,0,0,0,0,0,0,0,0,0,0,0,0,0,0,0,0,0,0,0,0,0,0,0,0,0,0,0,0],"id":0,"left_children":[1,3,5,7,9,11,13,15,17,19,21,23,25,27,29,-1,31,33,-1,35,37,39,41,43,-1,-1,45,47,49,-1,51,-1,-1,-1,-1,-1,-1,-1,-1,-1,-1,53,55,-1,57,-1,-1,-1,-1,-1,59,-1,61,-1,63,-1,-1,-1,-1,65,67,-1,-1,-1,-1,-1,-1,69,-1,-1,-1],"loss_changes":[5.2895557E3,6.790527E1,2.338424E2,4.8352783E1,3.0167236E1,5.631256E1,5.1295654E1,9.790039E-1,9.786926E0,2.003125E1,2.9740295E0,3.8236713E0,1.8618317E1,4.134961E1,8.086441E0,0E0,9.995117E-1,4.503479E-1,0E0,6.201172E-2,2.2103882E-1,1.7871437E0,1.7987823E0,1.1407776E0,0E0,0E0,4.4281006E-2,9.256967E0,4.4570312E0,0E0,5.0613403E-2,0E0,0E0,0E0,0E0,0E0,0E0,0E0,0E0,0E0,0E0,9.5155525E-1,3.8908768E-1,0E0,1.560852E0,0E0,0E0,0E0,0E0,0E0,1.654541E0,0E0,1.3299255E0,0E0,4.7602272E-1,0E0,0E0,0E0,0E0,4.683838E-1,2.0164406E-1,0E0,0E0,0E0,0E0,0E0,0E0,1.839779E-1,0E0,0E0,0E0],"parents":[2147483647,0,0,1,1,2,2,3,3,4,4,5,5,6,6,7,7,8,8,9,9,10,10,11,11,12,12,13,13,14,14,16,16,17,17,19,19,20,20,21,21,22,22,23,23,26,26,27,27,28,28,30,30,41,41,42,42,44,44,50,50,52,52,54,54,59,59,60,60,67,67],"right_children":[2,4,6,8,10,12,14,16,18,20,22,24,26,28,30,-1,32,34,-1,36,38,40,42,44,-1,-1,46,48,50,-1,52,-1,-1,-1,-1,-1,-1,-1,-1,-1,-1,54,56,-1,58,-1,-1,-1,-1,-1,60,-1,62,-1,64,-1,-1,-1,-1,66,68,-1,-1,-1,-1,-1,-1,70,-1,-1,-1],"split_conditions":[7E0,5E0,2E0,2E0,6E0,1E0,5E0,1E0,4E0,2E0,1E0,3E0,1E0,1E0,1E0,-9.208321E-2,2E0,3E0,-7.4556485E-2,1E0,2E0,1E0,2E0,1E0,3.5089668E-2,-1.906792E-3,2E0,3E0,2E0,1.01579644E-1,2E0,-1.0981904E-1,-1.0184644E-1,-1.0782746E-1,-9.041259E-2,-1.0049017E-1,-8.750624E-2,-6.96615E-2,-6.2388584E-2,-1.0292805E-2,-9.781421E-2,1E0,2E0,-2.9289246E-2,2E0,1.2236428E-2,1.1750847E-2,4.4209803E-3,9.888966E-2,-5.8457177E-2,3E0,5.9115466E-2,6E0,-9.180049E-3,2E0,-4.7178835E-2,-6.1520025E-2,-1.2082581E-2,-2.1868361E-2,2E0,4E0,4.3006647E-2,5.902557E-2,-4.369286E-2,-2.961289E-2,2.7855977E-2,2.9348807E-2,2E0,3.0781988E-2,1.8863326E-2,7.6185246E-3],"split_indices":[5,5,2,2,5,2,7,0,5,2,0,7,0,0,0,0,0,5,0,2,0,2,2,0,0,0,0,7,7,0,0,0,0,0,0,0,0,0,0,0,0,2,0,0,0,0,0,0,0,0,7,0,7,0,0,0,0,0,0,0,7,0,0,0,0,0,0,0,0,0,0],"split_type":[0,0,0,0,0,0,0,0,0,0,0,0,0,0,0,0,0,0,0,0,0,0,0,0,0,0,0,0,0,0,0,0,0,0,0,0,0,0,0,0,0,0,0,0,0,0,0,0,0,0,0,0,0,0,0,0,0,0,0,0,0,0,0,0,0,0,0,0,0,0,0],"sum_hessian":[1.3086953E4,2.2351035E3,1.085185E4,1.3655237E3,8.6957983E2,5.854127E3,4.997722E3,8.4521765E2,5.20306E2,7.201752E2,1.4940465E2,3.3684412E2,5.5172827E3,4.7993447E3,1.9837756E2,5.3198994E1,7.920187E2,1.8793663E2,3.3236942E2,4.1142215E2,3.0875305E2,7.95499E0,1.4144966E2,3.3162363E2,5.2204623E0,4.054559E2,5.1118267E3,3.3957864E2,4.459766E3,1.665576E1,1.817218E2,5.111081E2,2.8091058E2,2.8836838E1,1.590998E2,3.480308E1,3.7661905E2,1.9265991E2,1.1609313E2,1.2429671E0,6.712023E0,7.358366E1,6.7866005E1,2.461075E1,3.0701288E2,3.362972E3,1.7488549E3,3.3609833E2,3.480308E0,1.740154E0,4.458026E3,7.258928E1,1.09132515E2,4.723275E0,6.886038E1,4.1017918E1,2.6848091E1,2.122988E2,9.4714096E1,4.4276978E3,3.03284E1,4.9718685E1,5.941383E1,4.847572E1,2.038466E1,2.6179375E3,1.8097603E3,2.8339651E1,1.9887475E0,8.70077E0,1.9638882E1],"tree_param":{"num_deleted":"0","num_feature":"8","num_nodes":"71","size_leaf_vector":"1"}},{"base_weights":[1.6922018E-3,-1.3474476E0,2.7441508E-1,-1.531046E0,-1.1590538E0,-3.25577E-2,3.9375782E-1,-1.5531669E0,-1.0171776E0,-1.2127521E0,-6.2445366E-1,-4.871147E-2,1.139496E0,9.0820454E-2,4.1752478E-1,-1.5962204E0,-1.4345534E0,-9.5038675E-2,-5.9831463E-2,-1.3187765E0,-1.0675216E0,-7.8166835E-2,-5.8208084E-1,-1.4223073E-1,1.1886825E-1,7.6318824E-1,1.0650733E-1,2.9380422E-3,9.202221E-2,4.1185385E-1,7.02685E-1,-1.0167914E-1,-9.194296E-2,-7.050668E-2,-9.10729E-2,-1.3845513E0,-1.2141075E0,-5.2521706E-2,-1.0844471E0,-3.924165E-2,-3.0531567E-2,-1.8267095E-1,1.1267402E-2,-7.019273E-2,2.4114591E-1,7.653482E-2,4.7288147E-1,4.306344E-1,3.7915593E-1,7.7821815E-1,5.572673E-1,-9.354556E-2,-8.423065E-2,-8.311792E-2,-7.308278E-2,-7.104881E-2,-6.280248E-2,-1.8480162E-1,8.034258E-1,1.2602546E-3,2.4996875E-2,-4.6716374E-3,5.5253834E-2,2.4803384E-1,-4.466887E-3,1.3836678E-2,3.21284E-2,-2.246831E-2,2.7202278E-2,6.317043E-1,2.3648582E-2,5.6930967E-2,4.0418286E-2,1.28452685E-2,4.5524176E-2,-1.874557E-1,-9.009993E-2,9.059362E-2,-1.2458577E-2,1.2968606E-1,-1.9355228E-2,2.0907715E-1,2.0081544E-2,4.377142E-2,2.281196E-2,-2.3016961E-1,-1.1428361E-2,-7.6316227E-3,-5.2488786E-3,4.5805187E-3,1.7657364E-2,-7.444443E-4,-2.367827E-3,1.5142589E-2,-1.7029308E-2,-1.32255545E-2,-1.583517E-2],"categories":[],"categories_nodes":[],"categories_segments":[],"categories_sizes":[],"default_left":[0,0,0,0,0,0,0,0,0,0,0,0,0,0,0,0,0,0,0,0,0,0,0,0,0,0,0,0,0,0,0,0,0,0,0,0,0,0,0,0,0,0,0,0,0,0,0,0,0,0,0,0,0,0,0,0,0,0,0,0,0,0,0,0,0,0,0,0,0,0,0,0,0,0,0,0,0,0,0,0,0,0,0,0,0,0,0,0,0,0,0,0,0,0,0,0,0],"id":1,"left_children":[1,3,5,7,9,11,13,15,17,19,21,23,25,27,29,31,33,-1,-1,35,37,-1,39,41,43,45,-1,-1,-1,47,49,-1,-1,-1,-1,51,53,-1,55,-1,-1,57,59,61,63,-1,65,67,69,71,73,-1,-1,-1,-1,-1,-1,75,77,79,-1,-1,-1,81,-1,-1,-1,-1,-1,83,-1,-1,-1,-1,-1,85,87,-1,-1,89,91,93,-1,-1,-1,95,-1,-1,-1,-1,-1,-1,-1,-1,-1,-1,-1],"loss_changes":[4.7996895E3,7.46936E1,3.975415E2,1.1556152E1,3.0654907E1,5.756113E1,5.6231934E1,3.902832E0,5.690651E-1,1.4241699E1,2.1585007E0,4.69898E1,7.795021E0,3.441105E1,1.1524048E1,7.564697E-1,3.2470703E-1,0E0,0E0,2.7870483E0,1.0394897E0,0E0,1.8910599E-1,1.1946148E1,2.4840767E1,3.037219E0,0E0,0E0,0E0,4.254883E0,1.2535477E0,0E0,0E0,0E0,0E0,2.3730469E-1,2.140503E-1,0E0,7.8637695E-1,0E0,0E0,3.2985458E0,1.5550162E0,1.7254317E0,1.4148674E0,0E0,9.0138674E-2,8.98407E0,1.5525513E0,1.1791496E0,2.8758678E0,0E0,0E0,0E0,0E0,0E0,0E0,3.7091064E-1,2.3717043E0,1.0405723E0,0E0,0E0,0E0,1.7393417E0,0E0,0E0,0E0,0E0,0E0,2.798481E-1,0E0,0E0,0E0,0E0,0E0,3.1856918E-1,2.015829E-3,0E0,0E0,4.5369923E-1,4.6319813E-2,6.437113E0,0E0,0E0,0E0,3.6061287E-2,0E0,0E0,0E0,0E0,0E0,0E0,0E0,0E0,0E0,0E0,0E0],"parents":[2147483647,0,0,1,1,2,2,3,3,4,4,5,5,6,6,7,7,8,8,9,9,10,10,11,11,12,12,13,13,14,14,15,15,16,16,19,19,20,20,22,22,23,23,24,24,25,25,29,29,30,30,35,35,36,36,38,38,41,41,42,42,43,43,44,44,46,46,47,47,48,48,49,49,50,50,57,57,58,58,59,59,63,63,69,69,75,75,76,76,79,79,80,80,81,81,85,85],"right_children":[2,4,6,8,10,12,14,16,18,20,22,24,26,28,30,32,34,-1,-1,36,38,-1,40,42,44,46,-1,-1,-1,48,50,-1,-1,-1,-1,52,54,-1,56,-1,-1,58,60,62,64,-1,66,68,70,72,74,-1,-1,-1,-1,-1,-1,76,78,80,-1,-1,-1,82,-1,-1,-1,-1,-1,84,-1,-1,-1,-1,-1,86,88,-1,-1,90,92,94,-1,-1,-1,96,-1,-1,-1,-1,-1,-1,-1,-1,-1,-1,-1],"split_conditions":[7E0,7E0,6E0,6E0,6E0,6E0,1E0,5E0,1E0,5E0,1E0,2E0,2E0,3E0,4E0,3E0,1E0,-9.5038675E-2,-5.9831463E-2,2E0,1E0,-7.8166835E-2,2E0,3E0,1E0,2E0,1.0650733E-1,2.9380422E-3,9.202221E-2,2E0,6E0,-1.0167914E-1,-9.194296E-2,-7.050668E-2,-9.10729E-2,4E0,4E0,-5.2521706E-2,2E0,-3.924165E-2,-3.0531567E-2,3E0,3E0,3E0,3E0,7.653482E-2,1E0,7E0,7E0,2E0,2E0,-9.354556E-2,-8.423065E-2,-8.311792E-2,-7.308278E-2,-7.104881E-2,-6.280248E-2,2E0,4E0,1E0,2.4996875E-2,-4.6716374E-3,5.5253834E-2,3E0,-4.466887E-3,1.3836678E-2,3.21284E-2,-2.246831E-2,2.7202278E-2,3E0,2.3648582E-2,5.6930967E-2,4.0418286E-2,1.28452685E-2,4.5524176E-2,1E0,1E0,9.059362E-2,-1.2458577E-2,4E0,4E0,2E0,2.0081544E-2,4.377142E-2,2.281196E-2,1E0,-1.1428361E-2,-7.6316227E-3,-5.2488786E-3,4.5805187E-3,1.7657364E-2,-7.444443E-4,-2.367827E-3,1.5142589E-2,-1.7029308E-2,-1.32255545E-2,-1.583517E-2],"split_indices":[5,6,6,5,5,7,0,5,0,5,0,0,6,7,7,6,0,0,0,0,0,0,0,6,6,0,0,0,0,0,7,0,0,0,0,5,5,0,0,0,0,7,7,7,7,0,6,6,6,0,0,0,0,0,0,0,0,6,7,0,0,0,0,6,0,0,0,0,0,7,0,0,0,0,0,0,0,0,0,6,6,6,0,0,0,6,0,0,0,0,0,0,0,0,0,0,0],"split_type":[0,0,0,0,0,0,0,0,0,0,0,0,0,0,0,0,0,0,0,0,0,0,0,0,0,0,0,0,0,0,0,0,0,0,0,0,0,0,0,0,0,0,0,0,0,0,0,0,0,0,0,0,0,0,0,0,0,0,0,0,0,0,0,0,0,0,0,0,0,0,0,0,0,0,0,0,0,0,0,0,0,0,0,0,0,0,0,0,0,0,0,0,0,0,0,0,0],"sum_hessian":[1.3043385E4,2.192859E3,1.0850525E4,1.1081683E3,1.0846904E3,3.0376309E3,7.8128945E3,1.0611462E3,4.702207E1,9.8491766E2,9.9772736E1,2.9969614E3,4.0669384E1,5.686025E2,7.244292E3,7.724864E2,2.886599E2,3.6950774E0,4.3326996E1,5.66203E2,4.1871466E2,5.176634E0,9.45961E1,1.9235876E3,1.0733738E3,2.5199745E1,1.5469641E1,5.51614E2,1.6988472E1,7.1046255E3,1.396669E2,6.5259045E2,1.1989595E2,1.6032667E1,2.7262726E2,3.4271988E2,2.2348314E2,3.0839865E1,3.878748E2,6.2905334E1,3.169077E1,1.5223795E3,4.0120813E2,4.2167657E2,6.5169727E2,8.9835415E0,1.6216202E1,4.507559E3,2.5970662E3,9.00203E1,4.9646595E1,9.375285E1,2.4896703E2,6.525115E1,1.5823198E2,2.4421605E2,1.4365874E2,1.5196353E3,2.74422E0,3.9173776E2,9.470374E0,4.2043292E2,1.2436596E0,6.3776624E2,1.3931015E1,2.7442803E0,1.3471922E1,1.3943284E1,4.4936157E3,2.490032E1,2.572166E3,4.4153263E1,4.586704E1,1.646575E1,3.3180843E1,1.4775753E3,4.2059963E1,1.4971864E0,1.2470336E0,5.3699726E1,3.3803802E2,4.1496136E2,2.2280487E2,1.9179485E1,5.7208343E0,1.6506856E2,1.3125068E3,5.2206464E0,3.6839317E1,3.9778606E1,1.3921123E1,2.4070941E2,9.732862E1,3.893223E2,2.563907E1,9.098672E1,7.408185E1],"tree_param":{"num_deleted":"0","num_feature":"8","num_nodes":"97","size_leaf_vector":"1"}},{"base_weights":[9.266565E-3,-4.9258637E-1,1.8325411E0,-1.3965267E0,-5.1841317E-3,1.2339064E-1,1.087222E-1,-1.5750874E0,-8.3434784E-1,-1.182655E0,1.4770204E-1,-1.0988032E-1,-1.4773813E0,-8.766066E-4,-1.5620452E0,-1.4205279E0,-7.874421E-1,1.06921434E-1,3.0435252E-1,-1.4137119E0,-1.12814866E-1,-1.7062415E0,5.520141E-1,-1.1007785E-1,-1.4402517E0,-9.823478E-2,-8.614416E-2,-8.603365E-1,-7.646126E-1,-1.1050588E-3,1.1193027E-1,-5.3244483E-2,3.3678693E-1,-1.0899814E-1,-1.3625436E0,-1.12520196E-1,-8.634535E-2,7.545879E-2,1.0044187E0,-1.3361262E0,-1.1137291E-1,-5.8961198E-2,-3.4653995E-2,-4.51334E-2,-5.935963E-2,7.2548753E-3,6.70418E-3,3.3807367E-2,9.950817E-3,-9.961634E-2,-1.3514259E0,3.9234787E-1,-7.569125E-1,9.2313565E-2,4.5571804E-2,-7.806746E-2,-8.771082E-2,-9.024999E-2,-1.3271494E0,7.8127104E-1,2.6124913E-1,-6.791811E-2,-4.0185027E-2,-8.045218E-2,-8.671701E-2,5.631589E-2,2.5614737E-2,-1.0649863E-3,2.27257E-2],"categories":[],"categories_nodes":[],"categories_segments":[],"categories_sizes":[],"default_left":[0,0,0,0,0,0,0,0,0,0,0,0,0,0,0,0,0,0,0,0,0,0,0,0,0,0,0,0,0,0,0,0,0,0,0,0,0,0,0,0,0,0,0,0,0,0,0,0,0,0,0,0,0,0,0,0,0,0,0,0,0,0,0,0,0,0,0,0,0],"id":2,"left_children":[1,3,5,7,9,-1,-1,11,13,15,17,-1,19,21,23,25,27,29,31,33,-1,35,37,-1,39,-1,-1,41,43,-1,45,-1,47,-1,49,-1,-1,51,53,55,-1,-1,-1,-1,-1,-1,-1,-1,-1,-1,57,59,61,-1,-1,-1,-1,-1,63,65,67,-1,-1,-1,-1,-1,-1,-1,-1],"loss_changes":[1.191405E4,4.498455E3,3.5404297E1,3.5817383E2,1.1943905E3,0E0,0E0,4.4554688E1,5.2379486E2,7.09386E1,3.7492706E1,0E0,3.3728027E1,3.8080917E2,9.032593E0,1.9122925E0,4.2648315E-2,2.9079247E0,4.5503723E1,2.2421875E1,0E0,1.1630859E0,6.5705864E1,0E0,8.315369E0,0E0,0E0,1.1910286E0,1.418808E0,0E0,7.5092316E-2,0E0,4.2347412E1,0E0,1.7099609E0,0E0,0E0,3.9565117E1,1.9588974E1,8.54187E-2,0E0,0E0,0E0,0E0,0E0,0E0,0E0,0E0,0E0,0E0,1.2382812E0,5.3984566E0,1.1127453E0,0E0,0E0,0E0,0E0,0E0,1.1695557E0,9.222889E-1,2.3039327E0,0E0,0E0,0E0,0E0,0E0,0E0,0E0,0E0],"parents":[2147483647,0,0,1,1,2,2,3,3,4,4,7,7,8,8,9,9,10,10,12,12,13,13,14,14,15,15,16,16,17,17,18,18,19,19,21,21,22,22,24,24,27,27,28,28,30,30,32,32,34,34,37,37,38,38,39,39,50,50,51,51,52,52,58,58,59,59,60,60],"right_children":[2,4,6,8,10,-1,-1,12,14,16,18,-1,20,22,24,26,28,30,32,34,-1,36,38,-1,40,-1,-1,42,44,-1,46,-1,48,-1,50,-1,-1,52,54,56,-1,-1,-1,-1,-1,-1,-1,-1,-1,-1,58,60,62,-1,-1,-1,-1,-1,64,66,68,-1,-1,-1,-1,-1,-1,-1,-1],"split_conditions":[3E0,7E0,2E0,1E0,2E0,1.2339064E-1,1.087222E-1,5E0,2E0,2E0,1E0,-1.0988032E-1,6E0,2E0,5E0,1E0,1E0,1E0,1E0,1E0,-1.12814866E-1,1E0,6E0,-1.1007785E-1,6E0,-9.823478E-2,-8.614416E-2,1E0,1E0,-1.1050588E-3,2E0,-5.3244483E-2,2E0,-1.0899814E-1,1E0,-1.12520196E-1,-8.634535E-2,5E0,1E0,2E0,-1.1137291E-1,-5.8961198E-2,-3.4653995E-2,-4.51334E-2,-5.935963E-2,7.2548753E-3,6.70418E-3,3.3807367E-2,9.950817E-3,-9.961634E-2,2E0,4E0,1E0,9.2313565E-2,4.5571804E-2,-7.806746E-2,-8.771082E-2,-9.024999E-2,2E0,1E0,1E0,-6.791811E-2,-4.0185027E-2,-8.045218E-2,-8.671701E-2,5.631589E-2,2.5614737E-2,-1.0649863E-3,2.27257E-2],"split_indices":[3,4,2,1,3,0,0,4,3,2,1,0,4,2,4,3,3,2,2,3,0,3,4,0,4,0,0,1,1,0,2,0,2,0,2,0,0,4,3,2,0,0,0,0,0,0,0,0,0,0,3,4,3,0,0,0,0,0,2,3,3,0,0,0,0,0,0,0,0],"split_type":[0,0,0,0,0,0,0,0,0,0,0,0,0,0,0,0,0,0,0,0,0,0,0,0,0,0,0,0,0,0,0,0,0,0,0,0,0,0,0,0,0,0,0,0,0,0,0,0,0,0,0,0,0,0,0,0,0,0,0,0,0,0,0,0,0,0,0,0,0],"sum_hessian":[1.3019277E4,1.0209591E4,2.8096868E3,3.5760957E3,6.633495E3,1.2144325E3,1.5952542E3,2.7131438E3,8.629519E2,7.6181525E2,5.87168E3,9.698272E2,1.7433165E3,4.0255188E2,4.604E2,4.744992E2,2.8731604E2,4.659735E3,1.2119454E3,1.4562147E3,2.8710184E2,9.8218185E1,3.043337E2,1.7598206E2,2.8441794E2,1.15257935E2,3.5924127E2,6.271617E1,2.2459985E2,1.8013023E2,4.4796045E3,3.2726803E1,1.1792186E3,1.9676784E2,1.2594469E3,7.577163E1,2.2446552E1,1.4858801E2,1.557457E2,2.1921786E2,6.520009E1,4.891773E1,1.3798444E1,1.81656E2,4.294385E1,2.638865E3,1.8407393E3,5.5301074E2,6.262078E2,5.5198135E1,1.2042488E3,1.0787148E2,4.0716522E1,5.727938E1,9.8466324E1,9.1959045E1,1.2725882E2,2.5754846E2,9.467003E2,2.6364882E1,8.150661E1,9.344096E0,3.1372427E1,5.1773755E2,4.2896277E2,1.9429022E1,6.9358597E0,2.1793108E1,5.9713493E1],"tree_param":{"num_deleted":"0","num_feature":"8","num_nodes":"69","size_leaf_vector":"1"}},{"base_weights":[-8.302517E-3,-4.829106E-1,1.7029779E0,-1.4169337E0,-2.5074312E-1,1.1507632E-1,1.0100076E-1,-1.4571203E0,-8.431291E-1,-6.839514E-1,-1.8350238E-1,-9.900047E-2,-1.3555573E0,-8.786637E-2,-7.636524E-1,-1.4068763E0,1.3001235E-1,-4.194079E-1,-1.749514E-1,-1.4642786E0,-1.222441E0,-3.838658E-2,-5.7934344E-2,-1.05908655E-1,-7.290263E-2,5.3061225E-2,4.210438E-1,-2.6945312E-2,1.0939852E-2,-8.376997E-3,-2.288565E-1,-9.741978E-2,-8.571725E-2,-8.340263E-2,-6.8617746E-2,-6.808012E-2,6.108259E-2,1.1048017E0,1.3905402E-1,-1.5017583E-2,1.40505675E-2,-1.4079931E-4,5.899348E-3,8.436545E-2,5.0751198E-2,-2.6564563E-2,3.1133702E-1,3.6267735E-2,1.65827E-2],"categories":[],"categories_nodes":[],"categories_segments":[],"categories_sizes":[],"default_left":[0,0,0,0,0,0,0,0,0,0,0,0,0,0,0,0,0,0,0,0,0,0,0,0,0,0,0,0,0,0,0,0,0,0,0,0,0,0,0,0,0,0,0,0,0,0,0,0,0],"id":3,"left_children":[1,3,5,7,9,-1,-1,11,13,15,17,-1,19,-1,21,23,25,27,29,31,33,-1,-1,-1,-1,35,37,-1,-1,-1,39,-1,-1,-1,-1,-1,41,43,45,-1,-1,-1,-1,-1,-1,-1,47,-1,-1],"loss_changes":[1.0563314E4,2.2077468E3,3.266211E1,4.5924316E1,2.3748962E2,0E0,0E0,2.1509521E1,5.2222366E0,6.4479834E2,1.4194702E1,0E0,1.3677856E1,0E0,2.50457E0,3.860791E1,1.1539945E1,1.4592934E0,1.5250137E1,3.451538E0,5.421875E0,0E0,0E0,0E0,0E0,3.7727146E0,2.068277E1,0E0,0E0,0E0,1.3814102E1,0E0,0E0,0E0,0E0,0E0,8.459314E-1,1.5003853E0,7.5510373E0,0E0,0E0,0E0,0E0,0E0,0E0,0E0,6.4623165E-1,0E0,0E0],"parents":[2147483647,0,0,1,1,2,2,3,3,4,4,7,7,8,8,9,9,10,10,12,12,14,14,15,15,16,16,17,17,18,18,19,19,20,20,25,25,26,26,30,30,36,36,37,37,38,38,46,46],"right_children":[2,4,6,8,10,-1,-1,12,14,16,18,-1,20,-1,22,24,26,28,30,32,34,-1,-1,-1,-1,36,38,-1,-1,-1,40,-1,-1,-1,-1,-1,42,44,46,-1,-1,-1,-1,-1,-1,-1,48,-1,-1],"split_conditions":[3E0,7E0,2E0,6E0,2E0,1.1507632E-1,1.0100076E-1,2E0,2E0,2E0,1E0,-9.900047E-2,2E0,-8.786637E-2,2E0,1E0,3E0,3E0,2E0,5E0,5E0,-3.838658E-2,-5.7934344E-2,-1.05908655E-1,-7.290263E-2,2E0,1E0,-2.6945312E-2,1.0939852E-2,-8.376997E-3,3E0,-9.741978E-2,-8.571725E-2,-8.340263E-2,-6.8617746E-2,-6.808012E-2,1E0,5E0,4E0,-1.5017583E-2,1.40505675E-2,-1.4079931E-4,5.899348E-3,8.436545E-2,5.0751198E-2,-2.6564563E-2,6E0,3.6267735E-2,1.65827E-2],"split_indices":[3,5,2,5,3,0,0,3,3,2,2,0,2,0,2,3,7,7,2,5,5,0,0,0,0,7,3,0,0,0,7,0,0,0,0,0,3,7,7,0,0,0,0,0,0,0,7,0,0],"split_type":[0,0,0,0,0,0,0,0,0,0,0,0,0,0,0,0,0,0,0,0,0,0,0,0,0,0,0,0,0,0,0,0,0,0,0,0,0,0,0,0,0,0,0,0,0,0,0,0,0],"sum_hessian":[1.3004669E4,1.018142E4,2.823248E3,2.0262628E3,8.1551577E3,1.1887377E3,1.6345104E3,1.892686E3,1.3357674E2,1.0949159E3,7.0602417E3,8.6617725E2,1.0265088E3,1.5329277E1,1.1824745E2,5.79631E2,5.152849E2,2.4584853E2,6.814393E3,5.613756E2,4.6513318E2,6.1977993E1,5.626946E1,2.6957684E2,3.1005414E2,4.0815106E2,1.07133835E2,2.4210336E2,3.7451622E0,3.8488123E3,2.965581E3,2.9438367E2,2.6699197E2,2.5320473E2,2.1192847E2,2.2354546E0,4.0591562E2,3.071669E1,7.6417145E1,2.9001245E3,6.5456566E1,1.3886078E2,2.6705484E2,1.5730151E1,1.4986539E1,1.7702179E1,5.8714962E1,7.7371325E0,5.097783E1],"tree_param":{"num_deleted":"0","num_feature":"8","num_nodes":"49","size_leaf_vector":"1"}},{"base_weights":[1.0723995E-2,-4.3623397E-1,1.5978694E0,-1.2778176E0,5.403213E-3,1.6655582E0,9.344461E-2,-1.4582117E0,-7.165795E-1,-1.0376275E0,1.4122273E-1,8.609749E-2,1.07503414E-1,-1.02623284E-1,-1.3592972E0,1.01500385E-1,-1.4489726E0,-5.5563796E-1,-1.0716208E0,-3.9520976E-1,1.8282354E-1,-1.29972E0,-1.0491179E-1,-4.6017694E-1,9.028641E-1,-1.0299686E-1,-1.3306824E0,-2.3038223E-1,-6.824967E-1,-7.8516036E-2,-1.0171982E0,-2.0668995E-2,-3.574762E-2,1.2593393E-1,4.089071E-1,-9.993252E-2,-1.2531052E0,-1.4371555E-1,-1.0072687E0,1.17242604E-1,8.4593856E-1,-7.766944E-2,-1.0238534E-1,4.286998E-3,-6.3560486E-2,-4.641199E-2,-2.8222209E-2,-1.0862637E0,-8.980892E-1,1.0210892E-2,3.3567138E-3,3.7983086E-2,1.1389971E-2,-8.247266E-2,-7.764887E-2,-4.8832405E-1,2.2727188E-1,-8.805742E-2,-7.0280015E-1,4.6299872E-1,6.736539E-2,-6.920053E-2,-5.9033293E-2,-5.471407E-2,-6.420311E-2,8.345694E-3,-8.114433E-1,-2.7487742E-2,3.5293046E-1,2.8112503E-3,-7.5781715E-1,1.9882573E-2,3.4470115E-2,9.581377E-2,-9.892039E-3,-1.5663026E-2,-5.66472E-2,2.8383683E-2,-6.6745123E-3,5.4907974E-2,1.8027518E-2,-5.7183366E-2,-3.6482457E-2],"categories":[],"categories_nodes":[],"categories_segments":[],"categories_sizes":[],"default_left":[0,0,0,0,0,0,0,0,0,0,0,0,0,0,0,0,0,0,0,0,0,0,0,0,0,0,0,0,0,0,0,0,0,0,0,0,0,0,0,0,0,0,0,0,0,0,0,0,0,0,0,0,0,0,0,0,0,0,0,0,0,0,0,0,0,0,0,0,0,0,0,0,0,0,0,0,0,0,0,0,0,0,0],"id":4,"left_children":[1,3,5,7,9,11,-1,13,15,17,19,-1,-1,-1,21,23,25,27,29,31,33,35,-1,37,39,-1,41,43,45,-1,47,-1,-1,49,51,-1,53,55,57,-1,59,-1,-1,-1,-1,-1,-1,61,63,-1,-1,-1,-1,-1,-1,65,67,-1,69,71,-1,-1,-1,-1,-1,73,75,77,79,-1,81,-1,-1,-1,-1,-1,-1,-1,-1,-1,-1,-1,-1],"loss_changes":[9.1533E3,3.7419844E3,1.9461914E1,3.501167E2,9.355828E2,2.2250977E1,0E0,4.411963E1,5.058622E2,1.2071716E1,1.3044763E2,0E0,0E0,0E0,2.9735352E1,1.8003036E2,8.616211E0,2.0209026E0,6.0563354E0,4.714859E0,6.971838E1,1.7894287E1,0E0,4.0630466E1,7.9945526E0,0E0,6.505188E0,3.6534824E0,2.6326752E-1,0E0,3.8585815E0,0E0,0E0,1.150798E1,4.851239E1,0E0,1.5112305E-1,1.9225166E1,9.695923E0,0E0,1.3283867E1,0E0,0E0,0E0,0E0,0E0,0E0,9.640503E-2,9.326172E-2,0E0,0E0,0E0,0E0,0E0,0E0,1.2501814E1,2.3303344E0,0E0,2.0765038E0,6.324043E-1,0E0,0E0,0E0,0E0,0E0,8.04863E0,2.2516804E0,9.60896E-1,1.50493E0,0E0,9.066162E-1,0E0,0E0,0E0,0E0,0E0,0E0,0E0,0E0,0E0,0E0,0E0,0E0],"parents":[2147483647,0,0,1,1,2,2,3,3,4,4,5,5,7,7,8,8,9,9,10,10,14,14,15,15,16,16,17,17,18,18,19,19,20,20,21,21,23,23,24,24,26,26,27,27,28,28,30,30,33,33,34,34,36,36,37,37,38,38,40,40,47,47,48,48,55,55,56,56,58,58,59,59,65,65,66,66,67,67,68,68,70,70],"right_children":[2,4,6,8,10,12,-1,14,16,18,20,-1,-1,-1,22,24,26,28,30,32,34,36,-1,38,40,-1,42,44,46,-1,48,-1,-1,50,52,-1,54,56,58,-1,60,-1,-1,-1,-1,-1,-1,62,64,-1,-1,-1,-1,-1,-1,66,68,-1,70,72,-1,-1,-1,-1,-1,74,76,78,80,-1,82,-1,-1,-1,-1,-1,-1,-1,-1,-1,-1,-1,-1],"split_conditions":[3E0,7E0,2E0,1E0,2E0,1E0,9.344461E-2,5E0,2E0,1E0,1E0,8.609749E-2,1.07503414E-1,-1.02623284E-1,6E0,6E0,5E0,1E0,1E0,1E0,1E0,1E0,-1.0491179E-1,5E0,1E0,-1.0299686E-1,6E0,1E0,1E0,-7.8516036E-2,2E0,-2.0668995E-2,-3.574762E-2,2E0,2E0,-9.993252E-2,2E0,1E0,1E0,1.17242604E-1,2E0,-7.766944E-2,-1.0238534E-1,4.286998E-3,-6.3560486E-2,-4.641199E-2,-2.8222209E-2,1E0,1E0,1.0210892E-2,3.3567138E-3,3.7983086E-2,1.1389971E-2,-8.247266E-2,-7.764887E-2,4E0,2E0,-8.805742E-2,1E0,1E0,6.736539E-2,-6.920053E-2,-5.9033293E-2,-5.471407E-2,-6.420311E-2,1E0,1E0,1E0,4E0,2.8112503E-3,2E0,1.9882573E-2,3.4470115E-2,9.581377E-2,-9.892039E-3,-1.5663026E-2,-5.66472E-2,2.8383683E-2,-6.6745123E-3,5.4907974E-2,1.8027518E-2,-5.7183366E-2,-3.6482457E-2],"split_indices":[3,4,0,1,3,0,0,4,3,0,0,0,0,0,4,4,4,3,3,1,1,3,0,4,0,0,4,1,1,0,0,0,0,0,0,0,3,3,3,0,0,0,0,0,0,0,0,1,1,0,0,0,0,0,0,4,0,0,0,3,0,0,0,0,0,0,0,0,4,0,0,0,0,0,0,0,0,0,0,0,0,0,0],"split_type":[0,0,0,0,0,0,0,0,0,0,0,0,0,0,0,0,0,0,0,0,0,0,0,0,0,0,0,0,0,0,0,0,0,0,0,0,0,0,0,0,0,0,0,0,0,0,0,0,0,0,0,0,0,0,0,0,0,0,0,0,0,0,0,0,0,0,0,0,0,0,0,0,0,0,0,0,0,0,0,0,0,0,0],"sum_hessian":[1.290179E4,1.0067227E4,2.834563E3,3.464335E3,6.602892E3,1.7488368E3,1.0857261E3,2.6208704E3,8.4346466E2,7.602349E2,5.842657E3,2.3972878E2,1.509108E3,9.398808E2,1.6809895E3,3.9869537E2,4.447693E2,5.0843307E1,7.093916E2,4.2008746E2,5.42257E3,1.4137543E3,2.6723532E2,2.3456847E2,1.6412692E2,1.6683258E2,2.779367E2,1.4790525E1,3.605278E1,1.6229782E2,5.470938E2,3.0581653E2,1.14270935E2,4.333229E3,1.0893408E3,1.9189314E2,1.2218611E3,1.4913841E2,8.543006E1,7.9753227E0,1.561516E2,2.1415718E2,6.3779507E1,1.1140092E1,3.6504338E0,2.7859724E1,8.193057E0,3.428838E2,2.0421E2,2.8774766E3,1.4557523E3,5.8480756E2,5.0453323E2,2.5489452E2,9.6696655E2,7.720922E1,7.192919E1,3.615319E1,4.9276867E1,5.8817024E1,9.733457E1,3.0593753E2,3.6946255E1,1.7223238E2,3.197764E1,3.068679E1,4.652243E1,2.3930695E1,4.7998497E1,3.3864179E0,4.589045E1,2.2891169E1,3.5925858E1,2.4876888E0,2.81991E1,6.799747E0,3.9722683E1,2.9339788E0,2.0996716E1,4.471501E0,4.3526997E1,2.3154392E1,2.2736055E1],"tree_param":{"num_deleted":"0","num_feature":"8","num_nodes":"83","size_leaf_vector":"1"}},{"base_weights":[5.307291E-3,-9.8401445E-1,4.194793E-1,-1.3828913E0,-8.2979196E-1,-9.5043993E-1,5.7483125E-1,-9.245606E-2,-1.3404641E0,-1.2230971E0,-6.363047E-1,-1.1713493E0,-6.80187E-1,1.7515989E-1,6.074601E-1,-8.706661E-2,-7.954136E-2,-1.5566599E0,-8.167942E-1,-8.219943E-1,-4.2827713E-1,-1.3274138E0,-9.9099576E-1,-8.1887734E-1,-6.536184E-1,-8.8820297E-1,1.8577135E-1,5.3355056E-1,6.94884E-1,-1.0570904E-1,-9.523697E-2,-1.0518415E0,-4.80752E-1,-6.734745E-1,-1.03223346E-1,-6.8260026E-1,1.3249885E-1,-1.3985374E0,-7.3967695E-2,-9.126227E-2,-5.974343E-2,-6.492955E-1,-9.6196973E-1,-6.986082E-1,-3.6867097E-2,-4.2988677E-3,-6.778204E-2,-2.4719423E-2,2.0322604E-1,2.2080831E-1,5.533327E-1,8.122539E-1,5.303549E-1,-2.4921337E-1,-1.1565785E0,-9.780621E-2,-4.3285364E-1,-1.2550753E0,-6.389509E-1,-4.8130795E-2,-3.3272173E-2,-3.29856E-1,4.049393E-2,-6.287913E-2,-9.152189E-2,-6.863198E-2,-3.6178563E-2,-3.5317212E-2,-6.2166344E-2,-5.25675E-1,-4.513331E-2,1.3939209E-2,1.1453323E-2,1.4580845E-2,1.1987327E-2,5.5402394E-2,5.5903184E-1,-4.227088E-3,5.172018E-2,-2.6962323E-2,3.391016E-2,3.907736E-2,-2.8746711E-2,-8.7065734E-2,-6.363476E-2,-9.06575E-3,-3.1800885E-2,-3.747858E-2,-8.128412E-2,-4.963035E-2,-6.257376E-1,4.6995327E-2,-3.152116E-2,-4.302553E-2,-2.2333477E-2,1.4218432E-3,7.371716E-3,3.4279376E-2,3.6684632E-2,-4.0972937E-2,-3.618923E-2],"categories":[],"categories_nodes":[],"categories_segments":[],"categories_sizes":[],"default_left":[0,0,0,0,0,0,0,0,0,0,0,0,0,0,0,0,0,0,0,0,0,0,0,0,0,0,0,0,0,0,0,0,0,0,0,0,0,0,0,0,0,0,0,0,0,0,0,0,0,0,0,0,0,0,0,0,0,0,0,0,0,0,0,0,0,0,0,0,0,0,0,0,0,0,0,0,0,0,0,0,0,0,0,0,0,0,0,0,0,0,0,0,0,0,0,0,0,0,0,0,0],"id":5,"left_children":[1,3,5,7,9,11,13,-1,15,17,19,21,23,25,27,-1,-1,29,31,33,35,37,39,41,43,45,47,49,51,-1,-1,53,55,57,-1,59,61,63,-1,-1,-1,65,67,69,-1,-1,-1,-1,71,73,75,77,79,81,83,-1,85,87,89,-1,-1,91,-1,-1,-1,-1,-1,-1,-1,93,-1,-1,-1,-1,-1,95,97,-1,-1,-1,-1,-1,-1,-1,-1,-1,-1,-1,-1,-1,99,-1,-1,-1,-1,-1,-1,-1,-1,-1,-1],"loss_changes":[5.2985234E3,2.3398193E2,1.9402429E3,2.7159424E0,2.0903284E2,5.491266E1,1.0669678E2,0E0,1.3039551E0,1.2211389E2,7.1114624E1,1.3483215E1,1.1896667E0,7.092804E0,4.86604E1,0E0,0E0,8.3825684E-1,3.208206E1,1.1826178E2,1.24495346E2,1.7964172E0,3.4740295E0,1.1573906E0,7.918854E-1,9.2671394E-1,6.2553368E0,2.5311157E1,6.663086E1,0E0,0E0,2.006366E1,8.32634E0,1.6073456E1,0E0,7.416443E0,6.475216E1,3.243744E0,0E0,0E0,0E0,6.11434E-1,6.7310333E-3,4.7154236E-1,0E0,0E0,0E0,0E0,2.0582771E-1,5.3991318E-2,1.0932617E1,2.0072632E1,1.34436035E1,5.396282E0,6.0805664E0,0E0,3.4252625E0,6.6508484E-1,1.23526E0,0E0,0E0,2.6926514E1,0E0,0E0,0E0,0E0,0E0,0E0,0E0,4.9207258E-1,0E0,0E0,0E0,0E0,0E0,8.841851E-2,1.0532227E0,0E0,0E0,0E0,0E0,0E0,0E0,0E0,0E0,0E0,0E0,0E0,0E0,0E0,7.040405E-1,0E0,0E0,0E0,0E0,0E0,0E0,0E0,0E0,0E0,0E0],"parents":[2147483647,0,0,1,1,2,2,3,3,4,4,5,5,6,6,8,8,9,9,10,10,11,11,12,12,13,13,14,14,17,17,18,18,19,19,20,20,21,21,22,22,23,23,24,24,25,25,26,26,27,27,28,28,31,31,32,32,33,33,35,35,36,36,37,37,41,41,42,42,43,43,48,48,49,49,50,50,51,51,52,52,53,53,54,54,56,56,57,57,58,58,61,61,69,69,75,75,76,76,90,90],"right_children":[2,4,6,8,10,12,14,-1,16,18,20,22,24,26,28,-1,-1,30,32,34,36,38,40,42,44,46,48,50,52,-1,-1,54,56,58,-1,60,62,64,-1,-1,-1,66,68,70,-1,-1,-1,-1,72,74,76,78,80,82,84,-1,86,88,90,-1,-1,92,-1,-1,-1,-1,-1,-1,-1,94,-1,-1,-1,-1,-1,96,98,-1,-1,-1,-1,-1,-1,-1,-1,-1,-1,-1,-1,-1,100,-1,-1,-1,-1,-1,-1,-1,-1,-1,-1],"split_conditions":[7E0,7E0,6E0,4E0,5E0,2E0,1E0,-9.245606E-2,2E0,2E0,2E0,5E0,4E0,7E0,2E0,-8.706661E-2,-7.954136E-2,4E0,2E0,6E0,6E0,2E0,1E0,2E0,2E0,1E0,1E0,1E0,2E0,-1.0570904E-1,-9.523697E-2,1E0,3E0,1E0,-1.03223346E-1,2E0,2E0,1E0,-7.3967695E-2,-9.126227E-2,-5.974343E-2,1E0,3E0,1E0,-3.6867097E-2,-4.2988677E-3,-6.778204E-2,-2.4719423E-2,2E0,2E0,7E0,7E0,7E0,4E0,4E0,-9.780621E-2,4E0,1E0,1E0,-4.8130795E-2,-3.3272173E-2,1E0,4.049393E-2,-6.287913E-2,-9.152189E-2,-6.863198E-2,-3.6178563E-2,-3.5317212E-2,-6.2166344E-2,5E0,-4.513331E-2,1.3939209E-2,1.1453323E-2,1.4580845E-2,1.1987327E-2,2E0,2E0,-4.227088E-3,5.172018E-2,-2.6962323E-2,3.391016E-2,3.907736E-2,-2.8746711E-2,-8.7065734E-2,-6.363476E-2,-9.06575E-3,-3.1800885E-2,-3.747858E-2,-8.128412E-2,-4.963035E-2,2E0,4.6995327E-2,-3.152116E-2,-4.302553E-2,-2.2333477E-2,1.4218432E-3,7.371716E-3,3.4279376E-2,3.6684632E-2,-4.0972937E-2,-3.618923E-2],"split_indices":[4,5,5,5,4,2,0,0,2,2,2,5,5,5,2,0,0,4,0,4,4,0,2,0,0,2,2,2,0,0,0,0,4,2,0,0,0,0,0,0,0,0,5,0,0,0,0,0,2,0,5,5,5,4,4,0,4,0,0,0,0,0,0,0,0,0,0,0,0,5,0,0,0,0,0,0,0,0,0,0,0,0,0,0,0,0,0,0,0,0,0,0,0,0,0,0,0,0,0,0,0],"split_type":[0,0,0,0,0,0,0,0,0,0,0,0,0,0,0,0,0,0,0,0,0,0,0,0,0,0,0,0,0,0,0,0,0,0,0,0,0,0,0,0,0,0,0,0,0,0,0,0,0,0,0,0,0,0,0,0,0,0,0,0,0,0,0,0,0,0,0,0,0,0,0,0,0,0,0,0,0,0,0,0,0,0,0,0,0,0,0,0,0,0,0,0,0,0,0,0,0,0,0,0,0],"sum_hessian":[1.29298E4,3.8153237E3,9.114476E3,1.0623647E3,2.7529587E3,9.279818E2,8.186494E3,3.3507666E2,7.2728815E2,9.0658844E2,1.8463705E3,5.0938727E2,4.1859454E2,6.182128E2,7.5682812E3,4.4160242E2,2.8568573E2,4.9682806E2,4.0976035E2,9.7452814E2,8.718423E2,2.7081927E2,2.38568E2,6.411533E1,3.5447922E2,5.565967E0,6.1264685E2,4.103681E3,3.4646E3,1.1333663E2,3.8349146E2,2.402806E2,1.6947977E2,8.263559E2,1.4817224E2,5.997152E2,2.7212708E2,1.7981877E2,9.100052E1,1.7012442E1,2.2155554E2,3.1023676E1,3.309166E1,2.0779846E2,1.4668076E2,1.2224878E0,4.3434796E0,1.749913E1,5.951477E2,2.4461075E2,3.8590703E3,2.0205734E3,1.4440267E3,2.7994461E1,2.1228613E2,6.3282633E0,1.631515E2,4.4988823E1,7.8136707E2,3.8564816E2,2.1406706E2,1.431566E2,1.2897046E2,2.4700943E1,1.5511783E2,3.0873735E0,2.7936304E1,3.0747392E0,3.0016918E1,2.34516E1,1.8434686E2,3.1025238E2,2.8489532E2,1.7408395E2,7.05268E1,4.375057E1,3.8153198E3,2.5520798E1,1.9950525E3,1.3993645E1,1.4300331E3,5.150834E0,2.2843628E1,7.935138E1,1.3293475E2,3.3525818E1,1.2962569E2,3.132574E0,4.1856247E1,5.9623676E1,7.217434E2,1.9394596E1,1.2376201E2,1.1067743E1,1.2383855E1,2.9213245E1,1.4537325E1,2.5089817E3,1.3063381E3,4.6386096E2,2.5788245E2],"tree_param":{"num_deleted":"0","num_feature":"8","num_nodes":"101","size_leaf_vector":"1"}},{"base_weights":[-8.284311E-3,-3.7733617E-1,1.596672E-1,-5.8010143E-1,-1.4442375E-1,7.183654E-2,2.6741126E-1,-6.1514866E-1,-3.8557842E-1,-1.6874525E-1,8.245988E-1,-2.3811498E-1,9.166745E-2,2.5371704E-1,6.3069564E-1,-6.8683153E-1,-5.574559E-1,-7.0799455E-2,-3.0343628E-1,-2.4063595E-1,6.5542765E-2,3.841476E-2,1.0641513E0,-1.3473734E-1,-5.0453857E-2,5.9178956E-2,1.7503757E-2,2.641464E-1,2.2411615E-1,3.3310883E-2,7.360171E-1,-5.7928883E-2,-4.2066187E-2,-5.7804626E-1,-3.5941315E-1,-2.556399E-2,-2.3065633E-1,-3.195017E-1,-2.4157185E-2,-6.4415485E-2,7.699097E-2,1.715051E-2,8.390204E-2,-1.01781655E-2,6.622262E-2,-6.010791E-2,3.803893E-3,-5.3075543E-3,1.6615761E-2,2.2589596E-2,1.372602E-2,6.6543564E-2,3.8640164E-2,-6.856343E-1,-3.573702E-2,-1.3911468E-2,-2.2829885E-2,-1.9802873E-1,-3.6109407E-2,-2.3853233E-2,-1.5770217E-2,-3.674715E-2,6.92606E-2,-8.984449E-3,1.834522E-2,6.252121E-2,1.1973745E-1,-5.1679503E-2,-1.9179726E-2,-2.4963368E-1,-1.1661722E-3,-2.1230818E-3,-2.5659092E-3,3.3943742E-3,5.2778525E-3,8.403892E-2,1.5568517E-2,-1.398907E-2,-4.3038107E-2,1.005321E-2,-9.632483E-3],"categories":[],"categories_nodes":[],"categories_segments":[],"categories_sizes":[],"default_left":[0,0,0,0,0,0,0,0,0,0,0,0,0,0,0,0,0,0,0,0,0,0,0,0,0,0,0,0,0,0,0,0,0,0,0,0,0,0,0,0,0,0,0,0,0,0,0,0,0,0,0,0,0,0,0,0,0,0,0,0,0,0,0,0,0,0,0,0,0,0,0,0,0,0,0,0,0,0,0,0,0],"id":6,"left_children":[1,3,5,7,9,11,13,15,17,19,21,23,25,27,29,31,33,-1,35,37,39,-1,41,43,-1,45,-1,47,49,-1,51,-1,-1,53,55,-1,57,59,61,63,65,-1,-1,-1,-1,-1,-1,-1,-1,-1,-1,-1,-1,67,-1,-1,-1,69,-1,-1,-1,71,-1,-1,-1,73,75,-1,-1,77,-1,-1,-1,-1,-1,79,-1,-1,-1,-1,-1],"loss_changes":[7.935114E2,1.8903699E2,8.324658E1,1.443396E1,4.4031006E1,2.9812809E1,1.9549316E1,7.241394E0,1.978925E1,3.0652027E1,1.9021568E0,1.6973637E1,2.7679474E1,1.1364746E0,1.2522926E0,2.8197327E0,3.9714355E0,0E0,2.1748772E0,2.3763893E1,6.3958395E-1,0E0,4.1949368E0,8.152958E0,0E0,5.520957E0,0E0,4.2771912E-1,6.9922256E-1,0E0,2.2272186E0,0E0,0E0,6.2561035E-1,1.209259E-3,0E0,1.8993063E0,4.1456223E0,5.3118644E0,1.0086365E0,2.383337E-1,0E0,0E0,0E0,0E0,0E0,0E0,0E0,0E0,0E0,0E0,0E0,0E0,3.3435135E0,0E0,0E0,0E0,1.4934416E0,0E0,0E0,0E0,3.544122E-3,0E0,0E0,0E0,5.081904E-2,4.3796146E-1,0E0,0E0,1.3683052E0,0E0,0E0,0E0,0E0,0E0,1.4286946E0,0E0,0E0,0E0,0E0,0E0],"parents":[2147483647,0,0,1,1,2,2,3,3,4,4,5,5,6,6,7,7,8,8,9,9,10,10,11,11,12,12,13,13,14,14,15,15,16,16,18,18,19,19,20,20,22,22,23,23,25,25,27,27,28,28,30,30,33,33,34,34,36,36,37,37,38,38,39,39,40,40,53,53,57,57,61,61,65,65,66,66,69,69,75,75],"right_children":[2,4,6,8,10,12,14,16,18,20,22,24,26,28,30,32,34,-1,36,38,40,-1,42,44,-1,46,-1,48,50,-1,52,-1,-1,54,56,-1,58,60,62,64,66,-1,-1,-1,-1,-1,-1,-1,-1,-1,-1,-1,-1,68,-1,-1,-1,70,-1,-1,-1,72,-1,-1,-1,74,76,-1,-1,78,-1,-1,-1,-1,-1,80,-1,-1,-1,-1,-1],"split_conditions":[6E0,2E0,2E0,1E0,5E0,1E0,4E0,1E0,1E0,2E0,2E0,1E0,1E0,1E0,1E0,1E0,4E0,-7.0799455E-2,1E0,1E0,3E0,3.841476E-2,1E0,3E0,-5.0453857E-2,7E0,1.7503757E-2,7E0,7E0,3.3310883E-2,6E0,-5.7928883E-2,-4.2066187E-2,1E0,1E0,-2.556399E-2,4E0,1E0,3E0,1E0,1E0,1.715051E-2,8.390204E-2,-1.01781655E-2,6.622262E-2,-6.010791E-2,3.803893E-3,-5.3075543E-3,1.6615761E-2,2.2589596E-2,1.372602E-2,6.6543564E-2,3.8640164E-2,3E0,-3.573702E-2,-1.3911468E-2,-2.2829885E-2,3E0,-3.6109407E-2,-2.3853233E-2,-1.5770217E-2,1E0,6.92606E-2,-8.984449E-3,1.834522E-2,4E0,5E0,-5.1679503E-2,-1.9179726E-2,2E0,-1.1661722E-3,-2.1230818E-3,-2.5659092E-3,3.3943742E-3,5.2778525E-3,4E0,1.5568517E-2,-1.398907E-2,-4.3038107E-2,1.005321E-2,-9.632483E-3],"split_indices":[6,2,2,1,7,2,7,6,2,6,6,1,1,1,1,2,6,0,6,1,6,0,1,7,0,6,0,6,6,0,7,0,0,2,2,0,6,6,7,1,1,0,0,0,0,0,0,0,0,0,0,0,0,6,0,0,0,6,0,0,0,6,0,0,0,6,6,0,0,6,0,0,0,0,0,6,0,0,0,0,0],"split_type":[0,0,0,0,0,0,0,0,0,0,0,0,0,0,0,0,0,0,0,0,0,0,0,0,0,0,0,0,0,0,0,0,0,0,0,0,0,0,0,0,0,0,0,0,0,0,0,0,0,0,0,0,0,0,0,0,0,0,0,0,0,0,0,0,0,0,0,0,0,0,0,0,0,0,0,0,0,0,0,0,0],"sum_hessian":[1.2800811E4,4.003283E3,8.797527E3,2.1396182E3,1.8636647E3,4.8472554E3,3.9502722E3,1.8117584E3,3.2785983E2,1.8185685E3,4.509617E1,2.910423E2,4.5562134E3,3.8078599E3,1.4241254E2,8.0469415E2,1.0070642E3,3.1846178E1,2.9601367E2,1.3915553E3,4.270132E2,2.5123093E1,1.9973076E1,2.4673825E2,4.4304024E1,3.8826716E3,6.7354156E2,2.8118818E3,9.9597797E2,7.4998116E1,6.741442E1,5.1862053E1,7.528321E2,9.110677E2,9.599652E1,1.20879326E2,1.7513434E2,1.0197371E3,3.718181E2,3.4322186E1,3.92691E2,5.4477186E0,1.4525357E1,2.4175613E2,4.982126E0,4.6770544E0,3.8779946E3,3.2316542E0,2.8086501E3,3.758E1,9.58398E2,1.6921255E1,5.0493164E1,6.660264E1,8.444651E2,3.8258877E0,9.217064E1,1.6092934E2,1.4204988E1,5.4031964E2,4.794175E2,3.6834518E2,3.4729373E0,2.8445147E1,5.8770385E0,2.946021E2,9.8088905E1,4.8371273E1,1.8231363E1,1.24786606E2,3.614274E1,2.182234E2,1.5012178E2,2.1303452E2,8.15676E1,7.75779E1,2.0511E1,1.18476685E2,6.3099217E0,5.8923145E1,1.865476E1],"tree_param":{"num_deleted":"0","num_feature":"8","num_nodes":"81","size_leaf_vector":"1"}},{"base_weights":[-3.3145004E-3,-4.1568345E-1,1.4885594E0,-9.2917603E-1,-2.9608294E-1,9.90994E-2,1.4805913E0,-1.216662E0,-1.10249296E-1,-6.222887E-1,-1.6728392E-1,8.85853E-2,9.3891315E-2,-1.3935336E0,-1.0984126E0,-2.3785706E-1,3.7567955E-1,-6.37245E-1,-5.61483E-1,-1.9784932E-1,-4.9606983E-2,-1.3468292E0,-9.230918E-2,-1.103206E0,-2.214087E-1,-4.5374373E-1,-7.947254E-2,9.252227E-1,1.3218406E-1,-6.501153E-1,-5.813074E-1,-4.1555915E-2,-4.7658464E-1,-1.2591923E-2,9.529249E-4,-3.5089198E-3,3.7315123E-2,-8.547134E-2,-6.677183E-2,-7.4329264E-2,-1.0554086E0,-7.482828E-2,5.5328052E-2,-6.5768564E-1,-2.335698E-1,1.4892869E-1,-2.5443828E-2,6.8811E-2,4.9381873E-1,7.821912E-1,-1.772362E-1,-6.4373076E-1,-5.488229E-2,-3.7511405E-2,-3.337227E-2,-4.564378E-1,-4.3353956E-2,-9.0885997E-1,-6.7938164E-2,-3.573979E-2,-4.857703E-2,3.828915E-1,-3.3847356E-1,2.186923E-2,-3.7777673E-2,5.433362E-2,1.8642584E-2,5.806327E-1,6.8943344E-2,-3.595872E-2,6.6266194E-2,-3.8838703E-2,-4.230614E-2,-3.0752119E-2,-2.2433605E-2,-9.8428106E-1,-4.26928E-2,3.8492277E-3,2.7068013E-2,-4.0290322E-2,-2.9712692E-1,-2.099557E-1,2.384916E-1,6.286028E-2,2.7605437E-2,3.4303952E-2,-1.5691933E-4,-4.638557E-2,-6.402808E-2,2.9354788E-2,-2.2966735E-2,-1.6676463E-2,-3.9024018E-3,2.4390649E-2,1.2683559E-2],"categories":[],"categories_nodes":[],"categories_segments":[],"categories_sizes":[],"default_left":[0,0,0,0,0,0,0,0,0,0,0,0,0,0,0,0,0,0,0,0,0,0,0,0,0,0,0,0,0,0,0,0,0,0,0,0,0,0,0,0,0,0,0,0,0,0,0,0,0,0,0,0,0,0,0,0,0,0,0,0,0,0,0,0,0,0,0,0,0,0,0,0,0,0,0,0,0,0,0,0,0,0,0,0,0,0,0,0,0,0,0,0,0,0,0],"id":7,"left_children":[1,3,5,7,9,-1,11,13,15,17,19,-1,-1,21,23,25,27,29,31,33,35,37,-1,39,41,43,45,47,49,51,53,-1,55,-1,-1,-1,-1,-1,-1,-1,57,-1,-1,59,61,63,-1,-1,65,67,69,71,-1,-1,-1,73,-1,75,-1,-1,-1,77,79,-1,81,-1,-1,83,-1,-1,85,-1,-1,-1,-1,87,-1,-1,-1,-1,89,91,93,-1,-1,-1,-1,-1,-1,-1,-1,-1,-1,-1,-1],"loss_changes":[7.859475E3,6.1450183E2,4.194336E-1,4.449939E2,3.4105157E2,0E0,1.1762695E0,2.824878E1,3.0564457E1,1.852417E0,2.093309E1,0E0,0E0,6.746826E-1,3.3763428E0,1.3312721E1,1.3644816E1,1.0734253E0,3.6973114E0,2.608551E0,4.866354E0,4.5629883E-1,0E0,2.3840332E0,6.477486E0,7.303234E0,1.6834381E1,1.948492E0,1.4544083E1,1.7549438E0,6.879425E-2,0E0,8.715515E-1,0E0,0E0,0E0,0E0,0E0,0E0,0E0,1.3973389E0,0E0,0E0,5.825691E-1,5.2809744E0,4.9647293E0,0E0,0E0,5.6800413E-1,1.0587797E0,4.763507E0,8.216553E-1,0E0,0E0,0E0,6.464195E-1,0E0,1.0253677E0,0E0,0E0,0E0,1.6801107E-1,7.3810863E-1,0E0,3.3328679E0,0E0,0E0,6.344681E-1,0E0,0E0,1.0258397E0,0E0,0E0,0E0,0E0,4.1088104E-2,0E0,0E0,0E0,0E0,3.361086E0,3.4303403E-1,9.548128E-2,0E0,0E0,0E0,0E0,0E0,0E0,0E0,0E0,0E0,0E0,0E0,0E0],"parents":[2147483647,0,0,1,1,2,2,3,3,4,4,6,6,7,7,8,8,9,9,10,10,13,13,14,14,15,15,16,16,17,17,18,18,19,19,20,20,21,21,23,23,24,24,25,25,26,26,27,27,28,28,29,29,30,30,32,32,40,40,43,43,44,44,45,45,48,48,49,49,50,50,51,51,55,55,57,57,61,61,62,62,64,64,67,67,70,70,75,75,80,80,81,81,82,82],"right_children":[2,4,6,8,10,-1,12,14,16,18,20,-1,-1,22,24,26,28,30,32,34,36,38,-1,40,42,44,46,48,50,52,54,-1,56,-1,-1,-1,-1,-1,-1,-1,58,-1,-1,60,62,64,-1,-1,66,68,70,72,-1,-1,-1,74,-1,76,-1,-1,-1,78,80,-1,82,-1,-1,84,-1,-1,86,-1,-1,-1,-1,88,-1,-1,-1,-1,90,92,94,-1,-1,-1,-1,-1,-1,-1,-1,-1,-1,-1,-1],"split_conditions":[3E0,2E0,1E0,1E0,6E0,9.90994E-2,6E0,1E0,3E0,1E0,1E0,8.85853E-2,9.3891315E-2,6E0,3E0,1E0,1E0,3E0,1E0,3E0,3E0,4E0,-9.230918E-2,2E0,4E0,2E0,7E0,7E0,4E0,2E0,4E0,-4.1555915E-2,4E0,-1.2591923E-2,9.529249E-4,-3.5089198E-3,3.7315123E-2,-8.547134E-2,-6.677183E-2,-7.4329264E-2,7E0,-7.482828E-2,5.5328052E-2,1E0,4E0,1E0,-2.5443828E-2,6.8811E-2,6E0,2E0,4E0,1E0,-5.488229E-2,-3.7511405E-2,-3.337227E-2,2E0,-4.3353956E-2,4E0,-6.7938164E-2,-3.573979E-2,-4.857703E-2,3E0,6E0,2.186923E-2,5E0,5.433362E-2,1.8642584E-2,1E0,6.8943344E-2,-3.595872E-2,6E0,-3.8838703E-2,-4.230614E-2,-3.0752119E-2,-2.2433605E-2,3E0,-4.26928E-2,3.8492277E-3,2.7068013E-2,-4.0290322E-2,7E0,3E0,6E0,6.286028E-2,2.7605437E-2,3.4303952E-2,-1.5691933E-4,-4.638557E-2,-6.402808E-2,2.9354788E-2,-2.2966735E-2,-1.6676463E-2,-3.9024018E-3,2.4390649E-2,1.2683559E-2],"split_indices":[3,3,6,1,6,0,6,3,7,1,1,0,0,6,7,3,3,6,6,7,7,6,0,6,6,6,6,6,6,6,6,0,6,0,0,0,0,0,0,0,6,0,0,6,6,6,0,0,7,6,7,6,0,0,0,6,0,6,0,0,0,6,6,0,6,0,0,6,0,0,7,0,0,0,0,6,0,0,0,0,6,6,6,0,0,0,0,0,0,0,0,0,0,0,0],"split_type":[0,0,0,0,0,0,0,0,0,0,0,0,0,0,0,0,0,0,0,0,0,0,0,0,0,0,0,0,0,0,0,0,0,0,0,0,0,0,0,0,0,0,0,0,0,0,0,0,0,0,0,0,0,0,0,0,0,0,0,0,0,0,0,0,0,0,0,0,0,0,0,0,0,0,0,0,0,0,0,0,0,0,0,0,0,0,0,0,0,0,0,0,0,0,0],"sum_hessian":[1.2774098E4,1.0008207E4,2.7658904E3,1.8898473E3,8.11836E3,2.1571526E2,2.550175E3,1.3985582E3,4.912891E2,2.2973586E3,5.8210015E3,4.4615662E2,2.1040186E3,5.5750793E2,8.4105023E2,3.893756E2,1.019135E2,1.838784E3,4.5857452E2,4.6204375E3,1.2005638E3,3.5346246E2,2.0404549E2,8.363081E2,4.7421775E0,1.6425267E2,2.2512294E2,3.0721119E1,7.119238E1,1.4891147E3,3.4966937E2,2.0826631E2,2.5030823E2,4.5637495E3,5.6687862E1,1.1895941E3,1.0969794E1,3.3431854E2,1.9143896E1,3.0613486E2,5.301732E2,2.49395E0,2.2482278E0,8.458489E1,7.966778E1,1.325322E2,9.2590744E1,2.1288778E1,9.432342E0,2.2632874E1,4.8559505E1,1.4503058E3,3.8808945E1,2.5940286E2,9.026651E1,2.3064735E2,1.9660872E1,8.438652E1,4.457867E2,5.0139534E1,3.444536E1,1.1329847E1,6.833793E1,6.3828426E1,6.870377E1,2.4890752E0,6.943267E0,1.4961568E1,7.6713066E0,1.8167673E1,3.039183E1,7.931252E2,6.571806E2,1.7084631E2,5.980104E1,6.183876E1,2.2547762E1,1.6705499E0,9.659298E0,7.047615E0,6.1290314E1,4.2423607E1,2.6280165E1,2.743626E0,1.2217941E1,3.2312565E0,2.7160574E1,9.580659E0,5.22581E1,4.726536E0,5.6563774E1,3.0447264E1,1.1976342E1,3.8981938E0,2.2381971E1],"tree_param":{"num_deleted":"0","num_feature":"8","num_nodes":"95","size_leaf_vector":"1"}},{"base_weights":[5.6814128E-3,-1.0681785E0,2.0712322E-1,-1.1979904E0,-8.8593286E-1,-2.007184E-2,2.938466E-1,-1.2483325E0,-4.8415425E-1,-1.115136E0,-7.470046E-1,-1.7561923E-1,1.3750833E-1,3.201968E-2,3.1435615E-1,-1.3111646E0,-1.1265179E0,-9.0791833E-1,-2.7820075E-1,-7.526629E-2,-9.5932305E-1,-6.9805585E-2,-6.8009317E-1,-2.3018523E-1,-6.921854E-2,6.91529E-2,3.2527986E-1,7.422575E-2,2.7644806E-2,2.4284725E-1,4.014251E-1,-7.096856E-2,-8.30887E-2,-7.887606E-2,-1.0343168E0,-7.946912E-1,-7.7242434E-2,-5.7650693E-2,-2.3946859E-1,-5.9644884E-1,-6.1606795E-2,-8.785371E-1,-6.6494906E-1,-5.3583676E-1,-2.0829363E-1,-1.8416463E-1,9.250161E-3,-1.8746277E-2,2.1128672E-1,2.6470068E-1,4.04245E-1,7.859006E-2,-2.1083704E-3,4.4892814E-2,2.5429037E-1,4.8175585E-1,2.881331E-1,-4.8544075E-2,-6.60121E-2,-5.7763454E-2,-3.258519E-1,-3.06465E-3,-1.570897E-2,-2.3802152E-2,-5.5644248E-2,-2.0793198E-2,-5.670796E-2,-6.809475E-1,-5.3260475E-1,-7.666315E-1,-3.7132952E-1,-2.8609854E-1,-1.9643724E-1,-2.1303354E-2,-1.06341755E-2,8.4114276E-2,-1.2642947E-1,1.4034264E-1,-3.9236996E-2,5.0666933E-3,2.1480676E-2,3.2773573E-2,2.4325633E-1,1.4393433E-2,4.191078E-1,-1.1047845E-2,6.293237E-3,9.281277E-3,-1.4036025E-2,-1.1940869E-2,2.5449622E-1,-9.001967E-3,3.0519648E-2,2.9600218E-2,1.7891921E-2,-5.1783353E-2,5.9825615E-3,-4.4481557E-2,-4.0494647E-2,-4.3170038E-1,-6.915591E-1,-7.250956E-2,-4.4596035E-2,-1.8485295E-2,-3.536458E-2,-3.351014E-1,-1.3623677E-1,-1.8688174E-1,-2.13371E-2,-3.2280564E-2,8.479862E-3,3.513486E-2,-1.8212104E-1,1.0719325E-2,6.238979E-3,-2.858669E-3,-1.9808393E-3,1.7019304E-2,1.0752982E-2,2.8630327E-2,3.3169776E-1,1.6293637E-2,1.535598E-2,1.0521388E-2,-3.0145897E-2,-6.834337E-2,-3.8432535E-2,-1.9693494E-2,-4.803755E-2,-1.089577E-2,-3.2911035E-3,-9.7779995E-3,-2.1023759E-1,-1.6798936E-2,2.1119139E-3,-6.552516E-3,2.8995972E-2,-1.3797965E-2,-1.1222702E-2],"categories":[],"categories_nodes":[],"categories_segments":[],"categories_sizes":[],"default_left":[0,0,0,0,0,0,0,0,0,0,0,0,0,0,0,0,0,0,0,0,0,0,0,0,0,0,0,0,0,0,0,0,0,0,0,0,0,0,0,0,0,0,0,0,0,0,0,0,0,0,0,0,0,0,0,0,0,0,0,0,0,0,0,0,0,0,0,0,0,0,0,0,0,0,0,0,0,0,0,0,0,0,0,0,0,0,0,0,0,0,0,0,0,0,0,0,0,0,0,0,0,0,0,0,0,0,0,0,0,0,0,0,0,0,0,0,0,0,0,0,0,0,0,0,0,0,0,0,0,0,0,0,0,0,0,0,0,0,0],"id":8,"left_children":[1,3,5,7,9,11,13,15,17,19,21,23,25,27,29,31,33,35,37,-1,39,-1,41,43,45,47,49,-1,51,53,55,-1,-1,-1,57,59,-1,-1,61,63,-1,65,67,69,71,73,75,77,79,81,83,85,-1,87,89,91,93,-1,-1,-1,95,-1,-1,-1,-1,-1,-1,97,99,101,103,105,107,-1,-1,109,111,113,115,-1,-1,-1,117,-1,119,-1,-1,-1,-1,-1,121,-1,-1,-1,-1,-1,-1,-1,-1,123,125,-1,-1,-1,-1,127,129,131,-1,-1,-1,-1,133,-1,-1,-1,-1,-1,-1,-1,135,-1,-1,-1,-1,-1,-1,-1,-1,-1,-1,-1,137,-1,-1,-1,-1,-1,-1],"loss_changes":[2.7423394E3,4.6668945E1,2.1033002E2,4.1556885E1,2.60531E1,7.231517E1,4.1480408E1,7.3641357E0,6.639925E0,3.3124084E0,1.2234589E1,8.609295E0,1.8796568E1,2.805216E0,4.4542908E1,5.4052734E-1,3.6203308E0,2.7069855E-1,1.1784692E0,0E0,4.960251E-1,0E0,9.434509E-1,6.4907074E0,4.549224E0,1.3437017E1,1.7992249E0,0E0,1.7497739E0,8.907028E0,2.9301086E1,0E0,0E0,0E0,4.3902588E-1,1.0049448E0,0E0,0E0,9.615922E-2,2.8284955E-1,0E0,1.935978E-1,6.364136E-1,2.2846832E0,8.082695E-1,4.3263817E-1,3.0573847E0,2.17155E0,6.9992714E0,1.1463242E0,3.7459373E-1,1.6956588E0,0E0,5.9829135E0,3.7242126E-1,5.00354E0,7.0856476E-1,0E0,0E0,0E0,1.1758969E0,0E0,0E0,0E0,0E0,0E0,0E0,5.9677124E-2,5.6731224E-1,3.6920547E-2,4.706416E-1,8.4914494E-1,1.0499687E0,0E0,0E0,5.950622E0,4.1564403E0,8.3316565E-2,2.7551949E-2,0E0,0E0,0E0,3.83276E-1,0E0,3.9608192E-1,0E0,0E0,0E0,0E0,0E0,1.4146423E-1,0E0,0E0,0E0,0E0,0E0,0E0,0E0,0E0,9.4945335E-1,1.0839653E-1,0E0,0E0,0E0,0E0,6.7161655E-1,8.9618206E-2,5.24004E-1,0E0,0E0,0E0,0E0,1.8385754E0,0E0,0E0,0E0,0E0,0E0,0E0,0E0,2.762578E0,0E0,0E0,0E0,0E0,0E0,0E0,0E0,0E0,0E0,0E0,0E0,1.0124016E-1,0E0,0E0,0E0,0E0,0E0,0E0],"parents":[2147483647,0,0,1,1,2,2,3,3,4,4,5,5,6,6,7,7,8,8,9,9,10,10,11,11,12,12,13,13,14,14,15,15,16,16,17,17,18,18,20,20,22,22,23,23,24,24,25,25,26,26,28,28,29,29,30,30,34,34,35,35,38,38,39,39,41,41,42,42,43,43,44,44,45,45,46,46,47,47,48,48,49,49,50,50,51,51,53,53,54,54,55,55,56,56,60,60,67,67,68,68,69,69,70,70,71,71,72,72,75,75,76,76,77,77,78,78,82,82,84,84,90,90,99,99,100,100,105,105,106,106,107,107,112,112,120,120,132,132],"right_children":[2,4,6,8,10,12,14,16,18,20,22,24,26,28,30,32,34,36,38,-1,40,-1,42,44,46,48,50,-1,52,54,56,-1,-1,-1,58,60,-1,-1,62,64,-1,66,68,70,72,74,76,78,80,82,84,86,-1,88,90,92,94,-1,-1,-1,96,-1,-1,-1,-1,-1,-1,98,100,102,104,106,108,-1,-1,110,112,114,116,-1,-1,-1,118,-1,120,-1,-1,-1,-1,-1,122,-1,-1,-1,-1,-1,-1,-1,-1,124,126,-1,-1,-1,-1,128,130,132,-1,-1,-1,-1,134,-1,-1,-1,-1,-1,-1,-1,136,-1,-1,-1,-1,-1,-1,-1,-1,-1,-1,-1,138,-1,-1,-1,-1,-1,-1],"split_conditions":[7E0,2E0,6E0,6E0,3E0,2E0,1E0,5E0,6E0,5E0,4E0,2E0,2E0,7E0,2E0,1E0,7E0,2E0,1E0,-7.526629E-2,1E0,-6.9805585E-2,1E0,1E0,1E0,2E0,2E0,7.422575E-2,2E0,1E0,2E0,-7.096856E-2,-8.30887E-2,-7.887606E-2,1E0,2E0,-7.7242434E-2,-5.7650693E-2,1E0,6E0,-6.1606795E-2,4E0,6E0,1E0,1E0,1E0,2E0,1E0,1E0,3E0,3E0,1E0,-2.1083704E-3,2E0,7E0,7E0,7E0,-4.8544075E-2,-6.60121E-2,-5.7763454E-2,1E0,-3.06465E-3,-1.570897E-2,-2.3802152E-2,-5.5644248E-2,-2.0793198E-2,-5.670796E-2,2E0,2E0,1E0,3E0,3E0,4E0,-2.1303354E-2,-1.06341755E-2,1E0,1E0,1E0,1E0,5.0666933E-3,2.1480676E-2,3.2773573E-2,4E0,1.4393433E-2,4E0,-1.1047845E-2,6.293237E-3,9.281277E-3,-1.4036025E-2,-1.1940869E-2,2E0,-9.001967E-3,3.0519648E-2,2.9600218E-2,1.7891921E-2,-5.1783353E-2,5.9825615E-3,-4.4481557E-2,-4.0494647E-2,6E0,6E0,-7.250956E-2,-4.4596035E-2,-1.8485295E-2,-3.536458E-2,2E0,4E0,1E0,-2.13371E-2,-3.2280564E-2,8.479862E-3,3.513486E-2,4E0,1.0719325E-2,6.238979E-3,-2.858669E-3,-1.9808393E-3,1.7019304E-2,1.0752982E-2,2.8630327E-2,5E0,1.6293637E-2,1.535598E-2,1.0521388E-2,-3.0145897E-2,-6.834337E-2,-3.8432535E-2,-1.9693494E-2,-4.803755E-2,-1.089577E-2,-3.2911035E-3,-9.7779995E-3,3E0,-1.6798936E-2,2.1119139E-3,-6.552516E-3,2.8995972E-2,-1.3797965E-2,-1.1222702E-2],"split_indices":[5,2,6,5,6,2,0,5,6,5,5,0,6,6,2,0,6,6,0,0,0,0,0,2,6,0,0,0,2,2,0,0,0,0,0,0,0,0,2,5,0,6,5,6,0,2,6,0,6,6,6,2,0,0,6,6,6,0,0,0,6,0,0,0,0,0,0,0,0,0,6,6,6,0,0,2,2,6,6,0,0,0,6,0,6,0,0,0,0,0,0,0,0,0,0,0,0,0,0,6,6,0,0,0,0,6,6,6,0,0,0,0,6,0,0,0,0,0,0,0,6,0,0,0,0,0,0,0,0,0,0,0,6,0,0,0,0,0,0],"split_type":[0,0,0,0,0,0,0,0,0,0,0,0,0,0,0,0,0,0,0,0,0,0,0,0,0,0,0,0,0,0,0,0,0,0,0,0,0,0,0,0,0,0,0,0,0,0,0,0,0,0,0,0,0,0,0,0,0,0,0,0,0,0,0,0,0,0,0,0,0,0,0,0,0,0,0,0,0,0,0,0,0,0,0,0,0,0,0,0,0,0,0,0,0,0,0,0,0,0,0,0,0,0,0,0,0,0,0,0,0,0,0,0,0,0,0,0,0,0,0,0,0,0,0,0,0,0,0,0,0,0,0,0,0,0,0,0,0,0,0],"sum_hessian":[1.2675874E4,2.0017816E3,1.0674093E4,1.1669066E3,8.34875E2,2.9489753E3,7.725117E3,1.0895697E3,7.7336914E1,3.1331158E2,5.2156335E2,1.4840217E3,1.4649537E3,5.61293E2,7.163824E3,7.1453265E2,3.750371E2,2.455376E1,5.2783154E1,2.012648E2,1.1204679E2,7.92893E1,4.4227408E2,9.8044366E2,5.03578E2,1.0746511E3,3.9030264E2,1.4504179E0,5.5984265E2,3.9347585E3,3.2290657E3,4.7728466E1,6.6680414E2,1.5255556E2,2.2248155E2,1.9868626E1,4.6851354E0,2.1531658E0,5.062999E1,7.367794E0,1.0467899E2,2.8675884E1,4.135982E2,6.448731E1,9.1595636E2,2.0393974E2,2.9963824E2,6.643663E2,4.1028488E2,2.2249835E2,1.6780428E2,3.0545062E2,2.54392E2,2.1520468E2,3.719554E3,1.8881189E3,1.3409468E3,1.5300907E1,2.0718065E2,1.5180974E1,4.687652E0,2.8768141E0,4.7753174E1,5.0829086E0,2.2848854E0,1.6363776E0,2.7039507E1,3.6653812E2,4.7060066E1,2.5825872E1,3.8661438E1,1.1909193E2,7.9686444E2,1.6547987E1,1.8739175E2,1.932569E2,1.06381355E2,7.536377E1,5.890025E2,2.0578276E2,2.045021E2,1.5934818E1,2.0656354E2,1.3984452E1,1.5381982E2,2.3540627E1,2.8191E2,1.5578127E2,5.942342E1,1.4385052E0,3.7181155E3,1.245112E1,1.8756677E3,2.168022E1,1.3192665E3,1.8550807E0,2.8325713E0,2.0178075E2,1.6475739E2,3.0294935E1,1.676513E1,1.6459596E0,2.4179913E1,2.8786255E1,9.875182E0,8.912791E1,2.9964016E1,7.4848553E2,4.837891E1,1.4685257E1,1.7857164E2,7.5384374E0,9.884292E1,4.2108074E1,3.3255695E1,3.2254123E2,2.6646124E2,1.4781824E2,5.8745296E1,1.0630954E2,4.751029E1,2.4762542E3,1.2418613E3,2.1376717E0,2.8157265E1,1.3969121E0,1.5368217E1,8.596953E1,3.1583831E0,2.0253988E1,9.710029E0,3.2267203E2,4.2581354E2,7.0707596E1,2.8135323E1,1.094147E1,3.6568817E1,3.245007E2,1.01312836E2],"tree_param":{"num_deleted":"0","num_feature":"8","num_nodes":"139","size_leaf_vector":"1"}},{"base_weights":[-8.5909106E-4,-3.871892E-1,1.3957409E0,-1.1949137E0,-2.0361713E-1,1.5276457E0,1.2954789E0,-1.2327559E0,-7.0814747E-1,-7.960573E-1,-1.7104249E-1,9.151302E-2,1.546781E0,8.5781865E-2,8.037344E-2,-1.3010662E0,-1.1258205E0,-8.291762E-2,-6.3434964E-1,-9.169734E-2,2.174256E-1,-3.6351752E-1,-9.7241804E-2,7.247581E-2,9.747188E-2,-8.459178E-2,-1.207472E0,-7.923572E-2,-1.0491875E0,-5.55952E-2,-5.2553E-1,3.4790927E-1,1.5068906E-3,-1.6897905E-1,-3.9225236E-1,-5.293587E-1,-6.508446E-2,-8.3218984E-2,-1.153891E0,-1.1387591E0,-9.4751E-1,-2.554339E-2,-6.555324E-1,2.218703E-1,9.038439E-1,-9.2581266E-1,3.725947E-1,-6.185355E-1,-3.8382182E-1,-6.5626204E-2,-3.0730814E-2,-3.5988446E-2,-6.7794234E-3,-8.409456E-2,-6.991589E-2,-1.2345703E0,-1.0744272E0,-6.619645E-2,-5.649441E-2,-7.914254E-3,-4.2244397E-2,5.6864286E-4,3.9346874E-1,1.1211094E0,3.497768E-2,-1.0067348E0,-6.831369E-1,4.321414E-1,-5.3989706E-3,-4.4143084E-2,-2.687049E-1,-3.35186E-1,-4.391315E-1,2.7593223E-3,-2.8304632E-3,-9.718129E-3,-1.7912586E-3,-6.199529E-2,-8.366403E-2,-1.2849672E0,-6.3116565E-2,3.5153675E-1,2.8220883E-2,4.887862E-2,8.221764E-2,-8.275177E-2,-9.627791E-1,-6.250539E-3,-4.8238754E-2,3.45731E-2,3.2408345E-1,-3.180939E-2,3.4011215E-2,-9.710147E-3,-4.905226E-2,-3.133514E-1,-4.779454E-2,-4.469098E-1,-1.7488986E-2,-4.500785E-2,-8.5270286E-2,2.6128998E-2,-9.043669E-3,-5.40227E-2,-6.585858E-2,1.6849395E-2,2.7813872E-2,-1.8207876E-2,-2.7082274E-2,-2.5821473E-2,-2.9873915E-2],"categories":[],"categories_nodes":[],"categories_segments":[],"categories_sizes":[],"default_left":[0,0,0,0,0,0,0,0,0,0,0,0,0,0,0,0,0,0,0,0,0,0,0,0,0,0,0,0,0,0,0,0,0,0,0,0,0,0,0,0,0,0,0,0,0,0,0,0,0,0,0,0,0,0,0,0,0,0,0,0,0,0,0,0,0,0,0,0,0,0,0,0,0,0,0,0,0,0,0,0,0,0,0,0,0,0,0,0,0,0,0,0,0,0,0,0,0,0,0,0,0,0,0,0,0,0,0,0,0,0,0],"id":9,"left_children":[1,3,5,7,9,11,13,15,17,19,21,-1,23,-1,-1,25,27,-1,29,-1,31,33,35,-1,-1,-1,37,-1,39,-1,41,43,-1,45,47,49,51,-1,53,55,57,-1,59,61,63,65,67,69,71,-1,73,75,-1,-1,-1,77,79,-1,-1,-1,-1,-1,81,83,-1,85,87,89,91,-1,93,95,97,-1,-1,-1,-1,-1,-1,99,-1,101,-1,-1,-1,-1,103,-1,-1,-1,105,-1,-1,-1,-1,107,-1,109,-1,-1,-1,-1,-1,-1,-1,-1,-1,-1,-1,-1,-1],"loss_changes":[6.8251797E3,1.4690729E3,3.4936035E1,3.321826E1,1.5573843E2,9.5947266E-2,5.6811523E-1,1.1457275E1,5.493416E0,2.832955E2,1.0870938E2,0E0,6.965332E-1,0E0,0E0,3.3590088E0,6.076416E0,0E0,2.9886093E0,0E0,4.2116923E0,1.181427E1,7.6876236E1,0E0,0E0,0E0,1.1683044E0,0E0,3.210266E0,0E0,1.1494446E0,6.854932E0,0E0,1.12608116E2,3.3674927E0,9.8497215E1,6.421896E0,0E0,8.401184E-1,5.12146E-1,4.225769E-1,0E0,3.054638E-1,2.9986835E0,9.5853615E-1,1.7930908E0,3.609356E0,1.8008823E0,4.6991577E0,0E0,2.1060047E-1,2.7187352E0,0E0,0E0,0E0,1.2111359E0,1.1938934E0,0E0,0E0,0E0,0E0,0E0,1.7342567E-3,3.5486221E-3,0E0,3.1287384E-1,1.4718809E0,1.6526718E0,6.340355E0,0E0,7.239802E-1,8.689934E0,9.573822E-1,0E0,0E0,0E0,0E0,0E0,0E0,6.945152E-1,0E0,9.67772E-1,0E0,0E0,0E0,0E0,7.525635E-2,0E0,0E0,0E0,4.1163254E-1,0E0,0E0,0E0,0E0,2.4204636E0,0E0,6.8559265E-1,0E0,0E0,0E0,0E0,0E0,0E0,0E0,0E0,0E0,0E0,0E0,0E0,0E0],"parents":[2147483647,0,0,1,1,2,2,3,3,4,4,5,5,6,6,7,7,8,8,9,9,10,10,12,12,15,15,16,16,18,18,20,20,21,21,22,22,26,26,28,28,30,30,31,31,33,33,34,34,35,35,36,36,38,38,39,39,40,40,42,42,43,43,44,44,45,45,46,46,47,47,48,48,50,50,51,51,55,55,56,56,62,62,63,63,65,65,66,66,67,67,68,68,70,70,71,71,72,72,79,79,81,81,86,86,90,90,95,95,97,97],"right_children":[2,4,6,8,10,12,14,16,18,20,22,-1,24,-1,-1,26,28,-1,30,-1,32,34,36,-1,-1,-1,38,-1,40,-1,42,44,-1,46,48,50,52,-1,54,56,58,-1,60,62,64,66,68,70,72,-1,74,76,-1,-1,-1,78,80,-1,-1,-1,-1,-1,82,84,-1,86,88,90,92,-1,94,96,98,-1,-1,-1,-1,-1,-1,100,-1,102,-1,-1,-1,-1,104,-1,-1,-1,106,-1,-1,-1,-1,108,-1,110,-1,-1,-1,-1,-1,-1,-1,-1,-1,-1,-1,-1,-1],"split_conditions":[3E0,7E0,2E0,6E0,1E0,6E0,2E0,2E0,2E0,2E0,6E0,9.151302E-2,5E0,8.5781865E-2,8.037344E-2,5E0,2E0,-8.291762E-2,4E0,-9.169734E-2,7E0,2E0,2E0,7.247581E-2,9.747188E-2,-8.459178E-2,2E0,-7.923572E-2,5E0,-5.55952E-2,2E0,4E0,1.5068906E-3,2E0,1E0,2E0,2E0,-8.3218984E-2,1E0,3E0,3E0,-2.554339E-2,6E0,1E0,6E0,2E0,4E0,2E0,2E0,-6.5626204E-2,7E0,1E0,-6.7794234E-3,-8.409456E-2,-6.991589E-2,4E0,4E0,-6.619645E-2,-5.649441E-2,-7.914254E-3,-4.2244397E-2,5.6864286E-4,3E0,5E0,3.497768E-2,1E0,3E0,1E0,5E0,-4.4143084E-2,4E0,4E0,4E0,2.7593223E-3,-2.8304632E-3,-9.718129E-3,-1.7912586E-3,-6.199529E-2,-8.366403E-2,4E0,-6.3116565E-2,2E0,2.8220883E-2,4.887862E-2,8.221764E-2,-8.275177E-2,1E0,-6.250539E-3,-4.8238754E-2,3.45731E-2,3E0,-3.180939E-2,3.4011215E-2,-9.710147E-3,-4.905226E-2,2E0,-4.779454E-2,1E0,-1.7488986E-2,-4.500785E-2,-8.5270286E-2,2.6128998E-2,-9.043669E-3,-5.40227E-2,-6.585858E-2,1.6849395E-2,2.7813872E-2,-1.8207876E-2,-2.7082274E-2,-2.5821473E-2,-2.9873915E-2],"split_indices":[3,5,2,5,3,6,6,2,3,2,6,0,5,0,0,5,3,0,6,0,6,3,3,0,0,0,3,0,5,0,2,6,0,2,2,2,2,0,6,6,6,0,6,6,6,6,6,6,2,0,6,2,0,0,0,5,5,0,0,0,0,0,6,6,0,2,6,6,6,0,6,6,6,0,0,0,0,0,0,6,0,6,0,0,0,0,6,0,0,0,6,0,0,0,0,6,0,6,0,0,0,0,0,0,0,0,0,0,0,0,0],"split_type":[0,0,0,0,0,0,0,0,0,0,0,0,0,0,0,0,0,0,0,0,0,0,0,0,0,0,0,0,0,0,0,0,0,0,0,0,0,0,0,0,0,0,0,0,0,0,0,0,0,0,0,0,0,0,0,0,0,0,0,0,0,0,0,0,0,0,0,0,0,0,0,0,0,0,0,0,0,0,0,0,0,0,0,0,0,0,0,0,0,0,0,0,0,0,0,0,0,0,0,0,0,0,0,0,0,0,0,0,0,0,0],"sum_hessian":[1.2648466E4,9.908138E3,2.7403281E3,1.8341495E3,8.073988E3,1.1793389E3,1.5609893E3,1.7009014E3,1.3324815E2,4.1999075E2,7.653997E3,2.6265732E2,9.166815E2,2.7451257E2,1.2864767E3,1.0333726E3,6.6752875E2,1.3130045E1,1.2011812E2,2.5356711E2,1.6642365E2,2.1206514E3,5.5333457E3,1.3984427E1,9.026971E2,6.875712E2,3.458014E2,2.3707431E2,4.3045444E2,3.4907207E1,8.521091E1,9.906629E1,6.7357346E1,2.7351132E2,1.84714E3,3.825492E2,5.150797E3,1.0331065E2,2.4249072E2,2.2525223E2,2.0520222E2,4.595349E1,3.925742E1,8.151429E1,1.755201E1,1.1388687E2,1.5962447E2,6.462124E1,1.7825188E3,1.8771884E2,1.9483034E2,3.068818E3,2.0819785E3,3.9837284E1,2.0265344E2,8.5637436E1,1.3961479E2,5.9394226E1,1.45808E2,1.4026896E0,3.785473E1,3.6698986E1,4.48153E1,9.881881E0,7.670128E0,8.384015E1,3.0046722E1,1.3781837E2,2.180608E1,5.1528473E1,1.3092769E1,9.5097626E2,8.315426E2,3.1164576E1,1.6366576E2,1.8077232E2,2.888046E3,2.630784E1,5.9329597E1,3.1746563E1,1.07868225E2,2.8367977E1,1.6447325E1,4.708051E0,5.17383E0,8.003229E0,7.583692E1,4.0011134E0,2.604561E1,6.447835E1,7.3340034E1,1.1405723E1,1.0400357E1,1.1414755E1,1.6780139E0,9.056889E2,4.528736E1,7.920151E2,3.9527515E1,4.4205084E0,2.7326054E1,2.5194698E1,3.1732783E0,3.7884533E1,3.7952385E1,5.1372456E1,2.1967577E1,7.57409E2,1.482799E2,3.5757352E2,4.3444156E2],"tree_param":{"num_deleted":"0","num_feature":"8","num_nodes":"111","size_leaf_vector":"1"}},{"base_weights":[-4.302237E-3,-9.1367596E-1,3.6349067E-1,-1.0625167E0,-4.5148996E-1,-8.209563E-1,4.9023375E-1,-1.3782344E0,-9.061195E-1,-7.171839E-1,2.6773867E-1,-1.008974E0,-6.0119873E-1,-5.5602144E-2,4.9638572E-1,-8.063671E-2,-1.4238943E0,-8.1438655E-1,-1.4503514E0,-1.0453461E0,-5.233635E-1,-9.3256816E-2,5.2719027E-1,-7.241069E-2,-8.5303575E-1,-3.953982E-2,-3.5306323E-2,2.118546E-2,-1.4293686E-1,1.9086401E-1,5.063751E-1,-9.862275E-2,-8.696467E-2,-1.1744198E0,-6.8192023E-1,-7.918243E-2,-9.639786E-2,-9.0046756E-2,-7.9362106E-1,-1.1356086E0,-3.6676046E-1,-7.763795E-2,3.9541572E-2,-7.598792E-2,-8.193385E-1,-2.563687E-3,2.5696287E-2,-1.2656814E-2,-1.9042837E-4,1.9054832E-2,-3.0271666E-2,4.7912204E-1,5.363173E-1,-7.446063E-2,-5.9058994E-2,-6.6516526E-2,-6.690879E-1,-7.009231E-2,-7.201293E-1,-1.0888035E0,-8.870198E-2,-8.464136E-2,-3.2400537E-1,-5.3513955E-2,-3.8451828E-2,-5.360621E-4,1.3059541E-2,2.8293427E-2,3.944849E-2,3.4373336E-2,3.135098E-2,-3.778208E-2,-4.7764342E-2,-6.929206E-2,-4.2702984E-2,-8.034111E-2,-6.3963555E-2,-1.5726691E-1,-3.3337764E-2,-2.8126026E-2,8.684004E-4],"categories":[],"categories_nodes":[],"categories_segments":[],"categories_sizes":[],"default_left":[0,0,0,0,0,0,0,0,0,0,0,0,0,0,0,0,0,0,0,0,0,0,0,0,0,0,0,0,0,0,0,0,0,0,0,0,0,0,0,0,0,0,0,0,0,0,0,0,0,0,0,0,0,0,0,0,0,0,0,0,0,0,0,0,0,0,0,0,0,0,0,0,0,0,0,0,0,0,0,0,0],"id":10,"left_children":[1,3,5,7,9,11,13,15,17,19,21,23,25,27,29,-1,31,33,35,37,39,-1,41,-1,43,-1,-1,45,47,49,51,-1,-1,53,55,-1,-1,-1,57,59,61,-1,-1,-1,63,-1,65,-1,-1,-1,-1,67,69,-1,-1,-1,71,-1,73,75,-1,-1,77,-1,-1,-1,-1,-1,-1,-1,-1,-1,-1,-1,-1,-1,-1,79,-1,-1,-1],"loss_changes":[4.1769077E3,2.4708374E2,1.3351528E3,1.3346948E2,1.6775552E2,3.512213E1,2.699292E1,2.6600342E0,9.011658E1,4.0391205E1,1.08342705E2,9.729736E0,2.0602417E-1,6.064111E-1,2.41792E1,0E0,2.0002441E0,7.385205E1,2.9118042E0,2.244345E1,3.8473778E1,0E0,3.7907005E1,0E0,2.0424347E0,0E0,0E0,1.4271794E-2,3.4595978E-1,1.9222363E1,6.105957E0,0E0,0E0,3.5656738E-1,5.0562134E0,0E0,0E0,0E0,2.9131851E0,4.169464E-2,1.3249367E1,0E0,0E0,0E0,1.0589905E0,0E0,2.8598693E-1,0E0,0E0,0E0,0E0,1.7007141E1,1.3128662E0,0E0,0E0,0E0,6.5229187E0,0E0,1.3547745E0,1.1361694E-1,0E0,0E0,1.064209E1,0E0,0E0,0E0,0E0,0E0,0E0,0E0,0E0,0E0,0E0,0E0,0E0,0E0,0E0,8.589453E0,0E0,0E0,0E0],"parents":[2147483647,0,0,1,1,2,2,3,3,4,4,5,5,6,6,7,7,8,8,9,9,10,10,11,11,12,12,13,13,14,14,16,16,17,17,18,18,19,19,20,20,22,22,24,24,27,27,28,28,29,29,30,30,33,33,34,34,38,38,39,39,40,40,44,44,46,46,51,51,52,52,56,56,58,58,59,59,62,62,77,77],"right_children":[2,4,6,8,10,12,14,16,18,20,22,24,26,28,30,-1,32,34,36,38,40,-1,42,-1,44,-1,-1,46,48,50,52,-1,-1,54,56,-1,-1,-1,58,60,62,-1,-1,-1,64,-1,66,-1,-1,-1,-1,68,70,-1,-1,-1,72,-1,74,76,-1,-1,78,-1,-1,-1,-1,-1,-1,-1,-1,-1,-1,-1,-1,-1,-1,80,-1,-1,-1],"split_conditions":[7E0,1E0,6E0,5E0,6E0,2E0,7E0,7E0,6E0,2E0,2E0,5E0,5E0,2E0,1E0,-8.063671E-2,4E0,7E0,6E0,5E0,7E0,-9.3256816E-2,7E0,-7.241069E-2,1E0,-3.953982E-2,-3.5306323E-2,1E0,1E0,1E0,2E0,-9.862275E-2,-8.696467E-2,6E0,1E0,-7.918243E-2,-9.639786E-2,-9.0046756E-2,6E0,6E0,3E0,-7.763795E-2,3.9541572E-2,-7.598792E-2,1E0,-2.563687E-3,1E0,-1.2656814E-2,-1.9042837E-4,1.9054832E-2,-3.0271666E-2,1E0,1E0,-7.446063E-2,-5.9058994E-2,-6.6516526E-2,2E0,-7.009231E-2,1E0,4E0,-8.870198E-2,-8.464136E-2,5E0,-5.3513955E-2,-3.8451828E-2,-5.360621E-4,1.3059541E-2,2.8293427E-2,3.944849E-2,3.4373336E-2,3.135098E-2,-3.778208E-2,-4.7764342E-2,-6.929206E-2,-4.2702984E-2,-8.034111E-2,-6.3963555E-2,4E0,-3.3337764E-2,-2.8126026E-2,8.684004E-4],"split_indices":[4,1,5,4,4,2,5,5,4,2,2,5,5,2,2,0,4,5,5,4,5,0,5,0,2,0,0,2,1,1,2,0,0,5,2,0,0,0,5,5,4,0,0,0,1,0,1,0,0,0,0,1,1,0,0,0,2,0,2,5,0,0,4,0,0,0,0,0,0,0,0,0,0,0,0,0,0,4,0,0,0],"split_type":[0,0,0,0,0,0,0,0,0,0,0,0,0,0,0,0,0,0,0,0,0,0,0,0,0,0,0,0,0,0,0,0,0,0,0,0,0,0,0,0,0,0,0,0,0,0,0,0,0,0,0,0,0,0,0,0,0,0,0,0,0,0,0,0,0,0,0,0,0,0,0,0,0,0,0,0,0,0,0,0,0],"sum_hessian":[1.2487144E4,3.5957097E3,8.891435E3,2.7191743E3,8.765354E2,8.591181E2,8.032316E3,8.990614E2,1.820113E3,6.4008154E2,2.3645389E2,4.6171008E2,3.97408E2,8.946176E1,7.9428545E3,2.996495E2,5.994119E2,1.5589935E3,2.6111948E2,2.3658969E2,4.0349185E2,3.0085676E1,2.0636821E2,2.378388E2,2.2387129E2,2.2427235E2,1.7313562E2,4.787294E1,4.1588825E1,2.5189973E2,7.6909546E3,1.21054184E2,4.7835773E2,4.179143E2,1.1410792E3,8.3808975E1,1.773105E2,9.1806175E1,1.4478352E2,8.1340256E1,3.2215158E2,1.09246025E1,1.954436E2,1.731524E1,2.0655606E2,2.88419E0,4.4988747E1,2.9106415E1,1.24824095E1,2.1611768E2,3.578205E1,4.0321904E3,3.6587642E3,3.9626453E2,2.1649794E1,3.5761772E1,1.1053174E3,2.5126972E1,1.1965655E2,7.237511E1,8.965151E0,1.2608584E1,3.09543E2,1.7656734E2,2.9988722E1,3.840721E1,6.5815377E0,3.3848325E3,6.47358E2,2.815549E3,8.43215E2,6.388364E2,4.6648102E2,9.690438E0,1.0996611E2,1.6443247E1,5.5931858E1,1.7202525E2,1.3751775E2,6.3354595E1,1.0867066E2],"tree_param":{"num_deleted":"0","num_feature":"8","num_nodes":"81","size_leaf_vector":"1"}},{"base_weights":[-8.492054E-3,-9.384143E-1,1.5633821E-1,-9.7766215E-1,-4.6998137E-1,-3.9278362E-2,2.2458117E-1,-1.0868429E0,-8.690439E-1,-4.4888157E-2,-3.5080752E-1,-9.0953834E-2,1.3108629E-1,2.1973261E-1,4.3858722E-1,-1.131363E0,-9.70101E-1,-6.8997495E-2,-8.259105E-1,-1.9611267E-2,-2.897003E-2,-9.073955E-3,-5.1401515E-2,9.2890754E-2,7.540211E-1,7.889872E-2,2.2293659E-1,7.490319E-2,4.1700318E-1,-8.046794E-2,-1.1138564E0,-6.362598E-2,-7.727484E-1,-8.52265E-1,-4.4168387E-2,-6.4850874E-2,-1.6785376E-2,5.680582E-2,2.5551367E-1,5.183476E-1,7.344048E-2,3.042826E-3,1.3222051E-2,3.4392166E-1,2.2240542E-1,1.1011051E-2,4.3373445E-1,-7.12355E-2,-6.335078E-2,-5.9721064E-2,-3.684493E-2,-5.681672E-2,-5.0194662E-2,-4.149379E-3,-2.9706648E-3,-1.1588298E-3,8.956056E-3,5.0714985E-2,5.4964907E-2,1.9960104E-2,-6.6038547E-3,1.1107551E-2,3.5994254E-2,7.183692E-2,1.7597897E-2,1.3774227E-2,1.474407E-2,8.0402486E-2,4.1059017E-1,3.3130934E-3,3.0139186E-3,4.4564644E-1,2.1935819E-2,2.576161E-2,3.6256295E-2],"categories":[],"categories_nodes":[],"categories_segments":[],"categories_sizes":[],"default_left":[0,0,0,0,0,0,0,0,0,0,0,0,0,0,0,0,0,0,0,0,0,0,0,0,0,0,0,0,0,0,0,0,0,0,0,0,0,0,0,0,0,0,0,0,0,0,0,0,0,0,0,0,0,0,0,0,0,0,0,0,0,0,0,0,0,0,0,0,0,0,0,0,0,0,0],"id":11,"left_children":[1,3,5,7,9,11,13,15,17,-1,19,21,23,25,27,29,31,-1,33,-1,-1,-1,35,37,39,41,43,-1,45,-1,47,-1,49,51,-1,53,55,57,59,61,-1,-1,-1,63,65,-1,67,-1,-1,-1,-1,-1,-1,-1,-1,-1,-1,69,-1,-1,-1,-1,-1,-1,-1,-1,-1,-1,71,-1,-1,73,-1,-1,-1],"loss_changes":[1.9021339E3,3.4046265E1,1.4072491E2,1.9810791E1,4.0841675E0,2.4014381E1,8.045013E0,3.7248535E0,7.9855957E0,0E0,3.2725906E-1,4.425499E0,1.5059827E1,3.4371643E0,2.477005E0,6.70166E-1,1.5270538E0,0E0,1.9703369E0,0E0,0E0,0E0,5.6002617E-1,3.50529E0,3.1790676E0,6.787673E-1,4.2947388E-1,0E0,6.316376E-1,0E0,4.354248E-1,0E0,1.1530018E0,1.1877136E0,0E0,1.6468287E-2,9.1493644E-2,2.418272E0,2.4621544E0,3.9165592E-1,0E0,0E0,0E0,1.3901913E0,2.4938965E-1,0E0,2.7331963E0,0E0,0E0,0E0,0E0,0E0,0E0,0E0,0E0,0E0,0E0,1.0313988E-3,0E0,0E0,0E0,0E0,0E0,0E0,0E0,0E0,0E0,0E0,2.2793579E-1,0E0,0E0,2.8923607E-1,0E0,0E0,0E0],"parents":[2147483647,0,0,1,1,2,2,3,3,4,4,5,5,6,6,7,7,8,8,10,10,11,11,12,12,13,13,14,14,15,15,16,16,18,18,22,22,23,23,24,24,25,25,26,26,28,28,30,30,32,32,33,33,35,35,36,36,37,37,38,38,39,39,43,43,44,44,46,46,57,57,68,68,71,71],"right_children":[2,4,6,8,10,12,14,16,18,-1,20,22,24,26,28,30,32,-1,34,-1,-1,-1,36,38,40,42,44,-1,46,-1,48,-1,50,52,-1,54,56,58,60,62,-1,-1,-1,64,66,-1,68,-1,-1,-1,-1,-1,-1,-1,-1,-1,-1,70,-1,-1,-1,-1,-1,-1,-1,-1,-1,-1,72,-1,-1,74,-1,-1,-1],"split_conditions":[7E0,6E0,5E0,7E0,6E0,1E0,3E0,5E0,4E0,-4.4888157E-2,1E0,1E0,4E0,6E0,6E0,3E0,1E0,-6.8997495E-2,1E0,-1.9611267E-2,-2.897003E-2,-9.073955E-3,3E0,2E0,2E0,1E0,7E0,7.490319E-2,7E0,-8.046794E-2,2E0,-6.362598E-2,1E0,5E0,-4.4168387E-2,2E0,5E0,3E0,4E0,1E0,7.344048E-2,3.042826E-3,1.3222051E-2,1E0,1E0,1.1011051E-2,5E0,-7.12355E-2,-6.335078E-2,-5.9721064E-2,-3.684493E-2,-5.681672E-2,-5.0194662E-2,-4.149379E-3,-2.9706648E-3,-1.1588298E-3,8.956056E-3,1E0,5.4964907E-2,1.9960104E-2,-6.6038547E-3,1.1107551E-2,3.5994254E-2,7.183692E-2,1.7597897E-2,1.3774227E-2,1.474407E-2,8.0402486E-2,6E0,3.3130934E-3,3.0139186E-3,1E0,2.1935819E-2,2.576161E-2,3.6256295E-2],"split_indices":[5,5,6,6,6,1,7,5,5,0,1,6,7,6,6,5,1,0,1,0,0,0,6,6,6,1,6,0,6,0,6,0,6,5,0,6,7,7,6,6,0,0,0,1,1,0,7,0,0,0,0,0,0,0,0,0,0,6,0,0,0,0,0,0,0,0,0,0,7,0,0,1,0,0,0],"split_type":[0,0,0,0,0,0,0,0,0,0,0,0,0,0,0,0,0,0,0,0,0,0,0,0,0,0,0,0,0,0,0,0,0,0,0,0,0,0,0,0,0,0,0,0,0,0,0,0,0,0,0,0,0,0,0,0,0,0,0,0,0,0,0,0,0,0,0,0,0,0,0,0,0,0,0],"sum_hessian":[1.2408293E4,1.8677727E3,1.054052E4,1.722713E3,1.4505971E2,2.7262058E3,7.814314E3,8.561511E2,8.665618E2,4.64154E1,9.86443E1,2.0919724E3,6.3423346E2,7.64251E3,1.7180449E2,6.156147E2,2.4053648E2,1.344894E2,7.3207245E2,7.50124E1,2.3631903E1,8.8818835E2,1.203784E3,5.983104E2,3.5923035E1,1.7037743E2,7.4721323E3,3.778766E0,1.6802573E2,5.9367416E1,5.5624725E2,1.9525513E2,4.5281364E1,5.993242E2,1.3274826E2,8.66532E2,3.3725204E2,4.9039136E2,1.0791908E2,2.3870533E1,1.2052501E1,1.3910736E2,3.1270063E1,3.0785965E1,7.441346E3,1.1372457E1,1.5665326E2,4.6040613E2,9.5841125E1,2.1738626E1,2.354274E1,2.9606958E2,3.032546E2,8.0856433E2,5.7967613E1,3.3434357E2,2.9084628E0,4.8746817E2,2.9231942E0,9.208949E1,1.5829583E1,3.6876965E0,2.0182837E1,1.4412558E0,2.934471E1,5.965774E3,1.4755723E3,3.2097883E0,1.5344348E2,2.719137E2,2.1555447E2,9.4978584E1,5.8464893E1,7.697999E1,1.7998594E1],"tree_param":{"num_deleted":"0","num_feature":"8","num_nodes":"75","size_leaf_vector":"1"}},{"base_weights":[-9.340874E-3,-3.6818242E-1,1.3164303E0,-1.0875429E0,-1.3645669E-2,1.4840227E0,8.2128696E-2,-1.1301152E0,2.8386232E-1,-1.0254015E0,1.1507585E-1,1.1097539E-1,8.899845E-2,-8.5078925E-1,-1.2521428E0,8.09272E-1,5.298859E-2,-7.449652E-2,-9.323344E-1,-7.294397E-1,1.7981586E-1,-1.0607778E0,2.3426981E-1,-1.4280201E0,-1.1551597E0,1.0764891E0,5.014391E-1,-3.6497277E-1,2.1118331E-1,-1.0092305E0,-5.478662E-2,-7.3535407E-1,-8.6344825E-3,-8.839523E-3,1.8450575E-1,-1.2463213E0,-8.5650146E-1,-8.063535E-2,6.9617593E-1,-7.860536E-2,-9.254997E-2,-1.0740881E0,-1.5068935E0,4.897213E-2,8.203186E-2,3.6283205E-3,4.2190127E-2,5.7476377E-3,-4.144806E-2,7.307296E-1,1.6846497E-1,-4.902819E-2,-6.646062E-2,-5.2153282E-2,-7.0378274E-1,1.1683722E-2,4.0190527E-3,-1.1747432E0,-8.380065E-2,-7.606483E-2,-5.105242E-1,2.6358843E-2,5.9742693E-2,-7.318932E-2,-6.6020794E-2,-7.607347E-2,-9.9266835E-2,6.2972315E-2,1.4132742E-2,6.275288E-2,1.52559895E-2,-7.491808E-2,-4.34747E-2,-8.180553E-2,-1.0583045E0,-5.4584574E-2,-4.6558745E-2,1.655762E-2,-6.208245E-2,-5.6221146E-2,-7.0020296E-2,-5.887264E-2,-1.8838329E-3],"categories":[],"categories_nodes":[],"categories_segments":[],"categories_sizes":[],"default_left":[0,0,0,0,0,0,0,0,0,0,0,0,0,0,0,0,0,0,0,0,0,0,0,0,0,0,0,0,0,0,0,0,0,0,0,0,0,0,0,0,0,0,0,0,0,0,0,0,0,0,0,0,0,0,0,0,0,0,0,0,0,0,0,0,0,0,0,0,0,0,0,0,0,0,0,0,0,0,0,0,0,0,0],"id":12,"left_children":[1,3,5,7,9,11,-1,13,15,17,19,-1,-1,21,23,25,27,-1,29,31,33,35,37,39,41,43,45,47,49,51,-1,53,-1,-1,55,57,59,-1,61,-1,-1,63,65,-1,-1,-1,-1,-1,-1,67,69,-1,-1,-1,71,-1,-1,73,-1,-1,75,-1,-1,-1,-1,-1,-1,-1,-1,77,-1,-1,-1,-1,79,81,-1,-1,-1,-1,-1,-1,-1],"loss_changes":[5.8934175E3,2.4863936E3,2.5683594E0,1.8812451E2,8.5066614E2,7.172241E-1,0E0,1.05700195E2,1.1790758E1,1.0297485E1,3.169026E2,0E0,0E0,2.1690002E2,3.593994E1,2.0846539E0,4.5737767E0,0E0,1.5838013E0,1.3778534E0,8.109467E0,2.9503296E1,1.09136E2,4.9645996E0,3.893274E1,3.68042E-1,1.1110783E0,2.6018808E0,1.028908E0,1.71138E0,0E0,8.381195E-1,0E0,0E0,9.705658E-1,1.5819092E0,4.6403046E1,0E0,8.134895E0,0E0,0E0,1.5709229E0,4.4188232E0,0E0,0E0,0E0,0E0,0E0,0E0,3.4576917E-1,3.6058855E-1,0E0,0E0,0E0,1.2086945E0,0E0,0E0,2.5841675E0,0E0,0E0,2.0417744E1,0E0,0E0,0E0,0E0,0E0,0E0,0E0,0E0,4.472576E0,0E0,0E0,0E0,0E0,5.0624084E-1,1.4142594E0,0E0,0E0,0E0,0E0,0E0,0E0,0E0],"parents":[2147483647,0,0,1,1,2,2,3,3,4,4,5,5,7,7,8,8,9,9,10,10,13,13,14,14,15,15,16,16,18,18,19,19,20,20,21,21,22,22,23,23,24,24,25,25,26,26,27,27,28,28,29,29,31,31,34,34,35,35,36,36,38,38,41,41,42,42,49,49,50,50,54,54,57,57,60,60,69,69,74,74,75,75],"right_children":[2,4,6,8,10,12,-1,14,16,18,20,-1,-1,22,24,26,28,-1,30,32,34,36,38,40,42,44,46,48,50,52,-1,54,-1,-1,56,58,60,-1,62,-1,-1,64,66,-1,-1,-1,-1,-1,-1,68,70,-1,-1,-1,72,-1,-1,74,-1,-1,76,-1,-1,-1,-1,-1,-1,-1,-1,78,-1,-1,-1,-1,80,82,-1,-1,-1,-1,-1,-1,-1],"split_conditions":[3E0,7E0,7E0,3E0,6E0,7E0,8.2128696E-2,2E0,1E0,2E0,2E0,1.1097539E-1,8.899845E-2,6E0,5E0,4E0,4E0,-7.449652E-2,5E0,4E0,7E0,1E0,7E0,6E0,6E0,5E0,6E0,6E0,6E0,4E0,-5.478662E-2,1E0,-8.6344825E-3,-8.839523E-3,3E0,5E0,7E0,-8.063535E-2,1E0,-7.860536E-2,-9.254997E-2,7E0,6E0,4.897213E-2,8.203186E-2,3.6283205E-3,4.2190127E-2,5.7476377E-3,-4.144806E-2,6E0,6E0,-4.902819E-2,-6.646062E-2,-5.2153282E-2,7E0,1.1683722E-2,4.0190527E-3,7E0,-8.380065E-2,-7.606483E-2,5E0,2.6358843E-2,5.9742693E-2,-7.318932E-2,-6.6020794E-2,-7.607347E-2,-9.9266835E-2,6.2972315E-2,1.4132742E-2,5E0,1.52559895E-2,-7.491808E-2,-4.34747E-2,-8.180553E-2,4E0,3E0,-4.6558745E-2,1.655762E-2,-6.208245E-2,-5.6221146E-2,-7.0020296E-2,-5.887264E-2,-1.8838329E-3],"split_indices":[3,4,5,7,5,4,0,3,3,3,3,0,0,4,4,7,7,0,5,7,5,3,5,5,4,4,4,4,7,5,0,3,0,0,7,4,5,0,3,0,0,5,5,0,0,0,0,0,0,4,4,0,0,0,5,0,0,5,0,0,4,0,0,0,0,0,0,0,0,4,0,0,0,0,4,4,0,0,0,0,0,0,0],"split_type":[0,0,0,0,0,0,0,0,0,0,0,0,0,0,0,0,0,0,0,0,0,0,0,0,0,0,0,0,0,0,0,0,0,0,0,0,0,0,0,0,0,0,0,0,0,0,0,0,0,0,0,0,0,0,0,0,0,0,0,0,0,0,0,0,0,0,0,0,0,0,0,0,0,0,0,0,0,0,0,0,0,0,0],"sum_hessian":[1.2386509E4,9.748419E3,2.638089E3,3.217893E3,6.5305264E3,1.2494174E2,2.5131472E3,3.1211216E3,9.677161E1,7.365549E2,5.793971E3,2.067231E1,1.0426943E2,9.505549E2,2.1705667E3,2.9034294E1,6.773731E1,2.6717972E2,4.6937515E2,4.1205203E2,5.3819194E3,7.964374E2,1.5411748E2,7.682492E2,1.4023175E3,1.4655377E1,1.4378916E1,1.8360392E1,4.937692E1,2.0108975E2,2.682854E2,4.0781668E2,4.2353578E0,7.732494E1,5.304594E3,4.1558087E2,3.8085648E2,3.5675983E1,1.184415E2,1.6173573E2,6.065135E2,1.1418267E3,2.6049084E2,7.6671E0,6.9882774E0,4.2356324E0,1.0143283E1,7.386999E0,1.09733925E1,2.9393373E0,4.643758E1,3.748289E1,1.6360687E2,9.748428E1,3.103324E2,5.237718E3,6.6876816E1,2.3443622E2,1.8114467E2,1.8725026E2,1.9360623E2,5.7680798E1,6.0760696E1,2.2203941E2,9.197873E2,5.42949E1,2.0619594E2,1.4872622E0,1.452075E0,1.9695433E1,2.6742147E1,5.592572E0,3.0473984E2,1.08533356E2,1.25902855E2,6.53461E1,1.2826013E2,1.6953083E1,2.7423508E0,3.5311172E1,9.059168E1,1.1031067E0,6.424299E1],"tree_param":{"num_deleted":"0","num_feature":"8","num_nodes":"83","size_leaf_vector":"1"}},{"base_weights":[2.4404447E-3,-8.8296306E-1,1.5214005E-1,-9.219625E-1,-3.9625096E-1,-3.6506075E-2,2.2323816E-1,-1.0485232E0,-7.4041784E-1,-6.3295895E-1,-2.8572226E-1,-1.680777E-1,9.50037E-2,1.784742E-1,2.7767456E-1,-1.1230967E0,-9.06674E-1,-9.389588E-1,-6.1950445E-1,-1.2892242E-2,-6.458661E-1,-1.4559166E-1,-2.7070817E-2,-3.9316395E-1,-1.5204766E-1,7.273419E-2,8.5470396E-1,2.2471681E-2,1.8809825E-1,2.6974303E-1,2.8649138E-2,-7.329862E-2,-6.7609E-2,-1.0172142E0,-5.1910073E-2,-6.115468E-2,-5.3765986E-2,-8.284112E-1,-3.6159817E-2,-5.9335023E-1,-8.0260426E-1,7.0933094E-3,-1.007412E-2,-4.250978E-1,-2.2130191E-1,-1.5535271E-1,-6.250199E-3,3.7365727E-2,1.733933E-1,4.108117E-2,7.1503885E-2,7.999575E-4,2.4406021E-2,3.1960502E-3,1.1815272E-2,1.758614E-1,1.7009724E-2,-6.8396375E-2,-5.930067E-2,-7.2385706E-2,-7.794461E-1,-4.3310244E-2,-4.4255975E-1,-7.52554E-2,-2.8092807E-2,-2.5962088E-2,-4.395786E-2,-6.7213685E-3,-2.8066698E-2,-9.126746E-3,-2.0325647E-1,3.6149144E-2,2.2737183E-2,1.8659411E-1,-1.9656349E-2,1.7255636E-2,-6.339723E-3,-3.4680597E-2,-5.0706603E-2,-1.453982E-2,-4.1616384E-2,-1.5507194E-2,-1.2169215E-2,2.6666063E-3,1.8069403E-3,1.3750901E-2,1.149182E-2,-1.0799538E-1,5.14109E-2,-1.1997866E-2,1.5248621E-2],"categories":[],"categories_nodes":[],"categories_segments":[],"categories_sizes":[],"default_left":[0,0,0,0,0,0,0,0,0,0,0,0,0,0,0,0,0,0,0,0,0,0,0,0,0,0,0,0,0,0,0,0,0,0,0,0,0,0,0,0,0,0,0,0,0,0,0,0,0,0,0,0,0,0,0,0,0,0,0,0,0,0,0,0,0,0,0,0,0,0,0,0,0,0,0,0,0,0,0,0,0,0,0,0,0,0,0,0,0,0,0],"id":13,"left_children":[1,3,5,7,9,11,13,15,17,19,21,23,25,27,29,31,33,35,37,-1,39,41,-1,43,45,47,49,51,53,55,-1,-1,-1,57,-1,-1,-1,59,-1,61,63,-1,-1,65,67,69,-1,71,73,-1,-1,-1,-1,-1,-1,75,-1,-1,-1,-1,77,-1,79,-1,-1,-1,-1,-1,-1,-1,81,83,-1,85,87,-1,-1,-1,-1,-1,-1,-1,-1,-1,-1,-1,-1,89,-1,-1,-1],"loss_changes":[1.6199836E3,3.330945E1,1.4022604E2,3.707373E1,3.3411388E0,4.953566E1,1.8469666E1,9.504272E0,1.5800659E1,1.4144707E-1,1.8194098E0,5.123638E0,2.4183437E1,6.255722E0,4.767456E0,4.5361328E-1,2.4096375E0,1.7868042E-1,3.5307617E0,0E0,1.3494492E-2,1.940726E-1,0E0,4.574051E-1,2.2184563E-1,4.950813E0,1.8237553E0,8.6268914E-1,1.1169434E-2,3.0639648E-1,0E0,0E0,0E0,4.0740967E-2,0E0,0E0,0E0,5.367737E-1,0E0,2.697153E-1,7.9222393E-1,0E0,0E0,6.275749E-2,3.8658994E-1,5.8420753E-1,0E0,3.984617E-1,9.2420864E-1,0E0,0E0,0E0,0E0,0E0,0E0,1.1079409E0,0E0,0E0,0E0,0E0,1.108284E-1,0E0,5.730572E-1,0E0,0E0,0E0,0E0,0E0,0E0,0E0,5.7702065E-2,4.7034264E-2,0E0,1.3003349E-2,1.8174438E0,0E0,0E0,0E0,0E0,0E0,0E0,0E0,0E0,0E0,0E0,0E0,0E0,6.7378783E-1,0E0,0E0,0E0],"parents":[2147483647,0,0,1,1,2,2,3,3,4,4,5,5,6,6,7,7,8,8,9,9,10,10,11,11,12,12,13,13,14,14,15,15,16,16,17,17,18,18,20,20,21,21,23,23,24,24,25,25,26,26,27,27,28,28,29,29,33,33,37,37,39,39,40,40,43,43,44,44,45,45,47,47,48,48,55,55,60,60,62,62,70,70,71,71,73,73,74,74,87,87],"right_children":[2,4,6,8,10,12,14,16,18,20,22,24,26,28,30,32,34,36,38,-1,40,42,-1,44,46,48,50,52,54,56,-1,-1,-1,58,-1,-1,-1,60,-1,62,64,-1,-1,66,68,70,-1,72,74,-1,-1,-1,-1,-1,-1,76,-1,-1,-1,-1,78,-1,80,-1,-1,-1,-1,-1,-1,-1,82,84,-1,86,88,-1,-1,-1,-1,-1,-1,-1,-1,-1,-1,-1,-1,90,-1,-1,-1],"split_conditions":[7E0,6E0,6E0,2E0,6E0,2E0,2E0,5E0,3E0,1E0,2E0,1E0,6E0,1E0,4E0,2E0,6E0,5E0,4E0,-1.2892242E-2,2E0,1E0,-2.7070817E-2,3E0,4E0,2E0,2E0,3E0,7E0,7E0,2.8649138E-2,-7.329862E-2,-6.7609E-2,1E0,-5.1910073E-2,-6.115468E-2,-5.3765986E-2,3E0,-3.6159817E-2,1E0,2E0,7.0933094E-3,-1.007412E-2,2E0,4E0,2E0,-6.250199E-3,3E0,3E0,4.108117E-2,7.1503885E-2,7.999575E-4,2.4406021E-2,3.1960502E-3,1.1815272E-2,3E0,1.7009724E-2,-6.8396375E-2,-5.930067E-2,-7.2385706E-2,4E0,-4.3310244E-2,2E0,-7.52554E-2,-2.8092807E-2,-2.5962088E-2,-4.395786E-2,-6.7213685E-3,-2.8066698E-2,-9.126746E-3,3E0,1E0,2.2737183E-2,3E0,5E0,1.7255636E-2,-6.339723E-3,-3.4680597E-2,-5.0706603E-2,-1.453982E-2,-4.1616384E-2,-1.5507194E-2,-1.2169215E-2,2.6666063E-3,1.8069403E-3,1.3750901E-2,1.149182E-2,5E0,5.14109E-2,-1.1997866E-2,1.5248621E-2],"split_indices":[5,5,6,2,6,2,2,5,6,2,2,2,7,2,7,6,6,5,5,0,6,2,0,6,6,6,6,7,6,6,0,0,0,6,0,0,0,5,0,6,2,0,0,6,6,6,0,7,7,0,0,0,0,0,0,7,0,0,0,0,6,0,2,0,0,0,0,0,0,0,6,6,0,6,6,0,0,0,0,0,0,0,0,0,0,0,0,7,0,0,0],"split_type":[0,0,0,0,0,0,0,0,0,0,0,0,0,0,0,0,0,0,0,0,0,0,0,0,0,0,0,0,0,0,0,0,0,0,0,0,0,0,0,0,0,0,0,0,0,0,0,0,0,0,0,0,0,0,0,0,0,0,0,0,0,0,0,0,0,0,0,0,0,0,0,0,0,0,0,0,0,0,0,0,0,0,0,0,0,0,0,0,0,0,0],"sum_hessian":[1.2220846E4,1.766944E3,1.0453902E4,1.6353154E3,1.3162862E2,2.8615671E3,7.592335E3,9.6170795E2,6.736074E2,4.090011E1,9.072851E1,1.430355E3,1.4312122E3,4.1678677E3,3.424467E3,6.273197E2,3.3438824E2,2.5326074E2,4.2034668E2,1.5268496E0,3.937326E1,4.686497E1,4.386354E1,9.405564E1,1.3362993E3,1.3911595E3,4.0052612E1,2.423104E2,3.9255574E3,3.2803694E3,1.4409769E2,3.1433737E2,3.1298233E2,1.3726292E2,1.9712534E2,1.7334775E2,7.991299E1,7.0716705E1,3.4962997E2,3.1870857E1,7.502403E0,2.3017745E0,4.4563194E1,7.84929E1,1.5562746E1,1.2559741E3,8.032523E1,1.0301183E3,3.6104135E2,2.4752954E1,1.5299658E1,2.3670409E2,5.6063046E0,1.17707E0,3.9243804E3,3.9137104E1,3.2412322E3,6.452002E1,7.2742905E1,7.317089E0,6.3399616E1,1.800495E1,1.3865907E1,2.8045356E0,4.697867E0,7.687867E1,1.61423E0,1.0979422E1,4.5833244E0,1.0407339E3,2.1524023E2,1.0270074E3,3.110754E0,3.379541E2,2.308726E1,2.8838806E1,1.0298299E1,8.450364E0,5.4949253E1,7.7734666E0,6.09244E0,3.546688E1,1.7977336E2,5.518472E2,4.7516025E2,2.9977268E1,3.0797684E2,2.140923E1,1.6780287E0,1.755558E1,3.8536491E0],"tree_param":{"num_deleted":"0","num_feature":"8","num_nodes":"91","size_leaf_vector":"1"}},{"base_weights":[2.4085643E-3,-8.2475275E-1,3.2483965E-1,-9.6400857E-1,-4.1400224E-1,1.4707121E-1,3.8713953E-1,-1.277096E0,-8.117877E-1,-9.806677E-1,-1.752548E-1,4.8348837E-2,2.4973774E-1,3.476255E-1,4.3575442E-1,-1.2020806E0,-1.3371764E0,-7.200956E-1,-1.371257E0,-8.368894E-2,-8.042407E-1,-4.331062E-1,3.3028397E-1,-2.5904575E-1,7.435474E-2,2.0180246E-1,3.8360628E-1,1.5075347E-1,3.5979214E-1,2.88051E-2,2.2822047E-2,-8.3478644E-2,-7.264591E-2,-9.064212E-2,-8.228525E-2,-8.683974E-1,-6.205326E-1,-7.691832E-2,-9.1163E-2,-6.88628E-1,-1.2980102E0,-2.5633988E-1,-6.527795E-1,5.975544E-1,1.05930194E-1,-1.0938111E-1,-8.843377E-1,3.0183122E-2,3.1786382E-1,1.9233511E-1,2.1212418E-1,3.5663608E-1,5.0805324E-1,1.5300534E-2,-2.920828E-2,2.1012994E-2,3.1257976E-2,-7.517908E-2,-8.5321975E-1,-6.8711154E-2,-6.0128427E-1,-6.1743516E-2,-6.532348E-1,-2.8400168E-1,-8.727892E-2,-7.4589945E-2,-1.7744635E-1,-4.6873014E-2,-6.149675E-1,4.874657E-2,4.3929288E-1,-8.865143E-2,1.1274424E-2,-2.2331466E-1,3.5947248E-1,-4.761149E-2,-7.828164E-2,4.9946923E-2,-3.9281566E-2,5.736446E-3,4.4675654E-1,1.1231952E-2,1.479888E-2,1.3925915E-2,1.1014687E-2,2.3544839E-2,1.8619653E-2,4.1686734E-3,5.620786E-1,-8.757134E-1,-7.618746E-1,-3.4597374E-2,-4.2275548E-2,-4.797594E-2,-3.66192E-2,1.4941475E-2,-5.6772806E-2,-4.5798075E-1,-6.6051014E-2,-6.819293E-4,-4.1376367E-2,2.4522582E-2,5.017652E-1,2.2420408E-1,-1.9507965E-2,-2.0167943E-2,-7.7975327E-3,2.7632708E-2,9.9579476E-5,3.250977E-3,3.004095E-3,-1.0960438E-1,9.747925E-3,3.0308113E-2,3.2163458E-3,5.868054E-1,-1.2651977E-2,-5.2386843E-2,-5.7836432E-2,-3.610968E-2,-4.9037248E-2,-4.6791464E-2,-1.2743316E-2,2.7060053E-1,-3.133573E-1,6.1223924E-2,2.7624262E-2,-1.5675988E-2,4.724035E-2,-1.5425578E-2,-5.115338E-3,3.2738715E-2,4.756597E-2,1.0132048E-2,3.8770813E-2,-3.9546043E-2,-1.309863E-2],"categories":[],"categories_nodes":[],"categories_segments":[],"categories_sizes":[],"default_left":[0,0,0,0,0,0,0,0,0,0,0,0,0,0,0,0,0,0,0,0,0,0,0,0,0,0,0,0,0,0,0,0,0,0,0,0,0,0,0,0,0,0,0,0,0,0,0,0,0,0,0,0,0,0,0,0,0,0,0,0,0,0,0,0,0,0,0,0,0,0,0,0,0,0,0,0,0,0,0,0,0,0,0,0,0,0,0,0,0,0,0,0,0,0,0,0,0,0,0,0,0,0,0,0,0,0,0,0,0,0,0,0,0,0,0,0,0,0,0,0,0,0,0,0,0,0,0,0,0,0,0,0,0,0,0,0,0],"id":14,"left_children":[1,3,5,7,9,11,13,15,17,19,21,23,25,27,29,31,33,35,37,-1,39,41,43,45,47,49,51,53,55,-1,-1,-1,-1,-1,-1,57,59,-1,-1,61,63,65,67,69,71,73,75,77,79,81,83,85,87,-1,-1,-1,-1,-1,89,-1,91,-1,93,95,-1,-1,97,-1,99,-1,101,103,-1,105,107,-1,-1,109,111,-1,113,-1,-1,-1,-1,-1,-1,-1,115,117,119,-1,-1,-1,-1,-1,-1,121,123,-1,-1,-1,125,127,-1,-1,-1,-1,-1,-1,-1,129,-1,-1,-1,131,-1,-1,-1,-1,-1,-1,-1,133,135,-1,-1,-1,-1,-1,-1,-1,-1,-1,-1,-1,-1],"loss_changes":[3.2523345E3,1.9537305E2,9.713751E1,1.2102197E2,1.17201416E2,2.3081512E1,1.2379883E1,2.6933594E0,8.7587524E1,1.5237625E1,7.972864E1,9.303295E0,7.1137238E0,8.556366E0,4.7124023E0,1.1570435E0,5.3894043E-2,2.1485474E1,1.6613464E0,0E0,9.270332E0,1.5609413E1,1.2353718E1,8.433235E0,1.1524683E1,5.3398132E-2,8.653984E-1,1.2081602E1,1.163385E1,0E0,0E0,0E0,0E0,0E0,0E0,2.2779846E0,7.652191E0,0E0,0E0,1.0477905E0,2.7165604E0,1.6423378E1,3.3250427E-1,2.4365082E0,1.6313465E0,4.0073643E0,1.7018414E-1,1.248112E0,4.776909E0,2.2716141E-1,1.1108017E-1,1.938343E-1,1.1860809E0,0E0,0E0,0E0,0E0,0E0,7.2576904E-1,0E0,2.8476562E0,0E0,6.9997406E-1,1.272207E0,0E0,0E0,6.498706E0,0E0,3.4930153E0,0E0,2.6984215E-2,2.2340505E0,0E0,5.550797E-1,4.2384708E-1,0E0,0E0,1.0734797E-3,2.7676625E0,0E0,1.467371E0,0E0,0E0,0E0,0E0,0E0,0E0,0E0,9.3039703E-1,3.3932495E-1,1.1772919E-1,0E0,0E0,0E0,0E0,0E0,0E0,4.232746E0,1.2551868E1,0E0,0E0,0E0,3.0863762E-1,3.4920783E0,0E0,0E0,0E0,0E0,0E0,0E0,0E0,5.5500007E-1,0E0,0E0,0E0,2.2833729E-1,0E0,0E0,0E0,0E0,0E0,0E0,0E0,2.3556242E0,2.7911558E0,0E0,0E0,0E0,0E0,0E0,0E0,0E0,0E0,0E0,0E0,0E0,0E0],"parents":[2147483647,0,0,1,1,2,2,3,3,4,4,5,5,6,6,7,7,8,8,9,9,10,10,11,11,12,12,13,13,14,14,15,15,16,16,17,17,18,18,20,20,21,21,22,22,23,23,24,24,25,25,26,26,27,27,28,28,35,35,36,36,39,39,40,40,41,41,42,42,43,43,44,44,45,45,46,46,47,47,48,48,49,49,50,50,51,51,52,52,58,58,60,60,62,62,63,63,66,66,68,68,70,70,71,71,73,73,74,74,77,77,78,78,80,80,88,88,89,89,90,90,97,97,98,98,102,102,103,103,111,111,115,115,123,123,124,124],"right_children":[2,4,6,8,10,12,14,16,18,20,22,24,26,28,30,32,34,36,38,-1,40,42,44,46,48,50,52,54,56,-1,-1,-1,-1,-1,-1,58,60,-1,-1,62,64,66,68,70,72,74,76,78,80,82,84,86,88,-1,-1,-1,-1,-1,90,-1,92,-1,94,96,-1,-1,98,-1,100,-1,102,104,-1,106,108,-1,-1,110,112,-1,114,-1,-1,-1,-1,-1,-1,-1,116,118,120,-1,-1,-1,-1,-1,-1,122,124,-1,-1,-1,126,128,-1,-1,-1,-1,-1,-1,-1,130,-1,-1,-1,132,-1,-1,-1,-1,-1,-1,-1,134,136,-1,-1,-1,-1,-1,-1,-1,-1,-1,-1,-1,-1],"split_conditions":[7E0,1E0,7E0,5E0,2E0,2E0,2E0,7E0,6E0,5E0,6E0,1E0,2E0,1E0,1E0,4E0,4E0,7E0,7E0,-8.368894E-2,6E0,5E0,4E0,1E0,1E0,1E0,1E0,1E0,1E0,2.88051E-2,2.2822047E-2,-8.3478644E-2,-7.264591E-2,-9.064212E-2,-8.228525E-2,1E0,1E0,-7.691832E-2,-9.1163E-2,1E0,1E0,3E0,2E0,1E0,7E0,2E0,2E0,2E0,1E0,1E0,1E0,4E0,3E0,1.5300534E-2,-2.920828E-2,2.1012994E-2,3.1257976E-2,-7.517908E-2,2E0,-6.8711154E-2,2E0,-6.1743516E-2,6E0,2E0,-8.727892E-2,-7.4589945E-2,1E0,-4.6873014E-2,5E0,4.874657E-2,2E0,6E0,1.1274424E-2,1E0,4E0,-4.761149E-2,-7.828164E-2,1E0,4E0,5.736446E-3,4E0,1.1231952E-2,1.479888E-2,1.3925915E-2,1.1014687E-2,2.3544839E-2,1.8619653E-2,4.1686734E-3,6E0,1E0,3E0,-3.4597374E-2,-4.2275548E-2,-4.797594E-2,-3.66192E-2,1.4941475E-2,-5.6772806E-2,4E0,7E0,-6.819293E-4,-4.1376367E-2,2.4522582E-2,3E0,5E0,-1.9507965E-2,-2.0167943E-2,-7.7975327E-3,2.7632708E-2,9.9579476E-5,3.250977E-3,3.004095E-3,3E0,9.747925E-3,3.0308113E-2,3.2163458E-3,4E0,-1.2651977E-2,-5.2386843E-2,-5.7836432E-2,-3.610968E-2,-4.9037248E-2,-4.6791464E-2,-1.2743316E-2,6E0,4E0,6.1223924E-2,2.7624262E-2,-1.5675988E-2,4.724035E-2,-1.5425578E-2,-5.115338E-3,3.2738715E-2,4.756597E-2,1.0132048E-2,3.8770813E-2,-3.9546043E-2,-1.309863E-2],"split_indices":[4,1,6,4,2,2,2,6,4,4,4,2,6,2,1,4,4,6,6,0,4,4,6,1,1,6,1,1,1,0,0,0,0,0,0,2,2,0,0,2,2,4,6,6,6,6,6,6,6,1,1,6,6,0,0,0,0,0,6,0,2,0,6,6,0,0,6,0,6,0,6,6,0,6,6,0,0,6,6,0,6,0,0,0,0,0,0,0,6,6,6,0,0,0,0,0,0,4,6,0,0,0,6,6,0,0,0,0,0,0,0,6,0,0,0,6,0,0,0,0,0,0,0,6,4,0,0,0,0,0,0,0,0,0,0,0,0],"split_type":[0,0,0,0,0,0,0,0,0,0,0,0,0,0,0,0,0,0,0,0,0,0,0,0,0,0,0,0,0,0,0,0,0,0,0,0,0,0,0,0,0,0,0,0,0,0,0,0,0,0,0,0,0,0,0,0,0,0,0,0,0,0,0,0,0,0,0,0,0,0,0,0,0,0,0,0,0,0,0,0,0,0,0,0,0,0,0,0,0,0,0,0,0,0,0,0,0,0,0,0,0,0,0,0,0,0,0,0,0,0,0,0,0,0,0,0,0,0,0,0,0,0,0,0,0,0,0,0,0,0,0,0,0,0,0,0,0],"sum_hessian":[1.2193284E4,3.4196125E3,8.773672E3,2.553135E3,8.6647766E2,2.2774243E3,6.4962476E3,8.336275E2,1.7195074E3,2.5623743E2,6.1024023E2,1.1615112E3,1.115913E3,3.5865342E3,2.9097131E3,3.769349E2,4.566926E2,1.4786821E3,2.408253E2,8.4116905E1,1.7212051E2,4.0418152E2,2.0605876E2,9.0136284E1,1.0713749E3,8.229114E2,2.9300165E2,2.0926367E2,3.3772705E3,2.2075896E3,7.021237E2,9.419231E1,2.8274258E2,8.551716E1,3.7117545E2,5.9190234E2,8.8677985E2,8.90818E1,1.517435E2,1.4075336E2,3.1367167E1,2.2476009E2,1.7942142E2,9.353156E1,1.125272E2,7.335776E1,1.677853E1,9.0750323E2,1.6387167E2,4.3601636E2,3.8689502E2,2.4292123E2,5.008041E1,1.8218912E2,2.7074545E1,2.8572854E3,5.1998517E2,2.384684E1,5.680555E2,3.319053E1,8.535893E2,1.319461E1,1.2755874E2,2.8269923E0,2.8540174E1,1.6824217E1,2.0793587E2,4.806075E1,1.3136067E2,4.27221E1,5.0809464E1,3.0841387E1,8.168581E1,5.92961E1,1.4061655E1,1.3963783E1,2.814747E0,7.066396E2,2.0086365E2,5.983966E1,1.0403201E2,3.350314E2,1.00984955E2,3.0400632E2,8.288869E1,1.8369273E2,5.922849E1,5.6193376E0,4.446107E1,4.512395E2,1.16816E2,5.0507156E2,3.4851773E2,4.6944542E1,8.06142E1,1.756944E0,1.0700483E0,5.851321E1,1.4942265E2,8.946715E0,1.22413956E2,3.1220022E1,1.9589441E1,1.2797324E1,1.8044064E1,2.9102438E1,3.0193663E1,1.1354883E1,2.7067719E0,3.71572E2,3.3506763E2,1.4773665E2,5.3127E1,9.525722E1,8.7748E0,4.321517E1,1.2458997E0,2.4176591E2,2.0947357E2,1.2657541E1,1.0415846E2,2.6930351E1,3.1582857E1,6.3254055E1,8.61686E1,1.1344917E0,1.845495E1,6.9291506E0,5.8681736E0,2.4457626E1,1.2327902E2,3.316741E1,1.0047758E1,4.8836136E1,1.441792E1,2.06154E1,6.55532E1],"tree_param":{"num_deleted":"0","num_feature":"8","num_nodes":"137","size_leaf_vector":"1"}},{"base_weights":[-2.8213337E-3,-7.965953E-1,3.007832E-1,-8.4885615E-1,4.721191E-1,-6.053666E-1,4.057117E-1,-1.1392553E0,-7.053645E-1,5.2165616E-2,4.226632E-1,-7.8456557E-1,-4.0684098E-1,1.1459817E-2,4.1332343E-1,-1.2718256E0,-9.507299E-1,-1.0613382E0,-5.9615374E-1,1.4283967E-2,5.247341E-1,-8.6416024E-1,-4.490326E-3,-4.2333215E-1,-1.6501188E-2,2.483562E-2,2.7199192E-2,-7.393613E-2,-1.3110241E0,-1.1297716E0,-8.7917614E-1,-7.419063E-2,-1.0192919E0,-6.602028E-2,-5.820406E-1,-1.2241838E-2,7.4090675E-2,1.36214085E-2,6.648803E-1,-6.333887E-2,-7.0853597E-1,-8.388823E-3,-2.6780328E-2,-9.043244E-2,-7.994666E-2,-8.2143396E-2,-6.652626E-2,-6.7454085E-2,-5.0390944E-2,-1.00533E0,-1.1694614E0,-6.4056385E-1,-5.152622E-1,5.5248346E-2,-2.2444797E-3,5.576101E-2,3.904436E-2,-5.952961E-2,-4.3133132E-2,-9.838068E-1,-7.084905E-2,-2.6597975E-2,-7.4983835E-2,-3.194428E-2,-8.948412E-2,-4.0428102E-2,-6.4906585E-3,-6.477262E-2,-5.6364138E-2],"categories":[],"categories_nodes":[],"categories_segments":[],"categories_sizes":[],"default_left":[0,0,0,0,0,0,0,0,0,0,0,0,0,0,0,0,0,0,0,0,0,0,0,0,0,0,0,0,0,0,0,0,0,0,0,0,0,0,0,0,0,0,0,0,0,0,0,0,0,0,0,0,0,0,0,0,0,0,0,0,0,0,0,0,0,0,0,0,0],"id":15,"left_children":[1,3,5,7,9,11,13,15,17,-1,19,21,23,-1,25,27,29,31,33,35,37,39,-1,41,-1,-1,-1,-1,43,45,47,-1,49,-1,51,-1,53,-1,55,-1,57,-1,-1,-1,-1,-1,-1,-1,-1,59,61,63,65,-1,-1,-1,-1,-1,-1,67,-1,-1,-1,-1,-1,-1,-1,-1,-1],"loss_changes":[2.930968E3,2.2336523E2,8.366134E2,1.3413965E2,2.1347332E0,3.2277008E1,1.33479E1,2.5883423E1,8.3740234E1,0E0,4.943159E0,2.716037E1,9.590225E-1,0E0,2.5792236E0,1.2921753E0,5.022064E0,1.760376E0,1.0242981E1,3.151167E-1,4.0008106E0,9.210632E0,0E0,3.0955505E-1,0E0,0E0,0E0,0E0,9.2230225E-1,6.416931E-1,4.215866E0,0E0,1.7578125E-2,0E0,6.0718994E0,0E0,1.743667E0,0E0,2.5894356E-1,0E0,6.5901184E-1,0E0,0E0,0E0,0E0,0E0,0E0,0E0,0E0,1.960144E-1,1.8136978E-1,8.799704E1,3.9918625E1,0E0,0E0,0E0,0E0,0E0,0E0,6.3964844E-1,0E0,0E0,0E0,0E0,0E0,0E0,0E0,0E0,0E0],"parents":[2147483647,0,0,1,1,2,2,3,3,4,4,5,5,6,6,7,7,8,8,10,10,11,11,12,12,14,14,15,15,16,16,17,17,18,18,19,19,20,20,21,21,23,23,28,28,29,29,30,30,32,32,34,34,36,36,38,38,40,40,49,49,50,50,51,51,52,52,59,59],"right_children":[2,4,6,8,10,12,14,16,18,-1,20,22,24,-1,26,28,30,32,34,36,38,40,-1,42,-1,-1,-1,-1,44,46,48,-1,50,-1,52,-1,54,-1,56,-1,58,-1,-1,-1,-1,-1,-1,-1,-1,60,62,64,66,-1,-1,-1,-1,-1,-1,68,-1,-1,-1,-1,-1,-1,-1,-1,-1],"split_conditions":[7E0,3E0,7E0,5E0,4E0,2E0,1E0,2E0,7E0,5.2165616E-2,4E0,6E0,6E0,1.1459817E-2,2E0,7E0,4E0,4E0,1E0,5E0,5E0,5E0,-4.490326E-3,3E0,-1.6501188E-2,2.483562E-2,2.7199192E-2,-7.393613E-2,4E0,3E0,7E0,-7.419063E-2,6E0,-6.602028E-2,2E0,-1.2241838E-2,6E0,1.36214085E-2,6E0,-6.333887E-2,1E0,-8.388823E-3,-2.6780328E-2,-9.043244E-2,-7.994666E-2,-8.2143396E-2,-6.652626E-2,-6.7454085E-2,-5.0390944E-2,6E0,1E0,6E0,6E0,5.5248346E-2,-2.2444797E-3,5.576101E-2,3.904436E-2,-5.952961E-2,-4.3133132E-2,2E0,-7.084905E-2,-2.6597975E-2,-7.4983835E-2,-3.194428E-2,-8.948412E-2,-4.0428102E-2,-6.4906585E-3,-6.477262E-2,-5.6364138E-2],"split_indices":[4,7,5,4,4,2,2,2,5,0,7,5,5,0,2,5,4,5,2,4,4,5,0,5,0,0,0,0,4,4,5,0,5,0,2,0,4,0,4,0,2,0,0,0,0,0,0,0,0,4,2,4,4,0,0,0,0,0,0,2,0,0,0,0,0,0,0,0,0],"split_type":[0,0,0,0,0,0,0,0,0,0,0,0,0,0,0,0,0,0,0,0,0,0,0,0,0,0,0,0,0,0,0,0,0,0,0,0,0,0,0,0,0,0,0,0,0,0,0,0,0,0,0,0,0,0,0,0,0,0,0,0,0,0,0,0,0,0,0,0,0],"sum_hessian":[1.2160704E4,3.3641243E3,8.79658E3,3.2312427E3,1.3288164E2,9.125703E2,7.88401E3,1.067078E3,2.1641646E3,1.4838324E1,1.1804331E2,4.7860178E2,4.3396854E2,2.604999E2,7.62351E3,6.2427637E2,4.428017E2,5.0671994E2,1.6574447E3,2.375551E1,9.4287796E1,4.3041678E2,4.818499E1,3.882495E2,4.571902E1,4.0101746E3,3.6133354E3,1.8897682E2,4.3529953E2,1.2363276E2,3.1916895E2,1.2683223E2,3.7988773E2,4.838966E1,1.609055E3,4.9479494E0,1.8807562E1,3.0025232E1,6.4262566E1,2.2139923E2,2.0901755E2,4.3963842E0,3.8385312E2,9.36544E1,3.4164514E2,3.1746424E1,9.188634E1,8.780512E1,2.3136382E2,3.5224475E2,2.7642952E1,8.544928E2,7.545622E2,1.6982766E0,1.7109285E1,8.3211565E0,5.594141E1,1.5051528E1,1.9396602E2,3.0479495E2,4.74498E1,1.2643307E0,2.637862E1,7.3238776E2,1.22104996E2,5.74898E2,1.796642E2,1.9186838E2,1.1292659E2],"tree_param":{"num_deleted":"0","num_feature":"8","num_nodes":"69","size_leaf_vector":"1"}},{"base_weights":[-3.016555E-3,-7.4895376E-1,2.7836967E-1,-7.956394E-1,4.4048965E-1,-4.9363393E-2,3.0565643E-1,-1.087139E0,-6.57636E-1,7.87263E-2,3.3908394E-1,-5.670614E-2,6.360718E-2,2.5209302E-1,3.6796433E-1,-1.2312258E0,-8.821579E-1,-7.332492E-1,-5.1472944E-1,8.543186E-2,4.757302E-1,-3.288076E-2,-4.1332703E-2,9.158011E-2,2.6205844E-1,3.0049244E-2,2.146832E-1,-8.400673E-2,-7.509527E-2,-1.0338933E0,-6.509045E-1,-6.73955E-1,-9.9781716E-1,-5.998266E-1,-1.5260562E-1,4.2638975E-1,-5.2845094E-2,2.4879594E-1,3.675738E-2,2.6773012E-3,-8.4973285E-3,8.076993E-2,3.871257E-2,1.50965145E-2,1.899025E-2,1.3639703E-2,8.030225E-3,-5.6083614E-1,-1.0820811E0,-7.929417E-2,-3.8836323E-2,-5.8989525E-2,-6.6279095E-1,-1.2581121E0,-7.326127E-1,-7.426759E-2,-5.771983E-1,-7.807913E-2,2.22731E-2,-5.9969377E-2,8.981556E-1,1.6612505E-3,-8.2944095E-2,-2.1803625E-1,3.031226E-2,5.38543E-3,4.300755E-3,8.96562E-3,-4.1967794E-2,-7.89866E-2,-6.2131885E-2,-6.2646997E-1,-4.4729915E-2,-4.8056927E-2,-8.1158124E-2,2.0643282E-3,-5.1646497E-2,-3.402662E-2,-3.881053E-2,6.9160044E-2,-5.4523375E-2,2.626253E-2,6.979948E-2,-1.7106236E-3,-6.341004E-3,1.6642138E-2,-2.0057812E-2,-4.5834985E-2,-3.851948E-2],"categories":[],"categories_nodes":[],"categories_segments":[],"categories_sizes":[],"default_left":[0,0,0,0,0,0,0,0,0,0,0,0,0,0,0,0,0,0,0,0,0,0,0,0,0,0,0,0,0,0,0,0,0,0,0,0,0,0,0,0,0,0,0,0,0,0,0,0,0,0,0,0,0,0,0,0,0,0,0,0,0,0,0,0,0,0,0,0,0,0,0,0,0,0,0,0,0,0,0,0,0,0,0,0,0,0,0,0,0],"id":16,"left_children":[1,3,5,7,9,11,13,15,17,-1,19,21,-1,23,25,27,29,31,33,35,37,-1,39,41,43,-1,45,-1,-1,47,49,51,53,55,57,59,61,63,-1,-1,-1,65,-1,-1,-1,-1,-1,67,69,-1,-1,-1,71,73,75,-1,77,-1,-1,79,81,-1,83,85,-1,-1,-1,-1,-1,-1,-1,87,-1,-1,-1,-1,-1,-1,-1,-1,-1,-1,-1,-1,-1,-1,-1,-1,-1],"loss_changes":[2.5339407E3,1.8384985E2,7.839972E1,1.27530396E2,1.0049458E1,5.2971077E0,2.6945068E1,2.9446045E1,2.3103394E1,0E0,3.86627E0,4.796379E0,0E0,6.947815E0,6.3265656E1,1.197937E0,1.4429352E1,2.1701904E1,2.3053436E1,1.9071668E0,1.7144814E0,0E0,5.1294136E0,1.4165666E0,3.534546E0,0E0,3.2147217E-1,0E0,0E0,5.40683E0,2.8591232E0,3.0091553E0,1.7136765E1,7.5524445E0,7.9743576E1,2.7096167E0,7.101748E-2,2.7852664E0,0E0,0E0,0E0,1.1474013E-2,0E0,0E0,0E0,0E0,0E0,1.9478726E0,2.9306335E0,0E0,0E0,0E0,1.6984558E0,1.5118713E0,8.875298E0,0E0,6.2323E-1,0E0,0E0,6.6031885E0,3.0127E-1,0E0,1.9544661E-2,4.848858E-1,0E0,0E0,0E0,0E0,0E0,0E0,0E0,5.798645E-1,0E0,0E0,0E0,0E0,0E0,0E0,0E0,0E0,0E0,0E0,0E0,0E0,0E0,0E0,0E0,0E0,0E0],"parents":[2147483647,0,0,1,1,2,2,3,3,4,4,5,5,6,6,7,7,8,8,10,10,11,11,13,13,14,14,15,15,16,16,17,17,18,18,19,19,20,20,22,22,23,23,24,24,26,26,29,29,30,30,31,31,32,32,33,33,34,34,35,35,36,36,37,37,41,41,47,47,48,48,52,52,53,53,54,54,56,56,59,59,60,60,62,62,63,63,71,71],"right_children":[2,4,6,8,10,12,14,16,18,-1,20,22,-1,24,26,28,30,32,34,36,38,-1,40,42,44,-1,46,-1,-1,48,50,52,54,56,58,60,62,64,-1,-1,-1,66,-1,-1,-1,-1,-1,68,70,-1,-1,-1,72,74,76,-1,78,-1,-1,80,82,-1,84,86,-1,-1,-1,-1,-1,-1,-1,88,-1,-1,-1,-1,-1,-1,-1,-1,-1,-1,-1,-1,-1,-1,-1,-1,-1],"split_conditions":[7E0,3E0,1E0,5E0,1E0,3E0,2E0,2E0,2E0,7.87263E-2,5E0,1E0,6.360718E-2,1E0,2E0,4E0,2E0,6E0,6E0,4E0,2E0,-3.288076E-2,2E0,3E0,2E0,3.0049244E-2,3E0,-8.400673E-2,-7.509527E-2,1E0,2E0,1E0,2E0,1E0,2E0,4E0,2E0,6E0,3.675738E-2,2.6773012E-3,-8.4973285E-3,2E0,3.871257E-2,1.50965145E-2,1.899025E-2,1.3639703E-2,8.030225E-3,4E0,4E0,-7.929417E-2,-3.8836323E-2,-5.8989525E-2,2E0,1E0,1E0,-7.426759E-2,2E0,-7.807913E-2,2.22731E-2,2E0,2E0,1.6612505E-3,5E0,6E0,3.031226E-2,5.38543E-3,4.300755E-3,8.96562E-3,-4.1967794E-2,-7.89866E-2,-6.2131885E-2,1E0,-4.4729915E-2,-4.8056927E-2,-8.1158124E-2,2.0643282E-3,-5.1646497E-2,-3.402662E-2,-3.881053E-2,6.9160044E-2,-5.4523375E-2,2.626253E-2,6.979948E-2,-1.7106236E-3,-6.341004E-3,1.6642138E-2,-2.0057812E-2,-4.5834985E-2,-3.851948E-2],"split_indices":[4,7,0,4,0,7,2,2,0,0,4,2,0,2,0,4,0,4,4,4,0,0,2,7,0,0,7,0,0,0,4,2,2,2,2,7,0,7,0,0,0,0,0,0,0,0,0,4,4,0,0,0,2,2,0,0,2,0,0,0,0,0,7,4,0,0,0,0,0,0,0,0,0,0,0,0,0,0,0,0,0,0,0,0,0,0,0,0,0],"split_type":[0,0,0,0,0,0,0,0,0,0,0,0,0,0,0,0,0,0,0,0,0,0,0,0,0,0,0,0,0,0,0,0,0,0,0,0,0,0,0,0,0,0,0,0,0,0,0,0,0,0,0,0,0,0,0,0,0,0,0,0,0,0,0,0,0,0,0,0,0,0,0,0,0,0,0,0,0,0,0,0,0,0,0,0,0,0,0,0,0],"sum_hessian":[1.2071014E4,3.305976E3,8.765037E3,3.1813289E3,1.2464733E2,6.736377E2,8.0913994E3,1.02072424E3,2.1606045E3,1.2986298E1,1.1166103E2,6.696367E2,4.00098E0,4.352818E3,3.7385818E3,5.9744275E2,4.232815E2,1.4111893E3,7.4941516E2,3.947096E1,7.219008E1,2.0649117E1,6.489876E2,2.5484247E2,4.0979756E3,2.1716406E3,1.566941E3,1.4341487E2,4.5402786E2,2.5419177E2,1.6908972E2,1.1547455E3,2.5644388E2,6.0646387E2,1.429513E2,1.0989836E1,2.8481121E1,2.420929E1,4.7980793E1,3.429316E2,3.0605603E2,2.5044962E2,4.392846E0,2.6678828E3,1.4300927E3,1.5221592E3,4.478185E1,2.4274796E1,2.2991698E2,7.2702584E0,1.6181946E2,4.439996E1,1.1103456E3,1.2816591E2,1.2827797E2,2.1398525E1,5.850653E2,4.5074852E1,9.787644E1,5.6964655E0,5.29337E0,7.8583865E0,2.0622736E1,8.09489E0,1.6114399E1,1.7540263E2,7.504698E1,3.1858802E0,2.1088915E1,7.660041E1,1.5331656E2,6.452703E2,4.650752E2,9.309065E0,1.1885685E2,1.3504289E1,1.14773674E2,3.1821555E2,2.668498E2,2.2389617E0,3.4575038E0,2.2327564E0,3.0606136E0,5.4483247E0,1.5174411E1,1.2179247E0,6.876965E0,6.8688576E1,5.765817E2],"tree_param":{"num_deleted":"0","num_feature":"8","num_nodes":"89","size_leaf_vector":"1"}},{"base_weights":[-3.7701086E-3,-7.2315925E-1,2.6386696E-1,-9.8821187E-1,-5.963231E-1,-6.2524885E-1,3.6505356E-1,-1.2061915E0,-7.0859665E-1,-9.985843E-1,-4.824506E-1,-7.994343E-1,-4.246157E-1,5.0759442E-2,3.9166397E-1,-8.214358E-2,-7.366322E-2,-6.6878766E-2,-6.067444E-1,-7.145824E-2,-9.514779E-1,-6.0451084E-1,-3.5200194E-1,-8.775171E-1,-1.4970462E-1,-4.9785018E-1,-3.4654865E-1,1.275371E-1,-2.4655005E-3,4.382858E-1,3.1473026E-1,-8.1615543E-1,-3.1305215E-1,-9.9498415E-1,-8.8283247E-1,-4.950213E-1,-8.213292E-2,-5.349762E-1,5.280955E-2,-1.0067271E0,-7.435518E-1,3.8764197E-2,-1.9902498E-1,-6.578112E-1,-3.0460067E-2,-3.6800763E-1,-2.6327232E-1,-1.3175946E-2,9.461929E-3,3.5051417E-1,3.490636E-2,6.2817098E-3,3.2001835E-1,-2.3026155E-1,-9.0080404E-1,-7.828877E-2,-2.7926037E-1,-7.8469384E-1,-6.34782E-2,-8.28915E-1,-7.045303E-2,-9.4739646E-1,-4.653762E-1,-3.7572123E-2,-2.6625568E-2,-3.956798E-1,3.4405723E-2,-1.0840979E0,-8.5184836E-1,-6.0479235E-2,-7.245155E-1,-7.2995685E-2,-1.4112957E-1,-5.8323774E-2,-3.3014826E-2,-8.88151E-3,-3.813893E-1,-7.045427E-2,-1.7257108E-1,1.0145657E-2,2.28352E-2,2.248747E-2,1.7900987E-2,3.253971E-2,-2.4857821E-2,-1.0717474E0,-5.0306793E-2,-1.8264581E-1,-1.8976223E-2,-6.5966055E-2,-4.3664497E-1,-3.28523E-2,-5.2932963E-2,-5.1780906E-2,-7.331949E-2,-4.2772758E-1,-3.3787318E-2,3.3848297E-2,-3.2907173E-2,-4.8450544E-2,-7.097039E-2,-5.5339664E-1,-5.8299094E-2,-3.648138E-2,-4.614886E-2,-1.0185471E-2,-5.61699E-3,-2.6779259E-2,-1.9932736E-2,-6.673327E-3,-1.7585881E-2,-7.8825966E-2,-6.24926E-2,-2.6483614E-2,-1.0289578E-2,-5.5831313E-1,1.2049298E-2,-3.458877E-2,-2.577646E-2,-5.099287E-2,-2.8841212E-2,-3.9388105E-2,-1.3933104E-2],"categories":[],"categories_nodes":[],"categories_segments":[],"categories_sizes":[],"default_left":[0,0,0,0,0,0,0,0,0,0,0,0,0,0,0,0,0,0,0,0,0,0,0,0,0,0,0,0,0,0,0,0,0,0,0,0,0,0,0,0,0,0,0,0,0,0,0,0,0,0,0,0,0,0,0,0,0,0,0,0,0,0,0,0,0,0,0,0,0,0,0,0,0,0,0,0,0,0,0,0,0,0,0,0,0,0,0,0,0,0,0,0,0,0,0,0,0,0,0,0,0,0,0,0,0,0,0,0,0,0,0,0,0,0,0,0,0,0,0,0,0,0,0],"id":17,"left_children":[1,3,5,7,9,11,13,15,17,19,21,23,25,27,29,-1,-1,-1,31,-1,33,35,37,39,41,43,45,47,-1,49,51,53,55,57,59,61,-1,63,65,67,69,-1,71,73,-1,75,77,-1,-1,79,-1,-1,81,83,85,-1,87,89,-1,91,-1,93,95,-1,-1,97,-1,99,101,-1,103,-1,105,-1,-1,-1,107,-1,109,-1,-1,-1,-1,-1,-1,111,-1,113,-1,-1,115,-1,-1,-1,-1,117,-1,-1,-1,-1,-1,119,-1,-1,-1,-1,-1,-1,-1,-1,-1,-1,-1,-1,-1,121,-1,-1,-1,-1,-1,-1,-1],"loss_changes":[2.307149E3,1.0884302E2,7.8589764E2,6.3468628E1,1.0042206E2,3.0970062E1,6.557153E1,9.7766113E-1,1.6331375E1,2.4596252E0,2.7171722E1,2.4115295E1,2.2652206E0,4.239093E0,2.5839355E1,0E0,0E0,0E0,2.2015396E1,0E0,5.1049805E-1,6.7734375E1,6.1554253E1,6.87265E0,2.0477395E0,2.2639847E-1,2.9964066E-1,2.6021018E0,0E0,4.6285767E1,3.0787354E0,1.0285233E1,4.5392494E0,1.9897461E-1,1.2887726E0,9.994156E0,0E0,3.8514557E0,5.769362E1,1.9615936E0,4.2072296E-1,0E0,2.64287E0,1.7658949E-1,0E0,4.501419E-1,3.3024378E0,0E0,0E0,6.334137E0,0E0,0E0,3.4785461E0,3.5333533E0,2.5586395E0,0E0,2.8803635E-1,1.3809137E0,0E0,2.31987E-1,0E0,6.197128E-1,1.8187256E0,0E0,0E0,1.6540895E1,0E0,1.4442139E0,1.3623161E0,0E0,8.636475E-3,0E0,4.184234E-2,0E0,0E0,0E0,3.4500122E-1,0E0,2.6976442E-1,0E0,0E0,0E0,0E0,0E0,0E0,9.423828E-2,0E0,8.8113606E-2,0E0,0E0,7.612798E-1,0E0,0E0,0E0,0E0,8.6746216E-1,0E0,0E0,0E0,0E0,0E0,1.6318607E-1,0E0,0E0,0E0,0E0,0E0,0E0,0E0,0E0,0E0,0E0,0E0,0E0,0E0,8.676624E-2,0E0,0E0,0E0,0E0,0E0,0E0,0E0],"parents":[2147483647,0,0,1,1,2,2,3,3,4,4,5,5,6,6,7,7,8,8,9,9,10,10,11,11,12,12,13,13,14,14,18,18,20,20,21,21,22,22,23,23,24,24,25,25,26,26,27,27,29,29,30,30,31,31,32,32,33,33,34,34,35,35,37,37,38,38,39,39,40,40,42,42,43,43,45,45,46,46,49,49,52,52,53,53,54,54,56,56,57,57,59,59,61,61,62,62,65,65,67,67,68,68,70,70,72,72,76,76,78,78,85,85,87,87,90,90,95,95,101,101,115,115],"right_children":[2,4,6,8,10,12,14,16,18,20,22,24,26,28,30,-1,-1,-1,32,-1,34,36,38,40,42,44,46,48,-1,50,52,54,56,58,60,62,-1,64,66,68,70,-1,72,74,-1,76,78,-1,-1,80,-1,-1,82,84,86,-1,88,90,-1,92,-1,94,96,-1,-1,98,-1,100,102,-1,104,-1,106,-1,-1,-1,108,-1,110,-1,-1,-1,-1,-1,-1,112,-1,114,-1,-1,116,-1,-1,-1,-1,118,-1,-1,-1,-1,-1,120,-1,-1,-1,-1,-1,-1,-1,-1,-1,-1,-1,-1,-1,122,-1,-1,-1,-1,-1,-1,-1],"split_conditions":[7E0,5E0,7E0,2E0,7E0,2E0,1E0,4E0,7E0,4E0,2E0,6E0,5E0,2E0,2E0,-8.214358E-2,-7.366322E-2,-6.6878766E-2,2E0,-7.145824E-2,2E0,6E0,6E0,5E0,1E0,1E0,6E0,1E0,-2.4655005E-3,2E0,1E0,1E0,2E0,1E0,6E0,1E0,-8.213292E-2,2E0,2E0,2E0,1E0,3.8764197E-2,1E0,4E0,-3.0460067E-2,1E0,1E0,-1.3175946E-2,9.461929E-3,1E0,3.490636E-2,6.2817098E-3,2E0,4E0,4E0,-7.828877E-2,4E0,5E0,-6.34782E-2,1E0,-7.045303E-2,2E0,2E0,-3.7572123E-2,-2.6625568E-2,1E0,3.4405723E-2,1E0,4E0,-6.0479235E-2,1E0,-7.2995685E-2,2E0,-5.8323774E-2,-3.3014826E-2,-8.88151E-3,2E0,-7.045427E-2,2E0,1.0145657E-2,2.28352E-2,2.248747E-2,1.7900987E-2,3.253971E-2,-2.4857821E-2,3E0,-5.0306793E-2,3E0,-1.8976223E-2,-6.5966055E-2,6E0,-3.28523E-2,-5.2932963E-2,-5.1780906E-2,-7.331949E-2,1E0,-3.3787318E-2,3.3848297E-2,-3.2907173E-2,-4.8450544E-2,-7.097039E-2,1E0,-5.8299094E-2,-3.648138E-2,-4.614886E-2,-1.0185471E-2,-5.61699E-3,-2.6779259E-2,-1.9932736E-2,-6.673327E-3,-1.7585881E-2,-7.8825966E-2,-6.24926E-2,-2.6483614E-2,-1.0289578E-2,6E0,1.2049298E-2,-3.458877E-2,-2.577646E-2,-5.099287E-2,-2.8841212E-2,-3.9388105E-2,-1.3933104E-2],"split_indices":[4,4,5,2,5,2,0,4,5,5,2,5,5,2,0,0,0,0,0,0,2,4,4,5,2,0,5,2,0,2,2,0,4,2,4,2,0,0,0,0,2,0,0,5,0,0,0,0,0,2,0,0,2,4,4,0,4,5,0,0,0,0,0,0,0,0,0,0,5,0,0,0,0,0,0,0,0,0,0,0,0,0,0,0,0,4,0,4,0,0,4,0,0,0,0,0,0,0,0,0,0,2,0,0,0,0,0,0,0,0,0,0,0,0,0,5,0,0,0,0,0,0,0],"split_type":[0,0,0,0,0,0,0,0,0,0,0,0,0,0,0,0,0,0,0,0,0,0,0,0,0,0,0,0,0,0,0,0,0,0,0,0,0,0,0,0,0,0,0,0,0,0,0,0,0,0,0,0,0,0,0,0,0,0,0,0,0,0,0,0,0,0,0,0,0,0,0,0,0,0,0,0,0,0,0,0,0,0,0,0,0,0,0,0,0,0,0,0,0,0,0,0,0,0,0,0,0,0,0,0,0,0,0,0,0,0,0,0,0,0,0,0,0,0,0,0,0,0,0],"sum_hessian":[1.1981677E4,3.248585E3,8.733092E3,1.049957E3,2.1986282E3,8.91974E2,7.8411177E3,5.8877014E2,4.6118683E2,4.839368E2,1.7146913E3,4.7639612E2,4.155779E2,6.122142E2,7.2289033E3,1.3882678E2,4.4994336E2,1.01133446E2,3.6005338E2,1.18460846E2,3.6547595E2,8.845809E2,8.301104E2,4.2507864E2,