{"learner":{"attributes":{},"feature_names":["state","local_pickup","shipping_mode","listing_type","available_quantity","total_amount","date_difference_hr","time_difference_hr"],"feature_types":["int","int","int","int","int","int","int","int"],"gradient_booster":{"model":{"gbtree_model_param":{"num_parallel_tree":"1","num_trees":"93"},"iteration_indptr":[0,1,2,3,4,5,6,7,8,9,10,11,12,13,14,15,16,17,18,19,20,21,22,23,24,25,26,27,28,29,30,31,32,33,34,35,36,37,38,39,40,41,42,43,44,45,46,47,48,49,50,51,52,53,54,55,56,57,58,59,60,61,62,63,64,65,66,67,68,69,70,71,72,73,74,75,76,77,78,79,80,81,82,83,84,85,86,87,88,89,90,91,92,93],"tree_info":[0,0,0,0,0,0,0,0,0,0,0,0,0,0,0,0,0,0,0,0,0,0,0,0,0,0,0,0,0,0,0,0,0,0,0,0,0,0,0,0,0,0,0,0,0,0,0,0,0,0,0,0,0,0,0,0,0,0,0,0,0,0,0,0,0,0,0,0,0,0,0,0,0,0,0,0,0,0,0,0,0,0,0,0,0,0,0,0,0,0,0,0,0],"trees":[{"base_weights":[-1.7354883E-3,-1.4144187E0,2.8622055E-1,-1.5593948E0,-1.1886096E0,-5.5959083E-2,4.0786052E-1,-1.6998819E0,-1.3331398E0,-1.2762784E0,-7.6581615E-1,-2.932534E-1,1.8783882E-1,2.969475E-1,5.4310256E-1,-1.4910702E0,-1.7142674E0,-1.576027E0,-1.1433876E0,-1.4227035E0,-1.077283E0,-1.1108831E0,-5.984151E-1,-6.047995E-1,-2.6979464E-1,1.6131559E-1,1.1924498E0,-6.772067E-2,3.1863794E-1,1.4162554E-1,5.750883E-1,-1.6499446E-1,-1.4093891E0,-1.7554044E0,-1.6466452E0,-1.778808E-1,-1.5465653E-1,-1.4012213E0,-1.0333884E0,-1.602819E0,-1.2959628E0,-1.285054E0,-9.751178E-1,-1.638959E-1,-1.0665002E0,-4.492715E-1,-7.6318145E-1,-4.537832E-1,-1.2090974E0,-3.2357538E-1,-1.6449836E-1,5.8545746E-2,3.2361394E-1,9.611094E-2,1.6661954E-1,6.851311E-2,-8.084396E-1,-2.2764145E-1,3.3065218E-1,4.6891663E-2,1.6383926E0,6.24618E-1,5.057545E-1,-1.4690214E-1,-1.1453162E-1,-1.780769E-1,-1.7173216E-1,-1.6915508E-1,-1.5466942E-1,-1.7070976E-1,-1.3723782E-1,-1.1655872E-1,-1.0098709E-1,-1.6230668E-1,-1.3760532E-1,-1.5580863E-1,-1.2658899E-1,-1.0080544E-1,-1.2913439E-1,-1.0187404E-1,-8.870966E-2,-1.1243831E-1,-8.053974E-2,-1.2882905E-1,-4.027487E-2,-6.1184287E-2,-1.01433076E-1,-5.6549754E-2,1.719723E-2,-1.4660434E-1,-7.497936E-2,-2.9915135E-2,-4.713831E-2,-2.9505966E-2,2.411968E-2,-9.72243E-4,3.344774E-2,1.935519E-2,6.2796175E-2,1.73609E-2,-2.4355475E-2,-8.829977E-2,-5.5706102E-2,-4.2198107E-2,1.3693691E-2,3.0290326E-2,4.7163773E-2,2.2357428E-2,-2.9723786E-2,1.473318E-1,1.7495672E-1,2.9344294E-2,6.3097484E-2,4.504204E-2,6.307137E-2],"categories":[],"categories_nodes":[],"categories_segments":[],"categories_sizes":[],"default_left":[0,0,0,0,0,0,0,0,0,0,0,0,0,0,0,0,0,0,0,0,0,0,0,0,0,0,0,0,0,0,0,0,0,0,0,0,0,0,0,0,0,0,0,0,0,0,0,0,0,0,0,0,0,0,0,0,0,0,0,0,0,0,0,0,0,0,0,0,0,0,0,0,0,0,0,0,0,0,0,0,0,0,0,0,0,0,0,0,0,0,0,0,0,0,0,0,0,0,0,0,0,0,0,0,0,0,0,0,0,0,0,0,0,0,0],"id":0,"left_children":[1,3,5,7,9,11,13,15,17,19,21,23,25,27,29,31,33,35,37,39,41,43,45,47,49,51,53,55,57,59,61,-1,63,65,67,-1,-1,69,71,73,75,77,79,-1,81,83,85,87,89,91,93,95,97,-1,-1,99,101,103,105,107,109,111,113,-1,-1,-1,-1,-1,-1,-1,-1,-1,-1,-1,-1,-1,-1,-1,-1,-1,-1,-1,-1,-1,-1,-1,-1,-1,-1,-1,-1,-1,-1,-1,-1,-1,-1,-1,-1,-1,-1,-1,-1,-1,-1,-1,-1,-1,-1,-1,-1,-1,-1,-1,-1],"loss_changes":[7.7730254E3,1.05635254E2,6.606897E2,6.230713E1,4.669287E1,2.4081651E2,1.7556677E2,3.3164062E0,3.451526E1,3.027417E1,1.2391945E1,1.5330215E1,5.4565292E1,5.091742E1,6.767944E1,7.6194763E-1,2.8061523E0,1.1300659E0,1.1778137E1,1.34729E1,9.203552E0,1.4089279E0,3.482315E0,1.3285625E1,1.1062912E1,3.332402E1,5.482338E0,3.649874E1,3.9869446E1,5.506932E1,1.6666382E1,0E0,6.611786E-1,3.4277344E-1,1.7947998E0,0E0,0E0,5.3053284E-1,5.187073E-1,1.2744751E0,1.9296265E0,2.9171753E-1,1.0249023E0,0E0,8.8072205E-1,2.7282352E0,2.4693565E0,8.535204E0,3.311039E0,4.3721924E0,3.572499E1,2.3279896E1,3.0693352E1,0E0,0E0,1.0122134E1,9.6113205E-1,9.404734E0,2.2186707E1,2.2532064E1,1.0096359E-1,9.104858E0,1.3720886E1,0E0,0E0,0E0,0E0,0E0,0E0,0E0,0E0,0E0,0E0,0E0,0E0,0E0,0E0,0E0,0E0,0E0,0E0,0E0,0E0,0E0,0E0,0E0,0E0,0E0,0E0,0E0,0E0,0E0,0E0,0E0,0E0,0E0,0E0,0E0,0E0,0E0,0E0,0E0,0E0,0E0,0E0,0E0,0E0,0E0,0E0,0E0,0E0,0E0,0E0,0E0,0E0],"parents":[2147483647,0,0,1,1,2,2,3,3,4,4,5,5,6,6,7,7,8,8,9,9,10,10,11,11,12,12,13,13,14,14,15,15,16,16,17,17,18,18,19,19,20,20,21,21,22,22,23,23,24,24,25,25,26,26,27,27,28,28,29,29,30,30,32,32,33,33,34,34,37,37,38,38,39,39,40,40,41,41,42,42,44,44,45,45,46,46,47,47,48,48,49,49,50,50,51,51,52,52,55,55,56,56,57,57,58,58,59,59,60,60,61,61,62,62],"right_children":[2,4,6,8,10,12,14,16,18,20,22,24,26,28,30,32,34,36,38,40,42,44,46,48,50,52,54,56,58,60,62,-1,64,66,68,-1,-1,70,72,74,76,78,80,-1,82,84,86,88,90,92,94,96,98,-1,-1,100,102,104,106,108,110,112,114,-1,-1,-1,-1,-1,-1,-1,-1,-1,-1,-1,-1,-1,-1,-1,-1,-1,-1,-1,-1,-1,-1,-1,-1,-1,-1,-1,-1,-1,-1,-1,-1,-1,-1,-1,-1,-1,-1,-1,-1,-1,-1,-1,-1,-1,-1,-1,-1,-1,-1,-1,-1],"split_conditions":[7E0,5E0,5E0,2E0,6E0,2E0,2E0,1E0,3E0,2E0,6E0,1E0,6E0,1E0,1E0,4E0,7E0,3E0,4E0,7E0,3E0,1E0,2E0,1E0,2E0,2E0,2E0,1E0,7E0,3E0,2E0,-1.6499446E-1,1E0,4E0,2E0,-1.778808E-1,-1.5465653E-1,1E0,7E0,1E0,1E0,1E0,2E0,-1.638959E-1,1E0,1E0,1E0,3E0,2E0,1E0,1E0,2E0,1E0,9.611094E-2,1.6661954E-1,2E0,2E0,2E0,1E0,1E0,6E0,7E0,1E0,-1.4690214E-1,-1.1453162E-1,-1.780769E-1,-1.7173216E-1,-1.6915508E-1,-1.5466942E-1,-1.7070976E-1,-1.3723782E-1,-1.1655872E-1,-1.0098709E-1,-1.6230668E-1,-1.3760532E-1,-1.5580863E-1,-1.2658899E-1,-1.0080544E-1,-1.2913439E-1,-1.0187404E-1,-8.870966E-2,-1.1243831E-1,-8.053974E-2,-1.2882905E-1,-4.027487E-2,-6.1184287E-2,-1.01433076E-1,-5.6549754E-2,1.719723E-2,-1.4660434E-1,-7.497936E-2,-2.9915135E-2,-4.713831E-2,-2.9505966E-2,2.411968E-2,-9.72243E-4,3.344774E-2,1.935519E-2,6.2796175E-2,1.73609E-2,-2.4355475E-2,-8.829977E-2,-5.5706102E-2,-4.2198107E-2,1.3693691E-2,3.0290326E-2,4.7163773E-2,2.2357428E-2,-2.9723786E-2,1.473318E-1,1.7495672E-1,2.9344294E-2,6.3097484E-2,4.504204E-2,6.307137E-2],"split_indices":[5,5,6,2,5,2,2,0,6,2,6,2,7,2,0,5,6,5,5,6,6,0,2,1,0,0,6,1,6,7,0,0,1,5,0,0,0,0,6,1,2,0,0,0,1,0,1,6,0,1,1,6,1,0,0,0,0,0,1,1,7,6,1,0,0,0,0,0,0,0,0,0,0,0,0,0,0,0,0,0,0,0,0,0,0,0,0,0,0,0,0,0,0,0,0,0,0,0,0,0,0,0,0,0,0,0,0,0,0,0,0,0,0,0,0],"split_type":[0,0,0,0,0,0,0,0,0,0,0,0,0,0,0,0,0,0,0,0,0,0,0,0,0,0,0,0,0,0,0,0,0,0,0,0,0,0,0,0,0,0,0,0,0,0,0,0,0,0,0,0,0,0,0,0,0,0,0,0,0,0,0,0,0,0,0,0,0,0,0,0,0,0,0,0,0,0,0,0,0,0,0,0,0,0,0,0,0,0,0,0,0,0,0,0,0,0,0,0,0,0,0,0,0,0,0,0,0,0,0,0,0,0,0],"sum_hessian":[1.9107887E4,3.2354436E3,1.5872442E4,1.970103E3,1.2653406E3,4.162448E3,1.1709994E4,1.2151248E3,7.549783E2,1.0478213E3,2.1751926E2,2.109564E3,2.0528845E3,6.434095E3,5.2758984E3,7.8804115E1,1.1363206E3,3.3087787E2,4.241004E2,6.0333624E2,4.4448505E2,7.084913E1,1.4667012E2,1.4741591E2,1.962148E3,2.0001827E3,5.270181E1,3.6095767E2,6.0731377E3,3.895459E2,4.8863525E3,2.5356531E1,5.344759E1,7.055082E2,4.308124E2,2.9334024E1,3.0154382E2,1.2653406E2,2.9756635E2,2.4884203E2,3.5449423E2,1.4617294E2,2.9831213E2,5.2204623E0,6.562867E1,7.731256E1,6.935757E1,1.1808188E2,2.9334024E1,1.2981549E3,6.6399304E2,1.2250685E3,7.751143E2,3.6046047E1,1.665576E1,3.0477554E2,5.6182117E1,1.3051155E2,5.942626E3,3.6642673E2,2.311919E1,2.849378E3,2.0369746E3,4.201229E1,1.1435298E1,3.1596225E2,3.895459E2,2.6997247E2,1.6083995E2,7.7063966E0,1.1882766E2,3.3560112E1,2.6400623E2,2.1925941E2,2.9582619E1,2.7593872E1,3.2690036E2,7.2092094E0,1.3896373E2,1.8669366E2,1.11618454E2,5.220462E1,1.3424046E1,3.7289016E0,7.358366E1,4.424963E1,2.5107937E1,9.993456E1,1.814732E1,1.8395914E1,1.0938111E1,1.1278684E3,1.702865E2,5.0141296E2,1.6258011E2,9.829384E2,2.4213E2,5.464084E2,2.2870596E2,2.2796017E2,7.681537E1,4.2260883E1,1.3921232E1,8.501895E1,4.54926E1,5.0290454E3,9.135809E2,2.4213E2,1.24296715E2,1.0440925E1,1.2678266E1,8.253302E1,2.766845E3,1.4433335E3,5.936411E2],"tree_param":{"num_deleted":"0","num_feature":"8","num_nodes":"115","size_leaf_vector":"1"}},{"base_weights":[-1.641099E-3,-1.1279172E0,4.7845262E-1,-1.1979449E0,8.1470406E-1,-9.9078196E-1,6.6772914E-1,-1.5816375E0,-1.0322614E0,1.7207582E0,7.040676E-1,-1.063786E0,-2.6924774E-1,4.350152E-1,7.3675925E-1,-1.6630186E-1,-1.5401639E0,-1.5021323E0,-8.0764323E-1,2.0332927E-1,1.5648009E-1,2.1735966E-1,8.675233E-1,-1.2880863E0,-9.5191514E-1,-1.2003573E-1,-2.0186153E-1,1.0536702E-1,4.6491858E-1,3.038444E-1,7.71119E-1,-1.5977366E-1,-1.5066147E0,-1.6752675E0,-1.0001558E0,-9.153239E-1,-4.4843477E-1,1.3144994E-1,1.0633708E-1,6.0989517E-1,1.0518503E0,-1.3561268E0,-1.1732348E0,-1.0564758E0,-8.4240884E-1,-5.0816035E-1,-1.00068495E-1,1.4471738E-2,4.4266683E-1,4.2426285E-1,6.493869E-1,3.9970243E-1,1.2446543E-3,8.255095E-1,6.783189E-1,-1.4772932E-1,-1.6270973E-1,-1.8204443E-1,-1.6273646E-1,-1.3311046E-1,-4.7112893E-2,-7.7207856E-2,-1.7645073E-1,-8.2106546E-2,1.7976861E-2,7.49455E-2,-5.471126E-3,1.3252018E-1,4.788728E-2,7.353464E-2,1.2216258E-1,-1.1604393E-1,-1.3644657E-1,-1.211727E-1,-1.0656466E-1,-1.1525726E-1,-9.078999E-2,-8.896016E-2,-7.3137775E-2,-6.65661E-2,7.3346924E-3,-5.658585E-3,-2.4943437E-2,1.0210673E-2,-2.7988635E-2,5.4365516E-2,1.1226768E-2,3.6980234E-2,4.579587E-2,5.6692403E-2,7.0464246E-2,3.866419E-2,1.4161748E-1,7.962485E-2,9.5116295E-2,6.8690196E-2,6.3536584E-2],"categories":[],"categories_nodes":[],"categories_segments":[],"categories_sizes":[],"default_left":[0,0,0,0,0,0,0,0,0,0,0,0,0,0,0,0,0,0,0,0,0,0,0,0,0,0,0,0,0,0,0,0,0,0,0,0,0,0,0,0,0,0,0,0,0,0,0,0,0,0,0,0,0,0,0,0,0,0,0,0,0,0,0,0,0,0,0,0,0,0,0,0,0,0,0,0,0,0,0,0,0,0,0,0,0,0,0,0,0,0,0,0,0,0,0,0,0],"id":1,"left_children":[1,3,5,7,9,11,13,15,17,19,21,23,25,27,29,-1,31,33,35,-1,-1,37,39,41,43,-1,45,47,49,51,53,-1,55,57,59,61,63,-1,65,67,69,71,73,75,77,79,81,83,85,87,89,91,-1,93,95,-1,-1,-1,-1,-1,-1,-1,-1,-1,-1,-1,-1,-1,-1,-1,-1,-1,-1,-1,-1,-1,-1,-1,-1,-1,-1,-1,-1,-1,-1,-1,-1,-1,-1,-1,-1,-1,-1,-1,-1,-1,-1],"loss_changes":[1.0321369E4,7.761255E2,3.7217375E3,3.4978564E2,1.9645554E1,8.031641E1,1.9033887E2,5.894043E0,4.0567627E2,6.4676285E-1,1.3969864E1,3.457007E1,8.734369E0,2.668335E1,1.3589746E2,0E0,2.2097168E0,1.07819336E2,1.0051697E2,0E0,0E0,5.332196E0,6.115074E0,3.343628E0,1.0405273E1,0E0,4.028777E0,6.8802958E0,1.8541931E1,1.8741112E1,4.2603027E1,0E0,1.7597656E0,5.23584E0,5.6637573E1,2.3877344E2,1.4251826E2,0E0,4.3152E0,4.9590206E0,4.0393677E0,6.019287E-1,5.552826E-1,6.7437744E0,2.3559875E0,3.1036673E0,6.117063E-1,4.6319017E0,1.5703077E0,3.7850647E0,1.9753418E0,5.4916077E0,0E0,1.7233398E1,1.3896484E0,0E0,0E0,0E0,0E0,0E0,0E0,0E0,0E0,0E0,0E0,0E0,0E0,0E0,0E0,0E0,0E0,0E0,0E0,0E0,0E0,0E0,0E0,0E0,0E0,0E0,0E0,0E0,0E0,0E0,0E0,0E0,0E0,0E0,0E0,0E0,0E0,0E0,0E0,0E0,0E0,0E0,0E0],"parents":[2147483647,0,0,1,1,2,2,3,3,4,4,5,5,6,6,7,7,8,8,9,9,10,10,11,11,12,12,13,13,14,14,16,16,17,17,18,18,21,21,22,22,23,23,24,24,26,26,27,27,28,28,29,29,30,30,32,32,33,33,34,34,35,35,36,36,38,38,39,39,40,40,41,41,42,42,43,43,44,44,45,45,46,46,47,47,48,48,49,49,50,50,51,51,53,53,54,54],"right_children":[2,4,6,8,10,12,14,16,18,20,22,24,26,28,30,-1,32,34,36,-1,-1,38,40,42,44,-1,46,48,50,52,54,-1,56,58,60,62,64,-1,66,68,70,72,74,76,78,80,82,84,86,88,90,92,-1,94,96,-1,-1,-1,-1,-1,-1,-1,-1,-1,-1,-1,-1,-1,-1,-1,-1,-1,-1,-1,-1,-1,-1,-1,-1,-1,-1,-1,-1,-1,-1,-1,-1,-1,-1,-1,-1,-1,-1,-1,-1,-1,-1],"split_conditions":[7E0,3E0,7E0,7E0,1E0,6E0,4E0,4E0,5E0,6E0,4E0,3E0,1E0,1E0,1E0,-1.6630186E-1,5E0,1E0,1E0,2.0332927E-1,1.5648009E-1,2E0,6E0,5E0,5E0,-1.2003573E-1,4E0,2E0,1E0,1E0,2E0,-1.5977366E-1,6E0,4E0,2E0,6E0,6E0,1.3144994E-1,4E0,4E0,2E0,1E0,2E0,2E0,2E0,1E0,1E0,1E0,1E0,1E0,1E0,3E0,1.2446543E-3,1E0,1E0,-1.4772932E-1,-1.6270973E-1,-1.8204443E-1,-1.6273646E-1,-1.3311046E-1,-4.7112893E-2,-7.7207856E-2,-1.7645073E-1,-8.2106546E-2,1.7976861E-2,7.49455E-2,-5.471126E-3,1.3252018E-1,4.788728E-2,7.353464E-2,1.2216258E-1,-1.1604393E-1,-1.3644657E-1,-1.211727E-1,-1.0656466E-1,-1.1525726E-1,-9.078999E-2,-8.896016E-2,-7.3137775E-2,-6.65661E-2,7.3346924E-3,-5.658585E-3,-2.4943437E-2,1.0210673E-2,-2.7988635E-2,5.4365516E-2,1.1226768E-2,3.6980234E-2,4.579587E-2,5.6692403E-2,7.0464246E-2,3.866419E-2,1.4161748E-1,7.962485E-2,9.5116295E-2,6.8690196E-2,6.3536584E-2],"split_indices":[4,7,5,5,0,5,6,5,4,6,7,6,0,0,0,0,4,1,1,0,0,6,4,5,5,0,6,6,1,1,0,0,4,4,0,4,4,0,4,4,0,0,0,0,0,1,1,1,1,6,6,7,0,1,1,0,0,0,0,0,0,0,0,0,0,0,0,0,0,0,0,0,0,0,0,0,0,0,0,0,0,0,0,0,0,0,0,0,0,0,0,0,0,0,0,0,0],"split_type":[0,0,0,0,0,0,0,0,0,0,0,0,0,0,0,0,0,0,0,0,0,0,0,0,0,0,0,0,0,0,0,0,0,0,0,0,0,0,0,0,0,0,0,0,0,0,0,0,0,0,0,0,0,0,0,0,0,0,0,0,0,0,0,0,0,0,0,0,0,0,0,0,0,0,0,0,0,0,0,0,0,0,0,0,0,0,0,0,0,0,0,0,0,0,0,0,0],"sum_hessian":[1.9088133E4,5.7049053E3,1.3383229E4,5.506462E3,1.984438E2,1.5272894E3,1.1855938E4,1.6604683E3,3.8459934E3,2.148707E1,1.7695673E2,1.3868312E3,1.4045824E2,2.712627E3,9.143312E3,5.212146E2,1.1392537E3,1.2437523E3,2.602241E3,6.4889383E0,1.4998132E1,4.464405E1,1.3231267E2,4.6119223E2,9.256389E2,9.31173E0,1.3114651E2,2.2588257E2,2.4867444E3,6.725451E2,8.470767E3,3.817796E2,7.574741E2,9.2462915E2,3.191232E2,2.0018552E3,6.0038586E2,3.9904592E0,4.065359E1,5.5419342E1,7.6893326E1,2.8903168E2,1.7216055E2,4.730214E2,4.5261752E2,3.2463978E1,9.868253E1,1.7816951E2,4.7713074E1,2.0381136E3,4.4863074E2,5.057827E2,1.6676239E2,5.3399087E3,3.130858E3,6.5122003E2,1.06254105E2,1.8535701E2,7.3927216E2,1.9418175E2,1.2494144E2,1.7230258E3,2.788294E2,3.7548935E2,2.248965E2,8.229906E0,3.2423687E1,8.237745E0,4.71816E1,2.7961634E1,4.8931694E1,2.274311E1,2.6628857E2,1.18580826E2,5.357973E1,2.7574237E2,1.97279E2,3.0390503E2,1.4871251E2,2.5556406E1,6.90757E0,7.7226326E1,2.1456213E1,1.3751881E2,4.065069E1,3.6046898E1,1.1666174E1,8.3332135E2,1.2047924E3,1.922071E2,2.5642365E2,5.005349E2,5.2477875E0,4.4861475E3,8.537612E2,2.3841416E3,7.467164E2],"tree_param":{"num_deleted":"0","num_feature":"8","num_nodes":"97","size_leaf_vector":"1"}},{"base_weights":[-1.3587205E-4,-4.922131E-1,1.7854233E0,-1.2969735E0,-6.515687E-2,1.9282804E0,1.6784964E0,-1.4704534E0,-7.526489E-1,-1.1900799E0,8.131687E-2,1.6133909E0,1.9577775E0,1.4040376E0,1.7036765E0,-1.6228089E0,-1.3860148E0,7.8947216E-2,-1.4806426E0,-1.4329877E0,-7.982246E-1,-4.5097452E-1,1.23071074E-1,1.6393768E0,1.5016434E0,2.027316E0,1.8264953E0,1.3695207E0,1.4868528E-1,1.7714864E0,1.6283222E0,-1.6574456E-1,-1.6097223E0,-1.3317945E0,-1.6567759E-1,-1.6299262E0,6.2462264E-1,-1.657039E0,-1.3774242E0,-1.0875252E0,-1.4576494E0,-4.4812897E-1,-8.2599443E-1,-2.9408568E-1,-6.7801976E-1,7.449597E-2,3.1320477E-1,1.2349895E-1,1.6412592E-1,2.2279553E-1,1.3489528E-1,2.169574E0,1.9965886E-1,2.3245326E-1,1.8213193E0,1.562152E-1,1.350897E-1,2.1778543E-1,1.7666078E0,1.6155589E0,1.8827842E-1,-1.653209E-1,-1.5877365E-1,-1.6551419E-1,-1.2732662E-1,-1.7178528E-1,-1.3276617E-1,1.6750673E-2,1.0699537E-1,-1.7003146E-1,-1.5953499E-1,-1.2611677E-1,-1.741141E-1,-1.1413102E-1,-8.482443E-2,-1.6096663E-1,-1.4006186E-1,6.414667E-3,-6.574508E-2,-8.293822E-2,-2.1471454E-2,-6.510488E-2,-2.6321143E-2,-5.4760557E-2,-9.33708E-2,1.1639641E-2,-8.837131E-4,-8.045649E-2,3.4196556E-2,2.1830441E-1,1.9279593E-1,1.7999029E-1,1.8741219E-1,1.7463091E-1,1.8082793E-1,2.0753586E-1,1.6025303E-1],"categories":[],"categories_nodes":[],"categories_segments":[],"categories_sizes":[],"default_left":[0,0,0,0,0,0,0,0,0,0,0,0,0,0,0,0,0,0,0,0,0,0,0,0,0,0,0,0,0,0,0,0,0,0,0,0,0,0,0,0,0,0,0,0,0,0,0,0,0,0,0,0,0,0,0,0,0,0,0,0,0,0,0,0,0,0,0,0,0,0,0,0,0,0,0,0,0,0,0,0,0,0,0,0,0,0,0,0,0,0,0,0,0,0,0,0,0],"id":2,"left_children":[1,3,5,7,9,11,13,15,17,19,21,23,25,27,29,31,33,35,37,39,41,43,45,47,49,51,53,55,-1,57,59,-1,61,63,-1,65,67,69,71,73,75,77,79,81,83,85,87,-1,-1,-1,-1,89,-1,-1,91,-1,-1,-1,93,95,-1,-1,-1,-1,-1,-1,-1,-1,-1,-1,-1,-1,-1,-1,-1,-1,-1,-1,-1,-1,-1,-1,-1,-1,-1,-1,-1,-1,-1,-1,-1,-1,-1,-1,-1,-1,-1],"loss_changes":[1.6689713E4,5.1177134E3,6.230957E1,4.8727344E2,1.6031443E3,1.5938965E1,1.5900391E1,5.0049805E1,7.555858E2,1.06464966E2,1.9128247E2,1.1114502E-1,1.425293E1,3.2363892E-1,1.0630371E1,4.5581055E-1,3.790625E1,5.4301074E2,1.1800903E1,5.631714E0,4.0434875E0,2.2199173E1,7.368126E1,2.2375488E-1,2.762642E0,2.5205078E0,1.0319824E0,2.2979736E-2,0E0,1.8903809E0,3.076416E0,0E0,4.1381836E-1,3.588623E1,0E0,3.7270203E0,9.074692E1,3.3740234E-1,1.6840454E1,4.489975E-1,4.812134E0,3.5312028E0,1.811554E0,3.8395424E0,8.340485E0,2.2560421E1,5.575894E1,0E0,0E0,0E0,0E0,3.1243896E-1,0E0,0E0,1.574707E-2,0E0,0E0,0E0,2.4731445E-1,1.581543E0,0E0,0E0,0E0,0E0,0E0,0E0,0E0,0E0,0E0,0E0,0E0,0E0,0E0,0E0,0E0,0E0,0E0,0E0,0E0,0E0,0E0,0E0,0E0,0E0,0E0,0E0,0E0,0E0,0E0,0E0,0E0,0E0,0E0,0E0,0E0,0E0,0E0],"parents":[2147483647,0,0,1,1,2,2,3,3,4,4,5,5,6,6,7,7,8,8,9,9,10,10,11,11,12,12,13,13,14,14,15,15,16,16,17,17,18,18,19,19,20,20,21,21,22,22,23,23,24,24,25,25,26,26,27,27,29,29,30,30,32,32,33,33,35,35,36,36,37,37,38,38,39,39,40,40,41,41,42,42,43,43,44,44,45,45,46,46,51,51,54,54,58,58,59,59],"right_children":[2,4,6,8,10,12,14,16,18,20,22,24,26,28,30,32,34,36,38,40,42,44,46,48,50,52,54,56,-1,58,60,-1,62,64,-1,66,68,70,72,74,76,78,80,82,84,86,88,-1,-1,-1,-1,90,-1,-1,92,-1,-1,-1,94,96,-1,-1,-1,-1,-1,-1,-1,-1,-1,-1,-1,-1,-1,-1,-1,-1,-1,-1,-1,-1,-1,-1,-1,-1,-1,-1,-1,-1,-1,-1,-1,-1,-1,-1,-1,-1,-1],"split_conditions":[3E0,7E0,2E0,1E0,2E0,1E0,1E0,5E0,2E0,2E0,1E0,1E0,2E0,1E0,2E0,4E0,6E0,2E0,5E0,1E0,1E0,2E0,1E0,1E0,6E0,7E0,5E0,7E0,1.4868528E-1,5E0,3E0,-1.6574456E-1,1E0,1E0,-1.6567759E-1,1E0,6E0,4E0,6E0,1E0,1E0,1E0,5E0,1E0,1E0,2E0,1E0,1.2349895E-1,1.6412592E-1,2.2279553E-1,1.3489528E-1,1E0,1.9965886E-1,2.3245326E-1,1E0,1.562152E-1,1.350897E-1,2.1778543E-1,1E0,5E0,1.8827842E-1,-1.653209E-1,-1.5877365E-1,-1.6551419E-1,-1.2732662E-1,-1.7178528E-1,-1.3276617E-1,1.6750673E-2,1.0699537E-1,-1.7003146E-1,-1.5953499E-1,-1.2611677E-1,-1.741141E-1,-1.1413102E-1,-8.482443E-2,-1.6096663E-1,-1.4006186E-1,6.414667E-3,-6.574508E-2,-8.293822E-2,-2.1471454E-2,-6.510488E-2,-2.6321143E-2,-5.4760557E-2,-9.33708E-2,1.1639641E-2,-8.837131E-4,-8.045649E-2,3.4196556E-2,2.1830441E-1,1.9279593E-1,1.7999029E-1,1.8741219E-1,1.7463091E-1,1.8082793E-1,2.0753586E-1,1.6025303E-1],"split_indices":[3,4,2,1,3,0,0,4,3,2,0,1,0,1,0,4,4,2,4,0,0,2,1,2,4,4,4,4,0,4,7,0,3,3,0,3,4,4,4,1,3,3,7,2,1,0,2,0,0,0,0,1,0,0,1,0,0,0,1,4,0,0,0,0,0,0,0,0,0,0,0,0,0,0,0,0,0,0,0,0,0,0,0,0,0,0,0,0,0,0,0,0,0,0,0,0,0],"split_type":[0,0,0,0,0,0,0,0,0,0,0,0,0,0,0,0,0,0,0,0,0,0,0,0,0,0,0,0,0,0,0,0,0,0,0,0,0,0,0,0,0,0,0,0,0,0,0,0,0,0,0,0,0,0,0,0,0,0,0,0,0,0,0,0,0,0,0,0,0,0,0,0,0,0,0,0,0,0,0,0,0,0,0,0,0,0,0,0,0,0,0,0,0,0,0,0,0],"sum_hessian":[1.899522E4,1.4891401E4,4.10382E3,5.162588E3,9.728813E3,1.7563092E3,2.3475105E3,3.9147407E3,1.2478472E3,1.1208993E3,8.607915E3,1.5074866E2,1.6055605E3,1.9763387E2,2.1498765E3,1.3955007E3,2.51924E3,5.8241614E2,6.65431E2,6.917929E2,4.2910635E2,6.2593475E2,7.98198E3,1.2151679E2,2.923186E1,1.0490458E3,5.565147E2,1.4411305E2,5.3520817E1,1.1308169E3,1.0190597E3,3.198514E2,1.0756494E3,2.1106133E3,4.086267E2,1.4091698E2,4.4149918E2,2.452502E2,4.2018085E2,4.638129E1,6.454116E2,3.1805422E1,3.9730093E2,3.7042242E2,2.5551236E2,6.3581396E3,1.6238403E3,3.4822555E0,1.1803454E2,4.6798267E0,2.4552032E1,1.2775542E2,9.212904E2,5.362361E0,5.5115234E2,7.1285696E0,1.3698448E2,1.2771085E1,1.1180458E3,9.72587E2,4.647274E1,2.162336E2,8.594158E2,2.8331195E2,1.8273013E3,1.056967E2,3.5220287E1,2.1963617E2,2.21863E2,1.22117325E2,1.2313287E2,3.2516812E2,9.501272E1,3.65807E1,9.80059E0,1.5117044E2,4.9424118E2,9.198286E0,2.2607136E1,3.9205585E2,5.245093E0,2.7701881E1,3.4272055E2,1.7190741E2,8.3604935E1,4.211132E3,2.1470078E3,4.3047714E1,1.5807926E3,1.146855E2,1.3069912E1,4.668928E2,8.4259544E1,9.2631226E2,1.9173352E2,8.554927E0,9.6403204E2],"tree_param":{"num_deleted":"0","num_feature":"8","num_nodes":"97","size_leaf_vector":"1"}},{"base_weights":[-3.3104075E-3,-4.5081583E-1,1.6075509E0,-1.363051E0,-2.4946938E-1,1.7346861E0,1.5124013E0,-1.4686723E0,-1.2741324E0,-6.4913076E-1,-1.878594E-1,1.4413636E0,1.7616847E0,1.2824047E0,1.5338128E0,-1.4906783E0,-1.4205898E0,-1.3704299E0,-1.1572253E0,-1.3282593E0,9.118701E-2,-4.651334E-1,-8.737161E-2,1.2753338E-1,1.4463653E-1,1.8271568E0,1.6370146E0,1.4550555E-1,1.232108E0,1.6008236E0,1.4594303E0,-1.4985763E-1,-1.4512508E0,-1.4790651E-1,-1.3819362E0,-1.4473289E0,-1.2853225E0,-1.2550533E0,-1.0435841E0,-1.5757971E0,-1.1219809E0,2.8220692E-1,-1.4681274E-1,-5.3589404E-1,-3.234938E-1,-4.4678438E-1,-6.1596595E-2,2.080404E-1,1.8082559E-1,1.2022808E0,1.6473074E0,1.2058763E-1,1.4228444E-1,1.9022565E0,1.5925843E0,1.4471442E0,1.7096388E-1,-1.4906028E-1,-1.407541E-1,-1.1696206E-1,-1.3841645E-1,-1.4872164E-1,-1.3921921E-1,-1.4296438E-1,-1.2456958E-1,-1.328612E-1,-1.1877479E-1,-1.2011551E-1,-9.614428E-2,-1.4892623E-1,-1.6485445E-1,-8.7961875E-2,-1.1319483E-1,2.2219298E-2,7.991949E-2,-1.4273918E-1,-1.2844722E-2,-1.06878266E-1,-5.164255E-2,-2.2090973E-2,-4.4044286E-2,-2.048332E-2,-7.865066E-2,-5.559018E-2,-5.327799E-3,7.069179E-2,1.4337438E-1,1.9574167E-1,1.632513E-1,1.6539596E-1,1.9559762E-1,1.6971803E-1,1.5728259E-1,1.5489334E-1,1.4160804E-1],"categories":[],"categories_nodes":[],"categories_segments":[],"categories_sizes":[],"default_left":[0,0,0,0,0,0,0,0,0,0,0,0,0,0,0,0,0,0,0,0,0,0,0,0,0,0,0,0,0,0,0,0,0,0,0,0,0,0,0,0,0,0,0,0,0,0,0,0,0,0,0,0,0,0,0,0,0,0,0,0,0,0,0,0,0,0,0,0,0,0,0,0,0,0,0,0,0,0,0,0,0,0,0,0,0,0,0,0,0,0,0,0,0,0,0],"id":3,"left_children":[1,3,5,7,9,11,13,15,17,19,21,23,25,27,29,31,33,35,37,39,41,43,45,-1,-1,47,49,-1,51,53,55,-1,57,-1,59,61,63,65,67,69,71,73,75,77,79,81,83,-1,-1,85,87,-1,-1,89,91,93,-1,-1,-1,-1,-1,-1,-1,-1,-1,-1,-1,-1,-1,-1,-1,-1,-1,-1,-1,-1,-1,-1,-1,-1,-1,-1,-1,-1,-1,-1,-1,-1,-1,-1,-1,-1,-1,-1,-1],"loss_changes":[1.3591728E4,2.7100889E3,4.9248047E1,2.477295E1,2.975558E2,1.3558105E1,1.1256836E1,9.880371E-1,1.6052734E1,8.117442E2,2.9176465E2,2.0935059E-2,1.2746582E1,1.5395813E0,1.0373047E1,2.2180176E-1,6.911011E-1,4.914551E0,7.0458374E0,4.271631E1,3.5124035E1,2.783435E1,7.1167725E1,0E0,0E0,2.1081543E0,2.182251E0,0E0,3.401184E-1,2.4355469E0,2.9145508E0,0E0,1.1480713E-1,0E0,2.265625E-1,6.505127E-1,1.6084595E0,1.467102E0,3.6079407E0,2.123413E0,1.5548706E0,1.3038677E1,7.6651635E0,1.6502136E1,1.1168816E1,4.2498962E1,2.8581608E1,0E0,0E0,1.3152275E0,6.4501953E-1,0E0,0E0,7.646179E-2,1.0561523E0,2.1917725E0,0E0,0E0,0E0,0E0,0E0,0E0,0E0,0E0,0E0,0E0,0E0,0E0,0E0,0E0,0E0,0E0,0E0,0E0,0E0,0E0,0E0,0E0,0E0,0E0,0E0,0E0,0E0,0E0,0E0,0E0,0E0,0E0,0E0,0E0,0E0,0E0,0E0,0E0,0E0],"parents":[2147483647,0,0,1,1,2,2,3,3,4,4,5,5,6,6,7,7,8,8,9,9,10,10,11,11,12,12,13,13,14,14,15,15,16,16,17,17,18,18,19,19,20,20,21,21,22,22,25,25,26,26,28,28,29,29,30,30,32,32,34,34,35,35,36,36,37,37,38,38,39,39,40,40,41,41,42,42,43,43,44,44,45,45,46,46,49,49,50,50,53,53,54,54,55,55],"right_children":[2,4,6,8,10,12,14,16,18,20,22,24,26,28,30,32,34,36,38,40,42,44,46,-1,-1,48,50,-1,52,54,56,-1,58,-1,60,62,64,66,68,70,72,74,76,78,80,82,84,-1,-1,86,88,-1,-1,90,92,94,-1,-1,-1,-1,-1,-1,-1,-1,-1,-1,-1,-1,-1,-1,-1,-1,-1,-1,-1,-1,-1,-1,-1,-1,-1,-1,-1,-1,-1,-1,-1,-1,-1,-1,-1,-1,-1,-1,-1],"split_conditions":[3E0,6E0,2E0,2E0,2E0,1E0,1E0,2E0,2E0,2E0,6E0,1E0,2E0,4E0,2E0,2E0,1E0,5E0,5E0,1E0,7E0,2E0,1E0,1.2753338E-1,1.4463653E-1,7E0,5E0,1.4550555E-1,3E0,5E0,3E0,-1.4985763E-1,1E0,-1.4790651E-1,1E0,6E0,1E0,4E0,3E0,6E0,1E0,6E0,7E0,1E0,2E0,2E0,7E0,2.080404E-1,1.8082559E-1,2E0,7E0,1.2058763E-1,1.4228444E-1,4E0,1E0,2E0,1.7096388E-1,-1.4906028E-1,-1.407541E-1,-1.1696206E-1,-1.3841645E-1,-1.4872164E-1,-1.3921921E-1,-1.4296438E-1,-1.2456958E-1,-1.328612E-1,-1.1877479E-1,-1.2011551E-1,-9.614428E-2,-1.4892623E-1,-1.6485445E-1,-8.7961875E-2,-1.1319483E-1,2.2219298E-2,7.991949E-2,-1.4273918E-1,-1.2844722E-2,-1.06878266E-1,-5.164255E-2,-2.2090973E-2,-4.4044286E-2,-2.048332E-2,-7.865066E-2,-5.559018E-2,-5.327799E-3,7.069179E-2,1.4337438E-1,1.9574167E-1,1.632513E-1,1.6539596E-1,1.9559762E-1,1.6971803E-1,1.5728259E-1,1.5489334E-1,1.4160804E-1],"split_indices":[3,5,2,3,3,0,0,2,2,2,6,6,0,6,0,0,3,5,5,3,6,0,0,0,0,5,5,0,7,5,7,0,3,0,0,6,6,6,6,6,0,7,5,2,2,2,5,0,0,6,5,0,0,5,6,6,0,0,0,0,0,0,0,0,0,0,0,0,0,0,0,0,0,0,0,0,0,0,0,0,0,0,0,0,0,0,0,0,0,0,0,0,0,0,0],"split_type":[0,0,0,0,0,0,0,0,0,0,0,0,0,0,0,0,0,0,0,0,0,0,0,0,0,0,0,0,0,0,0,0,0,0,0,0,0,0,0,0,0,0,0,0,0,0,0,0,0,0,0,0,0,0,0,0,0,0,0,0,0,0,0,0,0,0,0,0,0,0,0,0,0,0,0,0,0,0,0,0,0,0,0,0,0,0,0,0,0,0,0,0,0,0,0],"sum_hessian":[1.8854785E4,1.4755655E4,4.09913E3,2.6678708E3,1.2087784E4,1.7541483E3,2.3449814E3,1.2188549E3,1.449016E3,1.6142893E3,1.0473495E4,1.4818881E2,1.6059595E3,2.0013966E2,2.1448418E3,8.3461786E2,3.8423697E2,7.940407E2,6.5497534E2,8.4200586E2,7.722835E2,2.7857693E3,7.6877256E3,1.1725301E1,1.364635E2,1.052397E3,5.535625E2,4.3132526E1,1.5700713E2,1.127561E3,1.01728076E3,5.910684E2,2.4354945E2,1.401669E2,2.4407007E2,4.164706E2,3.7757007E2,3.514737E2,3.0350165E2,3.8248926E2,4.595166E2,4.2865598E2,3.4362753E2,1.857219E3,9.285501E2,5.1416394E2,7.1735615E3,3.4391575E1,1.0180054E3,1.3042985E1,5.4051953E2,1.4335175E2,1.3655388E1,2.964129E1,1.0979198E3,9.7170306E2,4.5577686E1,1.0380623E2,1.3974323E2,1.1548236E1,2.3252184E2,2.0614531E2,2.103253E2,6.6457E1,3.1111307E2,1.5020924E2,2.0126443E2,9.639894E1,2.0710272E2,1.9587743E2,1.8661183E2,2.9636417E1,4.298802E2,3.8538635E2,4.326961E1,4.5652113E0,3.3906232E2,5.5505753E1,1.8017133E3,5.0252686E2,4.260233E2,3.0260904E2,2.1155489E2,1.1375852E2,7.059803E3,4.414343E0,8.628642E0,9.42024E0,5.310993E2,6.646835E0,2.2994455E1,9.737397E1,1.0005458E3,1.6903268E2,8.026704E2],"tree_param":{"num_deleted":"0","num_feature":"8","num_nodes":"95","size_leaf_vector":"1"}},{"base_weights":[-2.2379996E-4,-4.090018E-1,1.4710598E0,-1.1554929E0,-2.7931789E-2,1.5892975E0,1.3829118E0,-1.3198162E0,-6.5136707E-1,-1.1615063E0,1.2928179E-1,1.2912389E0,1.6164321E0,1.1660031E0,1.4031249E0,-1.4767354E0,-1.2343473E0,1.1554831E-1,-1.3336906E0,-1.2958657E0,-9.849719E-1,-7.840912E-1,2.0272048E-1,1.3213958E0,1.1593791E0,1.6827298E0,1.4911375E0,1.3732102E0,1.1391714E0,1.4663075E0,1.3340999E0,-1.4135994E0,-1.5114577E0,-1.1785827E0,-1.5262578E0,-1.411896E0,5.7123315E-1,-1.5089808E0,-1.2315029E0,-1.4017752E0,-1.1753254E0,-1.256862E0,-8.6273134E-1,-1.0862328E0,-3.5799336E-1,-2.6442456E-1,2.38671E-1,9.7074755E-2,1.3238248E-1,1.8338192E-1,1.0253863E-1,1.8284932E-1,1.677185E0,1.0885889E-1,1.500879E0,1.2939428E-1,1.6244991E-1,1.1103778E-1,1.2088708E-1,1.7176716E-1,1.4588916E0,1.5750799E-1,1.3297523E0,-1.4440373E-1,-1.3854297E-1,-1.5777019E-1,-1.4837249E-1,-1.3543902E-1,-1.0937549E-1,-1.4144248E-1,-1.5682968E-1,-1.50359E-1,-1.1034566E-1,-1.398031E-1,8.139556E-2,-1.3655737E-1,-1.5340005E-1,-1.1210578E-1,-1.5791127E-1,-1.4281204E-1,-1.323934E-1,-1.3560426E-1,-1.0982308E-1,-1.2092034E-1,-1.3915026E-1,-9.527188E-2,-7.716084E-2,-5.9630223E-2,-1.12259984E-1,-1.2069939E-1,-3.405655E-2,-1.35261305E-2,-4.5079313E-2,1.9644175E-2,3.963707E-2,1.731185E-1,1.6592996E-1,1.7485411E-1,1.4879249E-1,1.8445013E-1,1.4467704E-1,1.0415644E-1,1.3246329E-1],"categories":[],"categories_nodes":[],"categories_segments":[],"categories_sizes":[],"default_left":[0,0,0,0,0,0,0,0,0,0,0,0,0,0,0,0,0,0,0,0,0,0,0,0,0,0,0,0,0,0,0,0,0,0,0,0,0,0,0,0,0,0,0,0,0,0,0,0,0,0,0,0,0,0,0,0,0,0,0,0,0,0,0,0,0,0,0,0,0,0,0,0,0,0,0,0,0,0,0,0,0,0,0,0,0,0,0,0,0,0,0,0,0,0,0,0,0,0,0,0,0,0,0],"id":4,"left_children":[1,3,5,7,9,11,13,15,17,19,21,23,25,27,29,31,33,35,37,39,41,43,45,47,49,51,53,55,57,59,61,63,65,67,69,71,73,75,77,79,81,83,85,87,89,91,93,-1,-1,-1,-1,-1,95,-1,97,-1,-1,-1,-1,-1,99,-1,101,-1,-1,-1,-1,-1,-1,-1,-1,-1,-1,-1,-1,-1,-1,-1,-1,-1,-1,-1,-1,-1,-1,-1,-1,-1,-1,-1,-1,-1,-1,-1,-1,-1,-1,-1,-1,-1,-1,-1,-1],"loss_changes":[1.1209611E4,4.1490986E3,4.192871E1,4.081494E2,1.7210422E3,1.3693359E1,9.916504E0,4.9577637E1,6.343126E2,2.7664917E1,5.687834E2,3.2017517E-1,1.2841309E1,8.444824E-1,8.972168E0,2.569336E0,3.8904053E1,3.9703638E2,1.1206055E1,8.256714E0,1.6689697E1,8.109274E1,1.3182169E2,1.5341187E-1,2.1289978E0,5.270996E-1,1.8548584E0,1.147995E-1,6.617737E-2,1.810791E0,8.0029297E-1,7.373047E-2,9.217529E-1,2.8950195E1,1.7207642E0,3.6887207E0,2.1468674E2,7.6812744E-1,1.4794128E1,5.692749E-1,3.9288635E0,6.503296E-1,2.729004E0,7.455597E0,3.3335075E0,1.3538704E1,4.7897552E1,0E0,0E0,0E0,0E0,0E0,2.0581055E-1,0E0,3.2922363E-1,0E0,0E0,0E0,0E0,0E0,1.4626465E0,0E0,3.4765625E-1,0E0,0E0,0E0,0E0,0E0,0E0,0E0,0E0,0E0,0E0,0E0,0E0,0E0,0E0,0E0,0E0,0E0,0E0,0E0,0E0,0E0,0E0,0E0,0E0,0E0,0E0,0E0,0E0,0E0,0E0,0E0,0E0,0E0,0E0,0E0,0E0,0E0,0E0,0E0,0E0],"parents":[2147483647,0,0,1,1,2,2,3,3,4,4,5,5,6,6,7,7,8,8,9,9,10,10,11,11,12,12,13,13,14,14,15,15,16,16,17,17,18,18,19,19,20,20,21,21,22,22,23,23,24,24,25,25,26,26,27,27,28,28,29,29,30,30,31,31,32,32,33,33,34,34,35,35,36,36,37,37,38,38,39,39,40,40,41,41,42,42,43,43,44,44,45,45,46,46,52,52,54,54,60,60,62,62],"right_children":[2,4,6,8,10,12,14,16,18,20,22,24,26,28,30,32,34,36,38,40,42,44,46,48,50,52,54,56,58,60,62,64,66,68,70,72,74,76,78,80,82,84,86,88,90,92,94,-1,-1,-1,-1,-1,96,-1,98,-1,-1,-1,-1,-1,100,-1,102,-1,-1,-1,-1,-1,-1,-1,-1,-1,-1,-1,-1,-1,-1,-1,-1,-1,-1,-1,-1,-1,-1,-1,-1,-1,-1,-1,-1,-1,-1,-1,-1,-1,-1,-1,-1,-1,-1,-1,-1],"split_conditions":[3E0,7E0,2E0,1E0,6E0,1E0,1E0,5E0,2E0,2E0,2E0,1E0,2E0,7E0,2E0,7E0,6E0,2E0,5E0,5E0,2E0,2E0,1E0,1E0,6E0,7E0,5E0,6E0,1E0,5E0,5E0,1E0,4E0,6E0,6E0,1E0,7E0,6E0,6E0,2E0,2E0,1E0,5E0,1E0,7E0,2E0,1E0,9.7074755E-2,1.3238248E-1,1.8338192E-1,1.0253863E-1,1.8284932E-1,7E0,1.0885889E-1,7E0,1.2939428E-1,1.6244991E-1,1.1103778E-1,1.2088708E-1,1.7176716E-1,5E0,1.5750799E-1,4E0,-1.4440373E-1,-1.3854297E-1,-1.5777019E-1,-1.4837249E-1,-1.3543902E-1,-1.0937549E-1,-1.4144248E-1,-1.5682968E-1,-1.50359E-1,-1.1034566E-1,-1.398031E-1,8.139556E-2,-1.3655737E-1,-1.5340005E-1,-1.1210578E-1,-1.5791127E-1,-1.4281204E-1,-1.323934E-1,-1.3560426E-1,-1.0982308E-1,-1.2092034E-1,-1.3915026E-1,-9.527188E-2,-7.716084E-2,-5.9630223E-2,-1.12259984E-1,-1.2069939E-1,-3.405655E-2,-1.35261305E-2,-4.5079313E-2,1.9644175E-2,3.963707E-2,1.731185E-1,1.6592996E-1,1.7485411E-1,1.4879249E-1,1.8445013E-1,1.4467704E-1,1.0415644E-1,1.3246329E-1],"split_indices":[3,4,2,1,5,0,0,4,3,2,3,1,0,4,0,5,4,2,4,5,3,2,0,2,4,5,5,4,1,5,4,3,4,5,5,3,5,5,4,0,3,1,5,0,5,2,1,0,0,0,0,0,4,0,5,0,0,0,0,0,4,0,5,0,0,0,0,0,0,0,0,0,0,0,0,0,0,0,0,0,0,0,0,0,0,0,0,0,0,0,0,0,0,0,0,0,0,0,0,0,0,0,0],"split_type":[0,0,0,0,0,0,0,0,0,0,0,0,0,0,0,0,0,0,0,0,0,0,0,0,0,0,0,0,0,0,0,0,0,0,0,0,0,0,0,0,0,0,0,0,0,0,0,0,0,0,0,0,0,0,0,0,0,0,0,0,0,0,0,0,0,0,0,0,0,0,0,0,0,0,0,0,0,0,0,0,0,0,0,0,0,0,0,0,0,0,0,0,0,0,0,0,0,0,0,0,0,0,0],"sum_hessian":[1.8638479E4,1.4586008E4,4.0524705E3,4.929388E3,9.65662E3,1.7302961E3,2.3221743E3,3.7174514E3,1.2119366E3,1.1762147E3,8.480405E3,1.447087E2,1.5855874E3,1.9840125E2,2.123773E3,1.3103722E3,2.4070793E3,5.705325E2,6.4140424E2,6.6754706E2,5.0866766E2,6.3100824E2,7.8493965E3,1.1711512E2,2.7593576E1,1.0363486E3,5.492389E2,2.228591E1,1.7611533E2,1.107996E3,1.0157771E3,4.6605698E2,8.443152E2,2.0213121E3,3.8576712E2,1.3104436E2,4.3948813E2,2.3582278E2,4.0558142E2,3.5486453E2,3.1268253E2,1.5749474E2,3.511729E2,3.690655E2,2.6194278E2,5.607079E2,7.288689E3,3.4774835E0,1.13637634E2,4.2235675E0,2.3370008E1,3.4943592E1,1.00140497E3,1.3427906E1,5.35811E2,1.777168E1,4.5142293E0,1.367447E2,3.937063E1,3.023318E1,1.0777628E3,1.696264E1,9.9881445E2,1.6126031E2,3.0479666E2,1.7442082E2,6.6989435E2,6.079284E2,1.4133837E3,1.268306E2,2.5893652E2,9.824336E1,3.280099E1,4.8792404E1,3.906957E2,4.711848E1,1.8870432E2,3.139332E2,9.164825E1,2.3823024E2,1.166343E2,8.536437E1,2.2731815E2,1.22792625E2,3.470211E1,1.6704832E2,1.841246E2,2.9824635E1,3.3924084E2,4.5599E0,2.5738287E2,3.340461E2,2.2666177E2,5.7968145E3,1.4918743E3,1.2102588E2,8.803791E2,9.490841E0,5.263201E2,1.114622E1,1.0666166E3,7.7328115E0,9.9108167E2],"tree_param":{"num_deleted":"0","num_feature":"8","num_nodes":"103","size_leaf_vector":"1"}},{"base_weights":[-2.266564E-3,-8.6309606E-1,3.4032235E-1,-1.0043763E0,-4.349126E-1,-7.6711506E-1,4.7426608E-1,-1.3235972E0,-8.496711E-1,-1.0367591E0,-1.7080915E-1,-9.50387E-1,-5.5237854E-1,2.9712588E-1,5.270573E-1,-1.4209129E0,-1.2954979E0,-1.223835E0,-7.0160776E-1,-1.3835202E0,-8.5525936E-1,-4.959945E-1,4.6043456E-1,-1.0349523E0,-1.7091972E-1,-7.7697355E-1,-4.6135554E-1,2.1198165E-1,3.8191834E-1,2.3193839E-1,5.506361E-1,-1.3617046E0,-1.4603636E0,-1.3258075E0,-1.2332319E0,-1.3141234E-1,-1.1880707E0,-5.918408E-1,-1.4208338E0,-1.4755586E0,-1.3178146E-1,-7.3304486E-1,-1.4141768E0,-1.1789758E0,-3.1986704E-1,-3.321242E-2,9.153957E-1,-1.1756734E0,-8.8072973E-1,-7.339188E-1,9.266135E-3,-9.044214E-1,-5.989706E-1,-7.1485436E-1,-4.233605E-1,-1.4538242E-1,2.4695353E-1,3.538226E-1,4.8322383E-1,2.9667374E-1,2.8282471E-2,4.8804158E-1,6.2799305E-1,-1.3765009E-1,-1.1623162E-1,-1.112121E-1,-1.4614883E-1,-1.2630627E-1,-1.362289E-1,-1.3110742E-1,-1.2022869E-1,-1.237648E-1,-1.1192044E-1,-7.7991255E-2,-5.1541045E-2,-1.2741552E-1,-1.4492346E-1,-1.3051002E-1,-1.521154E-1,-1.2017281E-1,-6.361354E-2,-9.512373E-2,-1.4679602E-1,-1.1339196E-1,-1.480518E-1,-5.3825825E-2,-2.4545307E-3,7.861301E-2,-1.8116275E-2,-1.18583165E-1,1.0069233E-1,-9.013877E-2,-1.1958027E-1,-1.07636295E-1,-7.7315345E-2,-5.792606E-2,-1.371911E-1,-3.4520996E-3,2.8345102E-2,-7.020691E-2,-9.890935E-2,-6.534317E-2,-3.3936705E-2,-1.229237E-1,-6.763954E-2,-4.451778E-2,-2.3976346E-2,-1.0882564E-3,-5.6162946E-2,1.929316E-2,5.2726205E-2,3.297035E-2,4.322413E-2,5.59232E-2,3.7018873E-2,-9.265267E-3,3.1102208E-2,2.626061E-2,-1.4355927E-2,2.465526E-2,4.99374E-2,7.48595E-2,4.5103952E-2],"categories":[],"categories_nodes":[],"categories_segments":[],"categories_sizes":[],"default_left":[0,0,0,0,0,0,0,0,0,0,0,0,0,0,0,0,0,0,0,0,0,0,0,0,0,0,0,0,0,0,0,0,0,0,0,0,0,0,0,0,0,0,0,0,0,0,0,0,0,0,0,0,0,0,0,0,0,0,0,0,0,0,0,0,0,0,0,0,0,0,0,0,0,0,0,0,0,0,0,0,0,0,0,0,0,0,0,0,0,0,0,0,0,0,0,0,0,0,0,0,0,0,0,0,0,0,0,0,0,0,0,0,0,0,0,0,0,0,0,0,0,0,0],"id":5,"left_children":[1,3,5,7,9,11,13,15,17,19,21,23,25,27,29,31,33,35,37,39,41,43,45,47,49,51,53,55,57,59,61,63,65,67,69,-1,71,73,75,77,-1,79,81,83,85,87,89,91,93,95,97,99,101,103,105,107,109,111,113,115,117,119,121,-1,-1,-1,-1,-1,-1,-1,-1,-1,-1,-1,-1,-1,-1,-1,-1,-1,-1,-1,-1,-1,-1,-1,-1,-1,-1,-1,-1,-1,-1,-1,-1,-1,-1,-1,-1,-1,-1,-1,-1,-1,-1,-1,-1,-1,-1,-1,-1,-1,-1,-1,-1,-1,-1,-1,-1,-1,-1,-1,-1],"loss_changes":[5.4104614E3,3.15802E2,1.946584E3,1.9370728E2,2.0586667E2,5.55708E1,1.0939722E2,3.224121E0,1.4635034E2,2.4638947E1,1.8491495E2,5.0216675E1,1.320929E1,1.9349731E1,6.2680176E1,3.7670898E-1,1.6147461E0,2.3547363E0,1.4943677E2,4.4052124E-1,1.751178E1,7.1379715E1,6.885113E1,1.4738464E1,7.6661577E0,4.107872E0,4.359131E0,1.6782207E1,3.7482758E0,8.769054E0,4.0325684E1,2.3457336E-1,2.6428223E-1,1.3668213E0,4.177246E-1,0E0,1.6984863E0,2.3154846E1,9.894409E-1,1.6343689E-1,0E0,9.277962E0,1.0631638E0,1.1950226E0,3.0836681E1,1.7941965E1,3.25905E1,2.3669434E0,6.662842E0,1.5887718E0,7.1092725E-1,1.7778778E0,1.0767479E0,8.9578056E-1,1.7178345E0,6.672451E0,1.8267647E1,1.8253021E0,2.4650192E0,3.1876411E0,6.5803394E0,1.5505981E1,8.112659E1,0E0,0E0,0E0,0E0,0E0,0E0,0E0,0E0,0E0,0E0,0E0,0E0,0E0,0E0,0E0,0E0,0E0,0E0,0E0,0E0,0E0,0E0,0E0,0E0,0E0,0E0,0E0,0E0,0E0,0E0,0E0,0E0,0E0,0E0,0E0,0E0,0E0,0E0,0E0,0E0,0E0,0E0,0E0,0E0,0E0,0E0,0E0,0E0,0E0,0E0,0E0,0E0,0E0,0E0,0E0,0E0,0E0,0E0,0E0,0E0],"parents":[2147483647,0,0,1,1,2,2,3,3,4,4,5,5,6,6,7,7,8,8,9,9,10,10,11,11,12,12,13,13,14,14,15,15,16,16,17,17,18,18,19,19,20,20,21,21,22,22,23,23,24,24,25,25,26,26,27,27,28,28,29,29,30,30,31,31,32,32,33,33,34,34,36,36,37,37,38,38,39,39,41,41,42,42,43,43,44,44,45,45,46,46,47,47,48,48,49,49,50,50,51,51,52,52,53,53,54,54,55,55,56,56,57,57,58,58,59,59,60,60,61,61,62,62],"right_children":[2,4,6,8,10,12,14,16,18,20,22,24,26,28,30,32,34,36,38,40,42,44,46,48,50,52,54,56,58,60,62,64,66,68,70,-1,72,74,76,78,-1,80,82,84,86,88,90,92,94,96,98,100,102,104,106,108,110,112,114,116,118,120,122,-1,-1,-1,-1,-1,-1,-1,-1,-1,-1,-1,-1,-1,-1,-1,-1,-1,-1,-1,-1,-1,-1,-1,-1,-1,-1,-1,-1,-1,-1,-1,-1,-1,-1,-1,-1,-1,-1,-1,-1,-1,-1,-1,-1,-1,-1,-1,-1,-1,-1,-1,-1,-1,-1,-1,-1,-1,-1,-1,-1],"split_conditions":[7E0,1E0,7E0,5E0,2E0,2E0,4E0,4E0,7E0,5E0,6E0,6E0,3E0,2E0,1E0,6E0,2E0,4E0,6E0,4E0,6E0,7E0,2E0,5E0,6E0,5E0,4E0,1E0,2E0,1E0,2E0,5E0,1E0,4E0,5E0,-1.3141234E-1,4E0,2E0,2E0,6E0,-1.3178146E-1,6E0,1E0,6E0,2E0,1E0,7E0,1E0,7E0,2E0,1E0,4E0,6E0,1E0,6E0,1E0,1E0,1E0,2E0,1E0,2E0,1E0,2E0,-1.3765009E-1,-1.1623162E-1,-1.112121E-1,-1.4614883E-1,-1.2630627E-1,-1.362289E-1,-1.3110742E-1,-1.2022869E-1,-1.237648E-1,-1.1192044E-1,-7.7991255E-2,-5.1541045E-2,-1.2741552E-1,-1.4492346E-1,-1.3051002E-1,-1.521154E-1,-1.2017281E-1,-6.361354E-2,-9.512373E-2,-1.4679602E-1,-1.1339196E-1,-1.480518E-1,-5.3825825E-2,-2.4545307E-3,7.861301E-2,-1.8116275E-2,-1.18583165E-1,1.0069233E-1,-9.013877E-2,-1.1958027E-1,-1.07636295E-1,-7.7315345E-2,-5.792606E-2,-1.371911E-1,-3.4520996E-3,2.8345102E-2,-7.020691E-2,-9.890935E-2,-6.534317E-2,-3.3936705E-2,-1.229237E-1,-6.763954E-2,-4.451778E-2,-2.3976346E-2,-1.0882564E-3,-5.6162946E-2,1.929316E-2,5.2726205E-2,3.297035E-2,4.322413E-2,5.59232E-2,3.7018873E-2,-9.265267E-3,3.1102208E-2,2.626061E-2,-1.4355927E-2,2.465526E-2,4.99374E-2,7.48595E-2,4.5103952E-2],"split_indices":[4,1,5,4,2,2,6,4,5,4,4,5,6,2,0,5,2,5,4,4,4,5,0,5,6,5,5,0,6,1,2,5,0,6,5,0,6,6,6,5,0,5,2,5,0,0,5,0,6,6,1,5,5,0,5,1,1,1,0,2,2,2,0,0,0,0,0,0,0,0,0,0,0,0,0,0,0,0,0,0,0,0,0,0,0,0,0,0,0,0,0,0,0,0,0,0,0,0,0,0,0,0,0,0,0,0,0,0,0,0,0,0,0,0,0,0,0,0,0,0,0,0,0],"split_type":[0,0,0,0,0,0,0,0,0,0,0,0,0,0,0,0,0,0,0,0,0,0,0,0,0,0,0,0,0,0,0,0,0,0,0,0,0,0,0,0,0,0,0,0,0,0,0,0,0,0,0,0,0,0,0,0,0,0,0,0,0,0,0,0,0,0,0,0,0,0,0,0,0,0,0,0,0,0,0,0,0,0,0,0,0,0,0,0,0,0,0,0,0,0,0,0,0,0,0,0,0,0,0,0,0,0,0,0,0,0,0,0,0,0,0,0,0,0,0,0,0,0,0],"sum_hessian":[1.8345916E4,5.222791E3,1.3123125E4,3.9268708E3,1.2959202E3,1.4158885E3,1.1707236E4,1.2816355E3,2.6452354E3,3.9511868E2,9.0080145E2,7.636503E2,6.522383E2,2.6883696E3,9.018867E3,2.8629022E2,9.953452E2,7.497821E2,1.8954532E3,1.3555278E2,2.595659E2,5.946337E2,3.0616772E2,6.8879346E2,7.485688E1,1.8777544E2,4.6446283E2,1.3419955E3,1.3463743E3,6.675755E2,8.351292E3,1.1557407E2,1.7071614E2,6.683084E2,3.2703683E2,2.0049263E2,5.492894E2,1.644606E3,2.5084734E2,5.1972374E1,8.3580414E1,2.1314996E2,4.6415928E1,1.2178424E2,4.7284952E2,1.4673955E2,1.5942816E2,3.59804E2,3.2898944E2,1.8277231E1,5.6579647E1,1.09087814E2,7.868762E1,6.0186497E1,4.0427634E2,1.19368416E2,1.2226271E3,1.054835E3,2.9153934E2,5.0618726E2,1.6138821E2,4.616834E3,3.7344578E3,1.0311307E2,1.246101E1,4.7188706E0,1.6599727E2,2.9517508E2,3.7313333E2,7.195645E1,2.5508038E2,2.8862036E2,2.606691E2,4.5489438E2,1.1897115E3,5.233359E1,1.9851373E2,1.3387822E1,3.8584553E1,3.4837757E1,1.7831221E2,5.7227135E0,4.0693214E1,1.0850859E2,1.3275651E1,2.7004034E2,2.0280916E2,2.2365587E1,1.24373955E2,6.967236E0,1.5246094E2,3.2740326E1,3.2706366E2,1.1119923E2,2.1779022E2,1.4936912E1,3.3403199E0,4.8492905E1,8.086742E0,3.4404152E1,7.468366E1,6.3908096E1,1.4779527E1,3.5731976E0,5.6613297E1,3.563356E2,4.7940735E1,9.057138E1,2.879703E1,1.030269E3,1.92358E2,8.274239E2,2.2741103E2,1.69747E2,1.21792336E2,1.9763144E1,4.8642413E2,6.846032E1,9.2927895E1,2.5563272E2,4.361201E3,2.1777957E3,1.556662E3],"tree_param":{"num_deleted":"0","num_feature":"8","num_nodes":"123","size_leaf_vector":"1"}},{"base_weights":[1.2853439E-4,-9.4204164E-1,1.669736E-1,-1.0614126E0,-7.682979E-1,-2.1512467E-2,2.391455E-1,-1.1909615E0,-8.6793137E-1,-8.3178484E-1,-4.8152494E-1,-1.6798109E-1,1.24824636E-1,1.806807E-1,3.104761E-1,-1.0307223E0,-1.2025621E0,-1.0750128E0,-7.173792E-1,-9.48372E-1,-6.7965853E-1,-7.224184E-1,-3.6652842E-1,-4.458348E-1,-1.4768417E-1,1.0637903E-1,7.9841477E-1,-8.583148E-2,1.9654043E-1,5.2919894E-2,3.3108062E-1,-1.0829842E0,-8.538539E-1,-1.2355602E0,-1.1409693E0,-1.2769051E0,-1.0507114E-1,-9.250477E-1,-6.326701E-1,-1.1005824E0,-8.464423E-1,-8.347781E-1,-6.0231097E-2,-1.2913911E-1,-6.71606E-1,-2.3972763E-1,-5.037687E-1,-3.2136258E-1,-9.6907306E-1,-1.8767488E-1,-7.0044205E-2,4.3588083E-2,2.0342784E-1,5.642032E-2,1.194528E0,1.1507031E-2,-6.4557654E-1,1.7614648E-1,3.0654296E-1,-1.1106444E-2,1.1298918E-1,3.882248E-1,2.5166363E-1,-1.2797813E-1,-1.0205651E-1,-9.9902995E-2,-5.7538513E-2,-1.2669663E-1,-1.2049028E-1,-1.2160225E-1,-1.057749E-1,-1.3474528E-1,-1.10790476E-1,-1.2331218E-1,-9.0142645E-2,-8.024029E-2,-6.0632166E-2,-1.1240214E-1,-8.813636E-2,-5.8670703E-2,-8.60443E-2,-5.0189435E-2,-8.4636115E-2,-7.089337E-2,-5.0397035E-2,2.1160237E-2,-2.7472958E-2,-4.0888216E-2,-6.6124626E-2,-4.44622E-2,1.9617572E-2,-1.17402524E-1,-5.9248865E-2,-3.006871E-2,-1.698044E-2,-1.4705834E-2,1.6987488E-2,-9.1239216E-4,2.0512506E-2,1.2019695E-2,4.014795E-2,1.0689855E-1,1.6226333E-1,9.41626E-3,-2.3498388E-2,-6.886728E-2,-4.9317516E-2,1.5609255E-2,2.2165628E-2,-2.6864877E-3,3.4088984E-2,7.7282893E-3,-1.8896872E-2,-4.4189006E-2,3.914754E-2,2.2248654E-2,3.1705905E-2],"categories":[],"categories_nodes":[],"categories_segments":[],"categories_sizes":[],"default_left":[0,0,0,0,0,0,0,0,0,0,0,0,0,0,0,0,0,0,0,0,0,0,0,0,0,0,0,0,0,0,0,0,0,0,0,0,0,0,0,0,0,0,0,0,0,0,0,0,0,0,0,0,0,0,0,0,0,0,0,0,0,0,0,0,0,0,0,0,0,0,0,0,0,0,0,0,0,0,0,0,0,0,0,0,0,0,0,0,0,0,0,0,0,0,0,0,0,0,0,0,0,0,0,0,0,0,0,0,0,0,0,0,0,0,0,0,0],"id":6,"left_children":[1,3,5,7,9,11,13,15,17,19,21,23,25,27,29,31,33,35,37,39,41,43,45,47,49,51,53,55,57,59,61,63,65,67,69,71,-1,73,75,77,79,81,-1,-1,83,85,87,89,91,93,95,97,99,-1,101,103,105,107,109,111,-1,113,115,-1,-1,-1,-1,-1,-1,-1,-1,-1,-1,-1,-1,-1,-1,-1,-1,-1,-1,-1,-1,-1,-1,-1,-1,-1,-1,-1,-1,-1,-1,-1,-1,-1,-1,-1,-1,-1,-1,-1,-1,-1,-1,-1,-1,-1,-1,-1,-1,-1,-1,-1,-1,-1,-1],"loss_changes":[2.8430066E3,5.624463E1,2.0904184E2,4.0206055E1,2.0048157E1,9.1184326E1,4.628882E1,1.5657959E0,1.9988678E1,1.5925476E1,5.464508E0,1.1932869E1,2.6345394E1,2.5824661E1,2.6518158E1,4.1067505E-1,1.5843506E0,7.809143E-1,6.437622E0,7.7640076E0,4.3811646E0,1.6941147E0,2.30085E0,9.2764E0,6.12825E0,1.2596214E1,5.0004272E0,1.8732864E1,1.2883835E1,2.5842644E1,2.0962372E1,3.4588242E-1,4.8126602E-1,2.8393555E-1,1.7582397E0,3.0963898E-2,0E0,4.1818237E-1,9.26651E-1,1.0963287E0,1.328537E0,5.415802E-1,0E0,0E0,2.8224945E-1,1.1846385E0,8.644562E-1,7.6402187E0,1.9975338E0,2.4927673E0,1.2642018E1,1.0816484E1,1.3390316E1,0E0,8.027992E-1,5.9984164E0,2.3737907E-1,4.3256073E0,1.0909271E1,5.5758467E0,0E0,1.2068817E1,3.5864868E0,0E0,0E0,0E0,0E0,0E0,0E0,0E0,0E0,0E0,0E0,0E0,0E0,0E0,0E0,0E0,0E0,0E0,0E0,0E0,0E0,0E0,0E0,0E0,0E0,0E0,0E0,0E0,0E0,0E0,0E0,0E0,0E0,0E0,0E0,0E0,0E0,0E0,0E0,0E0,0E0,0E0,0E0,0E0,0E0,0E0,0E0,0E0,0E0,0E0,0E0,0E0,0E0,0E0,0E0],"parents":[2147483647,0,0,1,1,2,2,3,3,4,4,5,5,6,6,7,7,8,8,9,9,10,10,11,11,12,12,13,13,14,14,15,15,16,16,17,17,18,18,19,19,20,20,21,21,22,22,23,23,24,24,25,25,26,26,27,27,28,28,29,29,30,30,31,31,32,32,33,33,34,34,35,35,37,37,38,38,39,39,40,40,41,41,44,44,45,45,46,46,47,47,48,48,49,49,50,50,51,51,52,52,54,54,55,55,56,56,57,57,58,58,59,59,61,61,62,62],"right_children":[2,4,6,8,10,12,14,16,18,20,22,24,26,28,30,32,34,36,38,40,42,44,46,48,50,52,54,56,58,60,62,64,66,68,70,72,-1,74,76,78,80,82,-1,-1,84,86,88,90,92,94,96,98,100,-1,102,104,106,108,110,112,-1,114,116,-1,-1,-1,-1,-1,-1,-1,-1,-1,-1,-1,-1,-1,-1,-1,-1,-1,-1,-1,-1,-1,-1,-1,-1,-1,-1,-1,-1,-1,-1,-1,-1,-1,-1,-1,-1,-1,-1,-1,-1,-1,-1,-1,-1,-1,-1,-1,-1,-1,-1,-1,-1,-1,-1],"split_conditions":[7E0,5E0,6E0,2E0,6E0,2E0,2E0,1E0,3E0,2E0,6E0,1E0,6E0,1E0,1E0,1E0,2E0,3E0,4E0,7E0,3E0,1E0,2E0,1E0,2E0,2E0,2E0,1E0,1E0,3E0,2E0,1E0,6E0,4E0,2E0,1E0,-1.0507114E-1,1E0,7E0,1E0,1E0,1E0,-6.0231097E-2,-1.2913911E-1,1E0,1E0,1E0,3E0,2E0,1E0,1E0,2E0,1E0,5.642032E-2,4E0,2E0,2E0,2E0,1E0,1E0,1.1298918E-1,7E0,1E0,-1.2797813E-1,-1.0205651E-1,-9.9902995E-2,-5.7538513E-2,-1.2669663E-1,-1.2049028E-1,-1.2160225E-1,-1.057749E-1,-1.3474528E-1,-1.10790476E-1,-1.2331218E-1,-9.0142645E-2,-8.024029E-2,-6.0632166E-2,-1.1240214E-1,-8.813636E-2,-5.8670703E-2,-8.60443E-2,-5.0189435E-2,-8.4636115E-2,-7.089337E-2,-5.0397035E-2,2.1160237E-2,-2.7472958E-2,-4.0888216E-2,-6.6124626E-2,-4.44622E-2,1.9617572E-2,-1.17402524E-1,-5.9248865E-2,-3.006871E-2,-1.698044E-2,-1.4705834E-2,1.6987488E-2,-9.1239216E-4,2.0512506E-2,1.2019695E-2,4.014795E-2,1.0689855E-1,1.6226333E-1,9.41626E-3,-2.3498388E-2,-6.886728E-2,-4.9317516E-2,1.5609255E-2,2.2165628E-2,-2.6864877E-3,3.4088984E-2,7.7282893E-3,-1.8896872E-2,-4.4189006E-2,3.914754E-2,2.2248654E-2,3.1705905E-2],"split_indices":[5,5,6,2,5,2,2,0,6,2,6,2,7,2,0,1,0,5,5,6,6,0,2,1,0,0,6,1,1,7,0,6,6,5,6,6,0,0,6,1,0,0,0,0,1,2,1,6,0,0,1,6,1,0,6,0,0,0,0,1,0,6,1,0,0,0,0,0,0,0,0,0,0,0,0,0,0,0,0,0,0,0,0,0,0,0,0,0,0,0,0,0,0,0,0,0,0,0,0,0,0,0,0,0,0,0,0,0,0,0,0,0,0,0,0,0,0],"split_type":[0,0,0,0,0,0,0,0,0,0,0,0,0,0,0,0,0,0,0,0,0,0,0,0,0,0,0,0,0,0,0,0,0,0,0,0,0,0,0,0,0,0,0,0,0,0,0,0,0,0,0,0,0,0,0,0,0,0,0,0,0,0,0,0,0,0,0,0,0,0,0,0,0,0,0,0,0,0,0,0,0,0,0,0,0,0,0,0,0,0,0,0,0,0,0,0,0,0,0,0,0,0,0,0,0,0,0,0,0,0,0,0,0,0,0,0,0],"sum_hessian":[1.8086166E4,2.7208677E3,1.5365298E4,1.612437E3,1.1084307E3,4.2540195E3,1.1111278E4,9.654543E2,6.469828E2,9.072278E2,2.0120287E2,2.1263916E3,2.127628E3,6.107109E3,5.0041694E3,6.579122E1,8.996631E2,2.7206546E2,3.7491733E2,5.1322015E2,3.9400763E2,6.472449E1,1.3647838E2,1.4441537E2,1.9819761E3,2.071068E3,5.655982E1,3.4266064E2,5.764448E3,3.7103653E2,4.633133E3,5.0327625E1,1.5463593E1,5.846893E2,3.149738E2,2.243851E1,2.4962694E2,1.0826597E2,2.6665137E2,2.0542603E2,3.0779413E2,1.2687851E2,2.6712912E2,5.076042E0,5.964845E1,7.132092E1,6.515746E1,1.1682386E2,2.7591507E1,1.3073204E3,6.7465564E2,1.2581005E3,8.129677E2,3.5885586E1,2.0674234E1,2.917549E2,5.090574E1,4.8636636E3,9.007845E2,3.5024774E2,2.0788763E1,2.6936538E3,1.939479E3,1.0569236E1,3.975839E1,9.752289E0,5.7113037E0,2.240272E2,3.6066208E2,1.526409E2,1.6233289E2,1.4739254E1,7.699257E0,5.7534685E0,1.025125E2,3.0641645E1,2.3600972E2,1.8010474E2,2.532129E1,2.1273708E1,2.8652042E2,6.2278595E0,1.2065065E2,4.722912E1,1.2419329E1,5.119048E0,6.620187E1,4.1768055E1,2.3389408E1,9.418911E1,2.263475E1,1.7440105E1,1.0151402E1,1.6757588E2,1.1397446E3,5.1021985E2,1.644358E2,9.4950085E2,3.0859958E2,5.7595526E2,2.370124E2,1.6423359E1,4.250875E0,2.1873561E2,7.301931E1,3.8251965E1,1.2653774E1,3.4483455E3,1.4153182E3,8.793132E1,8.1285315E2,2.3368607E2,1.1656169E2,1.7185127E1,2.6764688E3,1.3701459E3,5.693331E2],"tree_param":{"num_deleted":"0","num_feature":"8","num_nodes":"117","size_leaf_vector":"1"}},{"base_weights":[-2.507111E-4,-3.6723232E-1,1.3267157E0,-1.1025984E0,-2.2762735E-1,1.4587611E0,1.2284591E0,-1.2321516E0,-9.988823E-1,-5.603168E-1,-1.7785622E-1,1.6884851E0,1.4489326E0,1.3288924E0,1.2061368E0,-1.2758182E-1,-1.1967915E0,-1.091522E0,-8.915984E-1,-1.1370806E0,3.931108E-2,-3.8749364E-1,-1.0316767E-1,1.5260429E0,1.8267149E-1,1.4058443E0,1.460914E0,1.7132856E-1,1.3069687E0,1.1970831E0,1.4103207E-1,-1.2294751E-1,-1.1246096E0,-1.1934594E0,-9.8480785E-1,-9.804247E-1,-7.935247E-1,-1.3759726E0,-9.4773453E-1,-6.5755385E-1,5.708661E-1,-8.457868E-1,-3.788262E-1,-4.6064296E-1,-9.76219E-2,1.7385057E-1,1.2850435E-1,1.5126398E0,1.3390574E-1,1.4595559E-1,1.4054073E0,1.3473545E-1,1.2628636E-1,1.359173E0,1.188194E0,-1.08662724E-1,-1.22068584E-1,-1.2412558E-1,-1.1346785E-1,-1.163025E-1,-9.425286E-2,-1.06376104E-1,-9.1191955E-2,-9.2121065E-2,-7.3036365E-2,-1.2824635E-1,-1.4593127E-1,-8.657538E-2,-9.902606E-2,-9.837866E-2,-5.07307E-2,9.150437E-2,3.0405406E-2,-7.880482E-2,-1.0645982E-1,-3.3028632E-2,-4.3094587E-2,-2.763441E-2,-6.698054E-2,-1.209508E-2,-6.308792E-4,1.5331423E-1,1.3751143E-1,1.6938776E-1,1.3886586E-1,9.3681276E-2,1.4031611E-1,1.1294509E-1,1.18693024E-1],"categories":[],"categories_nodes":[],"categories_segments":[],"categories_sizes":[],"default_left":[0,0,0,0,0,0,0,0,0,0,0,0,0,0,0,0,0,0,0,0,0,0,0,0,0,0,0,0,0,0,0,0,0,0,0,0,0,0,0,0,0,0,0,0,0,0,0,0,0,0,0,0,0,0,0,0,0,0,0,0,0,0,0,0,0,0,0,0,0,0,0,0,0,0,0,0,0,0,0,0,0,0,0,0,0,0,0,0,0],"id":7,"left_children":[1,3,5,7,9,11,13,15,17,19,21,23,25,27,29,-1,31,33,35,37,39,41,43,45,-1,47,49,-1,51,53,-1,-1,55,57,59,61,63,65,67,69,71,73,75,77,79,-1,-1,81,-1,-1,83,-1,-1,85,87,-1,-1,-1,-1,-1,-1,-1,-1,-1,-1,-1,-1,-1,-1,-1,-1,-1,-1,-1,-1,-1,-1,-1,-1,-1,-1,-1,-1,-1,-1,-1,-1,-1,-1],"loss_changes":[8.761089E3,1.4467207E3,5.0291504E1,2.9984863E1,1.9605957E2,3.427246E0,4.75E0,1.5334473E0,1.2213745E1,5.33114E2,1.6128345E2,1.2801208E0,5.2612305E-1,3.1867676E0,3.2399902E0,0E0,1.4335327E0,7.063843E0,4.867096E0,3.5299194E1,2.798597E2,1.0626984E1,1.5006371E1,1.3817673E0,0E0,1.9208374E0,1.5844727E-1,0E0,4.1229248E-1,2.2663574E0,0E0,0E0,4.505005E-1,7.362671E-1,2.0303955E0,1.5158997E0,1.9984894E0,2.4570312E0,1.4335327E0,1.5832962E1,3.9565872E1,4.10717E-1,6.685974E0,4.4090576E0,1.6369186E1,0E0,0E0,1.6293335E-1,0E0,0E0,4.4403076E-2,0E0,0E0,1.7111053E0,2.1655273E-1,0E0,0E0,0E0,0E0,0E0,0E0,0E0,0E0,0E0,0E0,0E0,0E0,0E0,0E0,0E0,0E0,0E0,0E0,0E0,0E0,0E0,0E0,0E0,0E0,0E0,0E0,0E0,0E0,0E0,0E0,0E0,0E0,0E0,0E0],"parents":[2147483647,0,0,1,1,2,2,3,3,4,4,5,5,6,6,7,7,8,8,9,9,10,10,11,11,12,12,13,13,14,14,16,16,17,17,18,18,19,19,20,20,21,21,22,22,23,23,25,25,26,26,28,28,29,29,32,32,33,33,34,34,35,35,36,36,37,37,38,38,39,39,40,40,41,41,42,42,43,43,44,44,47,47,50,50,53,53,54,54],"right_children":[2,4,6,8,10,12,14,16,18,20,22,24,26,28,30,-1,32,34,36,38,40,42,44,46,-1,48,50,-1,52,54,-1,-1,56,58,60,62,64,66,68,70,72,74,76,78,80,-1,-1,82,-1,-1,84,-1,-1,86,88,-1,-1,-1,-1,-1,-1,-1,-1,-1,-1,-1,-1,-1,-1,-1,-1,-1,-1,-1,-1,-1,-1,-1,-1,-1,-1,-1,-1,-1,-1,-1,-1,-1,-1],"split_conditions":[3E0,6E0,2E0,2E0,2E0,7E0,3E0,1E0,2E0,2E0,6E0,5E0,6E0,6E0,3E0,-1.2758182E-1,2E0,5E0,5E0,1E0,1E0,7E0,7E0,6E0,1.8267149E-1,1E0,1E0,1.7132856E-1,1E0,7E0,1.4103207E-1,-1.2294751E-1,1E0,6E0,1E0,4E0,3E0,6E0,7E0,1E0,4E0,2E0,2E0,2E0,1E0,1.7385057E-1,1.2850435E-1,1E0,1.3390574E-1,1.4595559E-1,1E0,1.3473545E-1,1.2628636E-1,4E0,6E0,-1.08662724E-1,-1.22068584E-1,-1.2412558E-1,-1.1346785E-1,-1.163025E-1,-9.425286E-2,-1.06376104E-1,-9.1191955E-2,-9.2121065E-2,-7.3036365E-2,-1.2824635E-1,-1.4593127E-1,-8.657538E-2,-9.902606E-2,-9.837866E-2,-5.07307E-2,9.150437E-2,3.0405406E-2,-7.880482E-2,-1.0645982E-1,-3.3028632E-2,-4.3094587E-2,-2.763441E-2,-6.698054E-2,-1.209508E-2,-6.308792E-4,1.5331423E-1,1.3751143E-1,1.6938776E-1,1.3886586E-1,9.3681276E-2,1.4031611E-1,1.1294509E-1,1.18693024E-1],"split_indices":[3,5,2,3,3,5,6,3,2,2,6,5,6,5,7,0,2,5,5,3,1,5,5,6,0,6,1,0,6,5,0,0,1,6,6,6,6,6,6,3,6,6,2,2,1,0,0,1,0,0,2,0,0,5,6,0,0,0,0,0,0,0,0,0,0,0,0,0,0,0,0,0,0,0,0,0,0,0,0,0,0,0,0,0,0,0,0,0,0],"split_type":[0,0,0,0,0,0,0,0,0,0,0,0,0,0,0,0,0,0,0,0,0,0,0,0,0,0,0,0,0,0,0,0,0,0,0,0,0,0,0,0,0,0,0,0,0,0,0,0,0,0,0,0,0,0,0,0,0,0,0,0,0,0,0,0,0,0,0,0,0,0,0,0,0,0,0,0,0,0,0,0,0,0,0,0,0,0,0,0,0],"sum_hessian":[1.799112E4,1.4093535E4,3.897584E3,2.2485571E3,1.1844979E4,1.6624071E3,2.235177E3,9.9929755E2,1.2492596E3,1.5411674E3,1.0303811E4,6.774784E1,1.5946593E3,4.0557718E2,1.8295997E3,4.097365E2,5.8956104E2,6.6985657E2,5.7940314E2,7.856416E2,7.5552576E2,2.7063154E3,7.597495E3,3.267247E1,3.507537E1,3.4891116E2,1.2457482E3,2.1127697E1,3.8444946E2,1.7551091E3,7.4490585E1,3.8049182E2,2.0906923E2,3.4208777E2,3.2776877E2,3.034756E2,2.7592752E2,3.4712354E2,4.385181E2,3.2684576E2,4.2868002E2,5.000961E1,2.656306E3,1.1578415E2,7.481711E3,1.652987E1,1.6142601E1,1.2417598E2,2.2473517E2,1.1117296E3,1.3401862E2,1.6719562E2,2.1725385E2,9.061604E1,1.664493E3,1.6012982E2,4.8939415E1,1.6691924E2,1.7516855E2,5.4436172E1,2.7333258E2,1.2560785E2,1.7786775E2,8.455683E1,1.9137068E2,1.7882385E2,1.6829968E2,1.687042E2,2.698139E2,1.0040122E2,2.2644453E2,1.8486127E2,2.4381876E2,4.0776814E1,9.232796E0,1.430559E3,1.225747E3,6.254293E1,5.324122E1,5.9238496E3,1.5578615E3,1.0094418E2,2.3231802E1,3.651932E0,1.3036668E2,1.0203131E1,8.041292E1,1.5169176E2,1.5128014E3],"tree_param":{"num_deleted":"0","num_feature":"8","num_nodes":"89","size_leaf_vector":"1"}},{"base_weights":[-2.172139E-3,-3.381506E-1,1.2397876E0,-9.9997956E-1,-2.7655724E-2,1.3649373E0,1.1475134E0,-7.0471305E-1,-1.1440897E0,-9.147181E-1,7.8767315E-2,1.0827226E-1,1.391523E0,9.3677837E-1,1.1676103E0,-1.1993519E0,-1.1466517E-1,-1.3274524E0,-1.048546E0,-1.1349397E0,-7.914685E-1,-7.000824E-1,1.402897E-1,1.4591638E0,1.2649858E0,1.0842152E0,8.897396E-2,1.2275611E0,1.1024426E0,-1.3122281E0,-1.0419781E0,-1.1702658E0,2.5990924E-1,-1.2092577E0,-1.3607817E0,-9.6902317E-1,-1.4039015E0,-1.1836786E0,-1.0515076E0,-9.48315E-1,-6.3284343E-1,-9.63021E-1,-3.4213385E-1,-2.4547705E-1,1.6991584E-1,1.7091328E-1,1.4492693E0,1.7761613E-1,1.2594464E0,1.6736107E-1,9.886464E-1,1.5647659E0,1.2174052E0,1.2076617E0,1.0810132E0,-1.2528071E-1,-1.3531035E-1,-1.1927524E-1,-8.5985474E-2,-1.2545247E-1,-1.0804367E-1,-1.1202387E-2,7.229085E-2,-1.2340447E-1,-1.1598412E-1,-1.2718835E-1,-1.4037304E-1,-9.000035E-2,-1.0378152E-1,-1.1977636E-1,-1.4482492E-1,-1.2202566E-1,-1.0643268E-1,-6.76173E-2,-1.06586955E-1,-1.139274E-1,-8.232671E-2,-9.7588405E-2,-6.055929E-2,-7.550523E-2,-1.084461E-1,-1.0711783E-1,-3.2757416E-2,-1.2484949E-2,-4.1754548E-2,2.2168348E-2,7.44688E-3,1.5276028E-1,1.4287375E-1,9.936695E-2,1.2591171E-1,9.225804E-2,1.0963093E-1,1.3185787E-1,1.6179092E-1,1.34664E-1,1.1971338E-1,1.6538088E-1,1.1725966E-1,1.4476188E-1,1.069241E-1],"categories":[],"categories_nodes":[],"categories_segments":[],"categories_sizes":[],"default_left":[0,0,0,0,0,0,0,0,0,0,0,0,0,0,0,0,0,0,0,0,0,0,0,0,0,0,0,0,0,0,0,0,0,0,0,0,0,0,0,0,0,0,0,0,0,0,0,0,0,0,0,0,0,0,0,0,0,0,0,0,0,0,0,0,0,0,0,0,0,0,0,0,0,0,0,0,0,0,0,0,0,0,0,0,0,0,0,0,0,0,0,0,0,0,0,0,0,0,0,0,0],"id":8,"left_children":[1,3,5,7,9,11,13,15,17,19,21,-1,23,25,27,29,31,33,35,37,39,41,43,45,47,49,-1,51,53,55,57,59,61,63,65,67,69,71,73,75,77,79,81,83,85,-1,87,-1,89,-1,91,93,95,97,99,-1,-1,-1,-1,-1,-1,-1,-1,-1,-1,-1,-1,-1,-1,-1,-1,-1,-1,-1,-1,-1,-1,-1,-1,-1,-1,-1,-1,-1,-1,-1,-1,-1,-1,-1,-1,-1,-1,-1,-1,-1,-1,-1,-1,-1,-1],"loss_changes":[7.3827935E3,2.8616152E3,4.3245117E1,1.8903271E2,8.9494525E2,1.1486084E1,8.970459E0,4.2562946E2,5.21062E1,2.736676E1,4.0549203E2,0E0,1.2195068E1,9.7550964E-1,7.495117E0,1.3853027E1,2.631646E2,3.7659912E0,5.528247E1,1.2514343E0,1.6046875E1,5.8174255E1,8.964133E1,2.106079E0,1.1508179E0,2.1024742E0,0E0,3.2407227E0,1.9057617E0,9.012451E-1,9.0486145E0,1.0919495E0,8.547504E1,5.92041E-2,3.029663E0,7.4661865E0,3.4696045E0,8.885498E-1,8.3454895E-1,7.5769653E0,2.5439148E0,9.079163E0,2.323166E0,1.1640003E1,3.664885E1,0E0,7.0214844E-1,0E0,6.234131E-1,0E0,4.234314E-2,1.3548279E-1,1.6151123E0,1.7920532E0,1.4981079E0,0E0,0E0,0E0,0E0,0E0,0E0,0E0,0E0,0E0,0E0,0E0,0E0,0E0,0E0,0E0,0E0,0E0,0E0,0E0,0E0,0E0,0E0,0E0,0E0,0E0,0E0,0E0,0E0,0E0,0E0,0E0,0E0,0E0,0E0,0E0,0E0,0E0,0E0,0E0,0E0,0E0,0E0,0E0,0E0,0E0,0E0],"parents":[2147483647,0,0,1,1,2,2,3,3,4,4,5,5,6,6,7,7,8,8,9,9,10,10,12,12,13,13,14,14,15,15,16,16,17,17,18,18,19,19,20,20,21,21,22,22,23,23,24,24,25,25,27,27,28,28,29,29,30,30,31,31,32,32,33,33,34,34,35,35,36,36,37,37,38,38,39,39,40,40,41,41,42,42,43,43,44,44,46,46,48,48,50,50,51,51,52,52,53,53,54,54],"right_children":[2,4,6,8,10,12,14,16,18,20,22,-1,24,26,28,30,32,34,36,38,40,42,44,46,48,50,-1,52,54,56,58,60,62,64,66,68,70,72,74,76,78,80,82,84,86,-1,88,-1,90,-1,92,94,96,98,100,-1,-1,-1,-1,-1,-1,-1,-1,-1,-1,-1,-1,-1,-1,-1,-1,-1,-1,-1,-1,-1,-1,-1,-1,-1,-1,-1,-1,-1,-1,-1,-1,-1,-1,-1,-1,-1,-1,-1,-1,-1,-1,-1,-1,-1,-1],"split_conditions":[3E0,7E0,2E0,2E0,6E0,1E0,1E0,2E0,5E0,2E0,2E0,1.0827226E-1,2E0,4E0,2E0,1E0,7E0,7E0,6E0,2E0,2E0,2E0,1E0,7E0,5E0,7E0,8.897396E-2,5E0,2E0,6E0,6E0,1E0,6E0,2E0,6E0,2E0,6E0,2E0,1E0,5E0,1E0,7E0,7E0,2E0,2E0,1.7091328E-1,7E0,1.7761613E-1,5E0,1.6736107E-1,2E0,4E0,1E0,6E0,5E0,-1.2528071E-1,-1.3531035E-1,-1.1927524E-1,-8.5985474E-2,-1.2545247E-1,-1.0804367E-1,-1.1202387E-2,7.229085E-2,-1.2340447E-1,-1.1598412E-1,-1.2718835E-1,-1.4037304E-1,-9.000035E-2,-1.0378152E-1,-1.1977636E-1,-1.4482492E-1,-1.2202566E-1,-1.0643268E-1,-6.76173E-2,-1.06586955E-1,-1.139274E-1,-8.232671E-2,-9.7588405E-2,-6.055929E-2,-7.550523E-2,-1.084461E-1,-1.0711783E-1,-3.2757416E-2,-1.2484949E-2,-4.1754548E-2,2.2168348E-2,7.44688E-3,1.5276028E-1,1.4287375E-1,9.936695E-2,1.2591171E-1,9.225804E-2,1.0963093E-1,1.3185787E-1,1.6179092E-1,1.34664E-1,1.1971338E-1,1.6538088E-1,1.1725966E-1,1.4476188E-1,1.069241E-1],"split_indices":[3,4,2,3,5,0,0,2,4,3,3,0,0,6,0,3,5,5,4,2,2,2,0,5,4,4,0,5,6,5,5,3,4,2,6,2,5,0,0,5,0,6,5,2,0,0,4,0,5,0,6,5,6,5,4,0,0,0,0,0,0,0,0,0,0,0,0,0,0,0,0,0,0,0,0,0,0,0,0,0,0,0,0,0,0,0,0,0,0,0,0,0,0,0,0,0,0,0,0,0,0],"split_type":[0,0,0,0,0,0,0,0,0,0,0,0,0,0,0,0,0,0,0,0,0,0,0,0,0,0,0,0,0,0,0,0,0,0,0,0,0,0,0,0,0,0,0,0,0,0,0,0,0,0,0,0,0,0,0,0,0,0,0,0,0,0,0,0,0,0,0,0,0,0,0,0,0,0,0,0,0,0,0,0,0,0,0,0,0,0,0,0,0,0,0,0,0,0,0,0,0,0,0,0,0],"sum_hessian":[1.7693213E4,1.3925998E4,3.767216E3,4.4469214E3,9.479076E3,1.5983043E3,2.1689116E3,1.4587731E3,2.9881482E3,1.0155013E3,8.463575E3,1.4063403E2,1.4576703E3,1.892869E2,1.9796249E3,7.9344855E2,6.653246E2,1.0232524E3,1.9648959E3,3.640906E2,6.5141064E2,6.194829E2,7.8440923E3,9.4934485E2,5.0832544E2,4.155793E1,1.4772896E2,1.0302317E3,9.493932E2,4.6165244E2,3.3179614E2,1.7431935E2,4.9100522E2,2.2578044E2,7.974719E2,1.605838E3,3.5905786E2,2.2902719E2,1.350634E2,3.2721182E2,3.2419882E2,3.5697345E2,2.6250943E2,5.5920557E2,7.2848867E3,3.448778E1,9.1485706E2,5.139335E0,5.031861E2,5.564715E0,3.5993217E1,2.9807169E1,1.00042444E3,1.5979898E2,7.8959424E2,2.2193932E2,2.397131E2,1.7557782E2,1.562183E2,8.298971E1,9.1329636E1,2.729929E2,2.1801234E2,1.2899216E2,9.678829E1,3.0518622E2,4.922857E2,8.635385E2,7.4229956E2,7.490022E1,2.8415762E2,1.6520387E2,6.382332E1,7.2164636E0,1.2784694E2,1.2382867E2,2.0338316E2,2.0573706E1,3.0362512E2,1.3757315E2,2.1940028E2,4.343848E0,2.581656E2,3.3162646E2,2.275791E2,4.67694E3,2.6079465E3,1.1622516E2,7.986319E2,1.270788E1,4.904782E2,2.4020594E1,1.1972623E1,6.4950457E0,2.3312122E1,9.078752E1,9.0963696E2,9.244711E0,1.5055428E2,1.205743E1,7.775368E2],"tree_param":{"num_deleted":"0","num_feature":"8","num_nodes":"101","size_leaf_vector":"1"}},{"base_weights":[-9.956824E-4,-3.101567E-1,1.1607897E0,-1.0047129E0,-1.8999939E-1,1.2886214E0,1.06719E0,-1.1465054E0,-8.948421E-1,-4.6850288E-1,-1.4934364E-1,1.2366033E0,1.3038629E0,1.1566741E0,1.0481471E0,-1.19656116E-1,-1.1078231E0,-9.9376625E-1,-7.8359836E-1,-1.000003E0,4.1695885E-2,-3.2589385E-1,-8.7089926E-2,1.3405699E0,1.1772304E0,1.02358855E-1,1.3075703E0,1.3888159E0,1.1427606E0,1.038144E0,1.277986E-1,-1.1423426E-1,-1.0350193E0,-1.1015387E0,-8.8562226E-1,-8.8370925E-1,-6.7535365E-1,-1.2481871E0,-8.136038E-1,-5.69689E-1,5.013627E-1,-7.316549E-1,-3.1856486E-1,-4.3027422E-1,-8.183963E-2,1.6340545E-1,1.3132722E0,1.4072115E0,1.1560614E-1,1.538808E-1,1.3019845E0,1.02477536E-1,1.4978358E0,1.17177956E-1,1.1067745E-1,1.0290283E0,1.075652E0,-1.1085719E-1,-9.963148E-2,-1.16620325E-1,-1.0286275E-1,-9.9945E-2,-8.166241E-2,-9.805595E-2,-8.0066755E-2,-8.0447294E-2,-6.1499137E-2,-1.16311766E-1,-1.322243E-1,-7.3300116E-2,-8.55395E-2,-9.211921E-2,-4.1009657E-2,7.110417E-2,7.346605E-3,-6.9391005E-2,-8.656691E-2,-2.7032737E-2,-3.7125476E-2,-2.7291277E-2,-6.1768506E-2,-1.0240522E-2,-1.4807405E-4,1.3311586E-1,1.1909357E-1,1.2425118E-1,1.6186325E-1,1.3007902E-1,1.24559045E-1,1.2940778E-1,1.60174E-1,1.1051874E-1,1.0165856E-1,7.5512104E-2,1.091826E-1],"categories":[],"categories_nodes":[],"categories_segments":[],"categories_sizes":[],"default_left":[0,0,0,0,0,0,0,0,0,0,0,0,0,0,0,0,0,0,0,0,0,0,0,0,0,0,0,0,0,0,0,0,0,0,0,0,0,0,0,0,0,0,0,0,0,0,0,0,0,0,0,0,0,0,0,0,0,0,0,0,0,0,0,0,0,0,0,0,0,0,0,0,0,0,0,0,0,0,0,0,0,0,0,0,0,0,0,0,0,0,0,0,0,0,0],"id":9,"left_children":[1,3,5,7,9,11,13,15,17,19,21,23,25,27,29,-1,31,33,35,37,39,41,43,45,47,-1,49,51,53,55,-1,-1,57,59,61,63,65,67,69,71,73,75,77,79,81,-1,83,85,-1,-1,87,-1,89,-1,-1,91,93,-1,-1,-1,-1,-1,-1,-1,-1,-1,-1,-1,-1,-1,-1,-1,-1,-1,-1,-1,-1,-1,-1,-1,-1,-1,-1,-1,-1,-1,-1,-1,-1,-1,-1,-1,-1,-1,-1],"loss_changes":[6.208967E3,1.1393519E3,4.322998E1,3.1160156E1,1.3173553E2,9.555664E-1,3.349121E0,1.685791E0,1.2308472E1,4.020883E2,1.11599884E2,1.8981934E0,9.6813965E-1,9.252014E-1,3.8615723E0,0E0,1.3276367E0,6.7927246E0,5.636139E0,3.3382446E1,2.1253683E2,7.768036E0,1.3480831E1,7.3690796E-1,4.9835205E-1,0E0,1.2706299E0,5.3437805E-1,1.3278198E-1,3.527832E-1,0E0,0E0,2.8295898E-1,1.2085876E0,2.1244354E0,2.0472717E0,1.8148499E0,1.7339172E0,1.3145752E0,1.8069534E1,3.934246E1,6.118965E-2,6.590088E0,3.2670212E0,1.2544796E1,0E0,7.737732E-2,1.5849495E-1,0E0,0E0,7.043457E-2,0E0,3.878784E-2,0E0,0E0,5.4125977E-1,2.0684814E0,0E0,0E0,0E0,0E0,0E0,0E0,0E0,0E0,0E0,0E0,0E0,0E0,0E0,0E0,0E0,0E0,0E0,0E0,0E0,0E0,0E0,0E0,0E0,0E0,0E0,0E0,0E0,0E0,0E0,0E0,0E0,0E0,0E0,0E0,0E0,0E0,0E0,0E0],"parents":[2147483647,0,0,1,1,2,2,3,3,4,4,5,5,6,6,7,7,8,8,9,9,10,10,11,11,12,12,13,13,14,14,16,16,17,17,18,18,19,19,20,20,21,21,22,22,23,23,24,24,26,26,27,27,28,28,29,29,32,32,33,33,34,34,35,35,36,36,37,37,38,38,39,39,40,40,41,41,42,42,43,43,44,44,46,46,47,47,50,50,52,52,55,55,56,56],"right_children":[2,4,6,8,10,12,14,16,18,20,22,24,26,28,30,-1,32,34,36,38,40,42,44,46,48,-1,50,52,54,56,-1,-1,58,60,62,64,66,68,70,72,74,76,78,80,82,-1,84,86,-1,-1,88,-1,90,-1,-1,92,94,-1,-1,-1,-1,-1,-1,-1,-1,-1,-1,-1,-1,-1,-1,-1,-1,-1,-1,-1,-1,-1,-1,-1,-1,-1,-1,-1,-1,-1,-1,-1,-1,-1,-1,-1,-1,-1,-1],"split_conditions":[3E0,6E0,2E0,2E0,2E0,6E0,2E0,1E0,2E0,2E0,6E0,1E0,5E0,6E0,3E0,-1.19656116E-1,2E0,5E0,5E0,1E0,1E0,7E0,7E0,7E0,7E0,1.02358855E-1,7E0,4E0,1E0,1E0,1.277986E-1,-1.1423426E-1,4E0,6E0,6E0,6E0,3E0,6E0,7E0,1E0,3E0,2E0,2E0,2E0,1E0,1.6340545E-1,1E0,2E0,1.1560614E-1,1.538808E-1,1E0,1.02477536E-1,1E0,1.17177956E-1,1.1067745E-1,4E0,4E0,-1.1085719E-1,-9.963148E-2,-1.16620325E-1,-1.0286275E-1,-9.9945E-2,-8.166241E-2,-9.805595E-2,-8.0066755E-2,-8.0447294E-2,-6.1499137E-2,-1.16311766E-1,-1.322243E-1,-7.3300116E-2,-8.55395E-2,-9.211921E-2,-4.1009657E-2,7.110417E-2,7.346605E-3,-6.9391005E-2,-8.656691E-2,-2.7032737E-2,-3.7125476E-2,-2.7291277E-2,-6.1768506E-2,-1.0240522E-2,-1.4807405E-4,1.3311586E-1,1.1909357E-1,1.2425118E-1,1.6186325E-1,1.3007902E-1,1.24559045E-1,1.2940778E-1,1.60174E-1,1.1051874E-1,1.0165856E-1,7.5512104E-2,1.091826E-1],"split_indices":[3,5,2,3,3,6,6,3,2,2,6,6,5,5,7,0,2,5,5,3,1,5,5,5,5,0,5,5,6,1,0,0,5,6,6,6,6,6,6,3,7,6,2,2,1,0,1,6,0,0,1,0,6,0,0,6,6,0,0,0,0,0,0,0,0,0,0,0,0,0,0,0,0,0,0,0,0,0,0,0,0,0,0,0,0,0,0,0,0,0,0,0,0,0,0],"split_type":[0,0,0,0,0,0,0,0,0,0,0,0,0,0,0,0,0,0,0,0,0,0,0,0,0,0,0,0,0,0,0,0,0,0,0,0,0,0,0,0,0,0,0,0,0,0,0,0,0,0,0,0,0,0,0,0,0,0,0,0,0,0,0,0,0,0,0,0,0,0,0,0,0,0,0,0,0,0,0,0,0,0,0,0,0,0,0,0,0,0,0,0,0,0,0],"sum_hessian":[1.7286785E4,1.3653549E4,3.633236E3,2.0135532E3,1.1639996E4,1.5352975E3,2.0979387E3,8.786544E2,1.1348988E3,1.4824298E3,1.0157566E4,3.4950146E2,1.185796E3,3.6714062E2,1.7307981E3,3.556875E2,5.229669E2,6.002141E2,5.346847E2,7.261499E2,7.5627997E2,2.6475515E3,7.5100146E3,1.26385185E2,2.2311629E2,1.617018E1,1.1696257E3,2.032205E1,3.4681857E2,1.6610833E3,6.971483E1,3.3438138E2,1.8858556E2,3.001356E2,3.0007855E2,2.772801E2,2.574046E2,3.112129E2,4.14937E2,3.244822E2,4.3179776E2,4.6721684E1,2.6008298E3,1.1287089E2,7.3971436E3,1.0132567E1,1.16252625E2,1.310928E1,2.10007E2,2.6199661E1,1.1434261E3,4.9667387E0,1.5355311E1,1.5732951E2,1.8948907E2,1.3385837E3,3.2249948E2,5.466062E1,1.3392494E2,1.4527394E2,1.5486165E2,1.0480095E2,1.952776E2,1.2003748E2,1.5724261E2,7.6483955E1,1.8092064E2,1.587338E2,1.5247908E2,1.5747113E2,2.5746588E2,9.915931E1,2.2532292E2,2.877957E2,1.4400208E2,3.8137035E1,8.584648E0,1.4032621E3,1.1975676E3,6.241146E1,5.0459427E1,5.856333E3,1.5408105E3,9.476594E1,2.1486681E1,7.921518E0,5.187762E0,1.0200937E3,1.23332466E2,5.9404616E0,9.41485E0,1.0254905E2,1.2360347E3,2.1381525E1,3.0111795E2],"tree_param":{"num_deleted":"0","num_feature":"8","num_nodes":"95","size_leaf_vector":"1"}},{"base_weights":[-1.5774216E-3,-2.8444728E-1,1.0945424E0,-9.2647964E-1,4.7014395E-4,1.2232488E0,1.0012776E0,-1.0663695E0,-5.285852E-1,-8.114964E-1,8.991758E-2,1.5898585E-1,1.2187501E0,9.9358296E-1,1.2096738E0,-1.2353679E0,-9.8010516E-1,1.22941606E-1,-1.118648E0,-1.0497398E0,-6.8261325E-1,-5.7595205E-1,1.407868E-1,1.068174E0,1.2218692E0,1.3960944E0,9.895705E-1,1.0772168E-1,1.2507366E-1,-1.1573212E0,-1.2701983E0,-9.233669E-1,-1.2973977E0,-1.1445589E0,4.1512415E-1,-1.2857132E0,-1.0261385E0,-1.1157382E0,-9.3911093E-1,-8.395206E-1,-5.285877E-1,-8.1421804E-1,-2.714614E-1,1.16118014E-1,2.3519394E-1,1.2015352E-1,9.994376E-2,1.4508215E-1,1.2163256E0,1.6844752E-1,1.3108979E-1,7.3458664E-2,9.914896E-1,-1.1987291E-1,-1.1181134E-1,-1.3494118E-1,-1.2417793E-1,-1.2267182E-1,-8.791353E-2,-1.1653184E-1,-1.340113E-1,-1.24850586E-1,-8.235899E-2,-1.0700942E-1,5.5731766E-2,-1.1015885E-1,-1.3152738E-1,-9.195562E-2,-1.3704892E-1,-1.0105933E-1,-1.1352662E-1,-8.8526204E-2,-1.10160284E-1,-1.0565915E-1,-7.0239484E-2,-6.045171E-2,-4.559609E-2,-9.920484E-2,-7.4989125E-2,-1.04002036E-1,-2.5632417E-2,-2.0923795E-2,1.2004465E-2,3.7194476E-2,9.67248E-3,1.21660486E-1,1.1576548E-1,1.1218219E-1,9.7977154E-2],"categories":[],"categories_nodes":[],"categories_segments":[],"categories_sizes":[],"default_left":[0,0,0,0,0,0,0,0,0,0,0,0,0,0,0,0,0,0,0,0,0,0,0,0,0,0,0,0,0,0,0,0,0,0,0,0,0,0,0,0,0,0,0,0,0,0,0,0,0,0,0,0,0,0,0,0,0,0,0,0,0,0,0,0,0,0,0,0,0,0,0,0,0,0,0,0,0,0,0,0,0,0,0,0,0,0,0,0,0],"id":10,"left_children":[1,3,5,7,9,11,13,15,17,19,21,-1,23,25,27,29,31,33,35,37,39,41,43,45,47,49,51,-1,-1,53,55,57,59,61,63,65,67,69,71,73,75,77,79,81,83,-1,-1,-1,85,-1,-1,-1,87,-1,-1,-1,-1,-1,-1,-1,-1,-1,-1,-1,-1,-1,-1,-1,-1,-1,-1,-1,-1,-1,-1,-1,-1,-1,-1,-1,-1,-1,-1,-1,-1,-1,-1,-1,-1],"loss_changes":[5.2645728E3,2.4689727E3,4.158008E1,2.307539E2,6.788614E2,2.1784668E0,3.0135498E0,4.4518066E1,4.1504025E2,2.8303406E1,2.8518048E2,0E0,4.440918E-1,2.9020996E0,1.9267273E-1,2.5689697E0,3.6361816E1,1.8987079E2,8.517578E0,2.1652832E0,1.4415192E1,4.323941E1,1.8184265E1,3.9268494E-2,1.5830078E0,1.2831497E-1,7.5354004E-1,0E0,0E0,2.7026367E-1,1.0732422E0,2.0870361E1,1.6776733E0,3.152687E0,9.022321E1,1.0681763E0,1.2807098E1,2.996521E-1,8.051834E-1,8.670761E0,1.5832748E0,3.519928E0,2.6618385E0,9.268639E0,3.0962433E1,0E0,0E0,0E0,2.553711E-1,0E0,0E0,0E0,1.4504395E0,0E0,0E0,0E0,0E0,0E0,0E0,0E0,0E0,0E0,0E0,0E0,0E0,0E0,0E0,0E0,0E0,0E0,0E0,0E0,0E0,0E0,0E0,0E0,0E0,0E0,0E0,0E0,0E0,0E0,0E0,0E0,0E0,0E0,0E0,0E0,0E0],"parents":[2147483647,0,0,1,1,2,2,3,3,4,4,5,5,6,6,7,7,8,8,9,9,10,10,12,12,13,13,14,14,15,15,16,16,17,17,18,18,19,19,20,20,21,21,22,22,23,23,24,24,25,25,26,26,29,29,30,30,31,31,32,32,33,33,34,34,35,35,36,36,37,37,38,38,39,39,40,40,41,41,42,42,43,43,44,44,48,48,52,52],"right_children":[2,4,6,8,10,12,14,16,18,20,22,-1,24,26,28,30,32,34,36,38,40,42,44,46,48,50,52,-1,-1,54,56,58,60,62,64,66,68,70,72,74,76,78,80,82,84,-1,-1,-1,86,-1,-1,-1,88,-1,-1,-1,-1,-1,-1,-1,-1,-1,-1,-1,-1,-1,-1,-1,-1,-1,-1,-1,-1,-1,-1,-1,-1,-1,-1,-1,-1,-1,-1,-1,-1,-1,-1,-1,-1],"split_conditions":[3E0,7E0,2E0,1E0,6E0,5E0,3E0,5E0,2E0,2E0,2E0,1.5898585E-1,5E0,5E0,6E0,7E0,6E0,2E0,5E0,2E0,2E0,2E0,1E0,7E0,7E0,6E0,4E0,1.0772168E-1,1.2507366E-1,4E0,4E0,1E0,6E0,1E0,7E0,6E0,6E0,4E0,1E0,5E0,5E0,1E0,7E0,7E0,2E0,1.2015352E-1,9.994376E-2,1.4508215E-1,1E0,1.6844752E-1,1.3108979E-1,7.3458664E-2,6E0,-1.1987291E-1,-1.1181134E-1,-1.3494118E-1,-1.2417793E-1,-1.2267182E-1,-8.791353E-2,-1.1653184E-1,-1.340113E-1,-1.24850586E-1,-8.235899E-2,-1.0700942E-1,5.5731766E-2,-1.1015885E-1,-1.3152738E-1,-9.195562E-2,-1.3704892E-1,-1.0105933E-1,-1.1352662E-1,-8.8526204E-2,-1.10160284E-1,-1.0565915E-1,-7.0239484E-2,-6.045171E-2,-4.559609E-2,-9.920484E-2,-7.4989125E-2,-1.04002036E-1,-2.5632417E-2,-2.0923795E-2,1.2004465E-2,3.7194476E-2,9.67248E-3,1.21660486E-1,1.1576548E-1,1.1218219E-1,9.7977154E-2],"split_indices":[3,4,2,1,5,4,7,4,3,3,3,0,5,4,4,5,4,2,4,2,2,2,1,4,5,5,5,0,0,5,4,3,5,3,5,5,4,5,1,5,5,3,5,5,2,0,0,0,1,0,0,0,5,0,0,0,0,0,0,0,0,0,0,0,0,0,0,0,0,0,0,0,0,0,0,0,0,0,0,0,0,0,0,0,0,0,0,0,0],"split_type":[0,0,0,0,0,0,0,0,0,0,0,0,0,0,0,0,0,0,0,0,0,0,0,0,0,0,0,0,0,0,0,0,0,0,0,0,0,0,0,0,0,0,0,0,0,0,0,0,0,0,0,0,0,0,0,0,0,0,0,0,0,0,0,0,0,0,0,0,0,0,0,0,0,0,0,0,0,0,0,0,0,0,0,0,0,0,0,0,0],"sum_hessian":[1.6979492E4,1.3496594E4,3.4828994E3,4.1485625E3,9.34803E3,1.4629178E3,2.0199816E3,3.0692356E3,1.079327E3,9.274915E2,8.420539E3,1.7041836E1,1.4458761E3,1.9485475E3,7.143413E1,1.0368104E3,2.0324252E3,5.128708E2,5.6645624E2,3.2531857E2,6.021729E2,5.9748944E2,7.82305E3,3.0031631E1,1.4158444E3,1.8966824E1,1.9295806E3,2.0212248E1,5.1221878E1,3.208729E2,7.1593756E2,1.7244042E3,3.08021E2,9.601146E1,4.168593E2,2.0146776E2,3.649885E2,2.0316339E2,1.221552E2,2.979636E2,3.0420935E2,3.350079E2,2.6248154E2,6.203202E3,1.6198475E3,8.830635E0,2.1200996E1,3.1932209E1,1.3839122E3,3.6499999E0,1.5316823E1,1.5052312E1,1.9145283E3,1.2978217E2,1.9109073E2,1.4225684E2,5.736807E2,1.9431041E2,1.5300938E3,8.826932E1,2.1975166E2,7.087703E1,2.5134424E1,3.693474E1,3.799246E2,3.4934162E1,1.665336E2,2.8345712E2,8.1531364E1,4.2517773E1,1.6064561E2,9.51096E1,2.7045603E1,1.1123373E2,1.8672986E2,1.421723E2,1.6203705E2,8.245662E1,2.5255128E2,4.44315E0,2.580384E2,8.552299E1,6.117679E3,8.071165E2,8.1273096E2,1.2208276E3,1.6308452E2,8.477892E1,1.8297494E3],"tree_param":{"num_deleted":"0","num_feature":"8","num_nodes":"89","size_leaf_vector":"1"}},{"base_weights":[-1.8040626E-3,-2.6090068E-1,1.0326021E0,-9.153159E-1,-1.5824403E-1,7.564224E-1,1.0599995E0,-1.0707438E0,-8.0031765E-1,-3.9469558E-1,-1.250854E-1,8.631722E-1,7.253223E-1,1.146779E0,9.4435686E-1,-1.1393434E0,-1.0253597E0,-9.0807784E-1,-6.9225866E-1,-7.215518E-1,1.3727878E-1,-2.7950352E-1,-7.095955E-2,8.0017966E-1,1.0185433E-1,-6.453156E-4,7.438118E-1,1.2665544E-1,1.1406932E0,9.3747205E-1,1.1858118E-1,-1.1687325E-1,-1.110778E-1,-1.0542691E0,-9.6727693E-1,-1.0029287E0,-8.296446E-1,-8.6670345E-1,-6.578163E-1,-1.0129576E0,-5.6316364E-1,4.1501814E-1,-7.4781254E-2,-3.3055612E-1,-1.8019438E-1,-3.1144288E-1,-5.380804E-2,7.48455E-2,9.1551654E-2,1.2109334E-1,7.327337E-1,1.2096703E0,1.13424E0,1.0161798E0,9.3101215E-1,-9.10613E-2,-1.05850086E-1,-1.18579514E-1,-9.504088E-2,-9.372365E-2,-1.0490029E-1,-8.7575324E-2,-5.889962E-2,-6.3953504E-2,-8.744749E-2,-6.9316454E-2,-5.081239E-2,-4.8456583E-2,-1.06201574E-1,-5.6546897E-2,6.31438E-3,1.9909162E-2,5.719076E-2,4.198553E-2,-1.2086343E-2,-5.0277367E-2,-3.0708505E-2,-2.7374128E-2,-1.1425252E-2,-3.184657E-2,8.905516E-2,-1.314217E-3,-1.3035488E-2,7.208756E-2,8.9009814E-2,1.2211755E-1,1.0859563E-1,1.0477614E-1,1.14438385E-1,1.209038E-1,9.9434696E-2,6.9909275E-2,9.2790164E-2],"categories":[],"categories_nodes":[],"categories_segments":[],"categories_sizes":[],"default_left":[0,0,0,0,0,0,0,0,0,0,0,0,0,0,0,0,0,0,0,0,0,0,0,0,0,0,0,0,0,0,0,0,0,0,0,0,0,0,0,0,0,0,0,0,0,0,0,0,0,0,0,0,0,0,0,0,0,0,0,0,0,0,0,0,0,0,0,0,0,0,0,0,0,0,0,0,0,0,0,0,0,0,0,0,0,0,0,0,0,0,0,0,0],"id":11,"left_children":[1,3,5,7,9,11,13,15,17,19,21,23,25,27,29,31,33,35,37,39,41,43,45,47,-1,-1,49,-1,51,53,-1,-1,-1,55,57,59,61,63,65,67,69,71,73,75,77,79,81,-1,-1,-1,83,85,87,89,91,-1,-1,-1,-1,-1,-1,-1,-1,-1,-1,-1,-1,-1,-1,-1,-1,-1,-1,-1,-1,-1,-1,-1,-1,-1,-1,-1,-1,-1,-1,-1,-1,-1,-1,-1,-1,-1,-1],"loss_changes":[4.4511074E3,8.921486E2,2.4986816E1,3.1996948E1,8.996216E1,8.367615E-1,3.0154053E1,2.161255E0,1.189447E1,2.4550922E2,8.412326E1,4.9407578E-1,3.2326355E0,1.0842285E0,1.9973145E0,9.460449E-3,5.685425E-1,3.666626E0,2.9546814E0,4.0203033E1,3.1669285E1,1.3196426E1,3.0718292E1,1.0908508E-1,0E0,0E0,9.973297E-1,0E0,4.9365234E-1,4.4348145E-1,0E0,0E0,0E0,2.236023E-1,1.8682861E-1,5.2978516E-1,3.2834015E0,8.368683E-2,2.3652954E0,8.715637E0,1.9632416E0,7.9237366E0,7.0403376E0,6.49736E0,5.47274E0,5.1874695E0,2.1814482E1,0E0,0E0,0E0,1.2239075E-1,6.0806274E-2,1.7720947E0,8.268738E-2,3.5247803E-1,0E0,0E0,0E0,0E0,0E0,0E0,0E0,0E0,0E0,0E0,0E0,0E0,0E0,0E0,0E0,0E0,0E0,0E0,0E0,0E0,0E0,0E0,0E0,0E0,0E0,0E0,0E0,0E0,0E0,0E0,0E0,0E0,0E0,0E0,0E0,0E0,0E0,0E0],"parents":[2147483647,0,0,1,1,2,2,3,3,4,4,5,5,6,6,7,7,8,8,9,9,10,10,11,11,12,12,13,13,14,14,15,15,16,16,17,17,18,18,19,19,20,20,21,21,22,22,23,23,26,26,28,28,29,29,33,33,34,34,35,35,36,36,37,37,38,38,39,39,40,40,41,41,42,42,43,43,44,44,45,45,46,46,50,50,51,51,52,52,53,53,54,54],"right_children":[2,4,6,8,10,12,14,16,18,20,22,24,26,28,30,32,34,36,38,40,42,44,46,48,-1,-1,50,-1,52,54,-1,-1,-1,56,58,60,62,64,66,68,70,72,74,76,78,80,82,-1,-1,-1,84,86,88,90,92,-1,-1,-1,-1,-1,-1,-1,-1,-1,-1,-1,-1,-1,-1,-1,-1,-1,-1,-1,-1,-1,-1,-1,-1,-1,-1,-1,-1,-1,-1,-1,-1,-1,-1,-1,-1,-1,-1],"split_conditions":[3E0,6E0,1E0,2E0,2E0,4E0,2E0,1E0,5E0,1E0,6E0,2E0,5E0,7E0,3E0,1E0,2E0,6E0,1E0,1E0,4E0,2E0,1E0,1E0,1.0185433E-1,-6.453156E-4,6E0,1.2665544E-1,1E0,1E0,1.1858118E-1,-1.1687325E-1,-1.110778E-1,1E0,3E0,1E0,1E0,1E0,1E0,1E0,5E0,1E0,1E0,1E0,1E0,3E0,2E0,7.48455E-2,9.1551654E-2,1.2109334E-1,3E0,1E0,6E0,7E0,4E0,-9.10613E-2,-1.05850086E-1,-1.18579514E-1,-9.504088E-2,-9.372365E-2,-1.0490029E-1,-8.7575324E-2,-5.889962E-2,-6.3953504E-2,-8.744749E-2,-6.9316454E-2,-5.081239E-2,-4.8456583E-2,-1.06201574E-1,-5.6546897E-2,6.31438E-3,1.9909162E-2,5.719076E-2,4.198553E-2,-1.2086343E-2,-5.0277367E-2,-3.0708505E-2,-2.7374128E-2,-1.1425252E-2,-3.184657E-2,8.905516E-2,-1.314217E-3,-1.3035488E-2,7.208756E-2,8.9009814E-2,1.2211755E-1,1.0859563E-1,1.0477614E-1,1.14438385E-1,1.209038E-1,9.9434696E-2,6.9909275E-2,9.2790164E-2],"split_indices":[3,5,0,3,3,6,0,3,5,1,6,6,5,5,7,6,0,6,6,3,6,0,0,1,0,0,5,0,6,6,0,0,0,0,5,6,1,0,1,0,7,3,0,0,6,7,0,0,0,0,7,1,6,5,5,0,0,0,0,0,0,0,0,0,0,0,0,0,0,0,0,0,0,0,0,0,0,0,0,0,0,0,0,0,0,0,0,0,0,0,0,0,0],"split_type":[0,0,0,0,0,0,0,0,0,0,0,0,0,0,0,0,0,0,0,0,0,0,0,0,0,0,0,0,0,0,0,0,0,0,0,0,0,0,0,0,0,0,0,0,0,0,0,0,0,0,0,0,0,0,0,0,0,0,0,0,0,0,0,0,0,0,0,0,0,0,0,0,0,0,0,0,0,0,0,0,0,0,0,0,0,0,0,0,0,0,0,0,0],"sum_hessian":[1.6608191E4,1.3281548E4,3.326643E3,1.8007998E3,1.1480748E4,3.0056754E2,3.0260757E3,7.653983E2,1.0354015E3,1.4116111E3,1.0069138E4,6.705384E1,2.3351369E2,1.7282595E3,1.297816E3,3.0382315E2,4.6157513E2,5.179352E2,5.174663E2,8.7448975E2,5.3712134E2,2.6128792E3,7.4562583E3,4.8659496E1,1.839434E1,5.6227875E0,2.278909E2,7.84156E1,1.649844E3,1.2631671E3,3.464897E1,1.1556032E2,1.8826282E2,3.069724E2,1.5460274E2,2.3382645E2,2.8410873E2,8.482307E1,4.3264325E2,3.077061E2,5.667837E2,2.327473E2,3.0437405E2,1.7250563E3,8.878229E2,4.9599402E2,6.960264E3,3.547935E1,1.3180145E1,4.987267E0,2.2290363E2,1.3973047E2,1.5101135E3,9.457175E1,1.1685953E3,2.1347755E1,2.8562466E2,7.186016E0,1.4741672E2,1.0869935E2,1.251271E2,2.3361429E2,5.0494434E1,4.938097E0,7.9884964E1,3.4111053E2,9.153273E1,2.9242981E1,2.784631E2,5.621106E2,4.6731176E0,9.9619354E1,1.3312794E2,2.5981707E1,2.7839233E2,1.9059613E2,1.5344602E3,3.610167E2,5.2680615E2,4.9250668E2,3.4873133E0,4.5636226E3,2.3966416E3,2.1312917E2,9.7744665E0,1.2028709E2,1.9443388E1,2.5568677E2,1.2544268E3,6.697375E0,8.787437E1,1.0329412E1,1.1582659E3],"tree_param":{"num_deleted":"0","num_feature":"8","num_nodes":"93","size_leaf_vector":"1"}},{"base_weights":[-1.0068434E-3,-2.374916E-1,9.770864E-1,-8.554644E-1,2.1435296E-2,1.2518868E0,9.7305113E-1,-9.894974E-1,-4.8464996E-1,-7.1310955E-1,9.535934E-2,1.3522593E0,9.627677E-2,9.700773E-1,1.1395034E-1,-1.17483E0,-8.974682E-1,1.1093493E-1,-1.0375006E0,-9.6666497E-1,-5.8453244E-1,-4.854119E-1,1.3800442E-1,1.4748432E-1,1.2549426E-1,1.032178E0,9.646397E-1,-1.1134393E0,-1.2228156E0,-8.377688E-1,-1.2418963E0,-1.0392593E0,2.6377973E-1,-1.2235869E0,-9.3858165E-1,-9.094267E-1,-9.8395705E-1,-7.083268E-1,-4.9748933E-1,-3.4781724E-1,-5.780462E-1,4.378916E-2,1.6716541E-1,1.1585543E0,1.0112547E0,9.061702E-1,9.7768754E-1,-1.1930716E-1,-1.0785793E-1,-1.0864275E-1,-1.2454953E-1,-1.1624592E-1,-7.947698E-2,-1.11271404E-1,-1.2799942E-1,-1.0800477E-1,-8.761703E-2,-7.2961114E-4,5.4970466E-2,-1.0391303E-1,-1.2515035E-1,-8.3736874E-2,-1.2829743E-1,-1.1701872E-1,-8.83578E-2,-9.6284844E-2,-1.07845634E-1,-8.5670464E-2,-6.2369272E-2,-5.313031E-2,-3.5614386E-2,-3.9933432E-2,2.004895E-2,-8.7434895E-2,-4.9918063E-2,1.5017882E-3,1.6373001E-2,1.4738704E-2,2.3615357E-2,1.273725E-1,4.6709456E-2,7.8938834E-2,1.0130092E-1,9.215013E-2,7.6301105E-2,9.4170816E-2,9.756751E-2],"categories":[],"categories_nodes":[],"categories_segments":[],"categories_sizes":[],"default_left":[0,0,0,0,0,0,0,0,0,0,0,0,0,0,0,0,0,0,0,0,0,0,0,0,0,0,0,0,0,0,0,0,0,0,0,0,0,0,0,0,0,0,0,0,0,0,0,0,0,0,0,0,0,0,0,0,0,0,0,0,0,0,0,0,0,0,0,0,0,0,0,0,0,0,0,0,0,0,0,0,0,0,0,0,0,0,0],"id":12,"left_children":[1,3,5,7,9,11,13,15,17,19,21,23,-1,25,-1,27,29,31,33,35,37,39,41,-1,-1,43,45,47,49,51,53,55,57,59,61,63,65,67,69,71,73,75,77,79,81,83,85,-1,-1,-1,-1,-1,-1,-1,-1,-1,-1,-1,-1,-1,-1,-1,-1,-1,-1,-1,-1,-1,-1,-1,-1,-1,-1,-1,-1,-1,-1,-1,-1,-1,-1,-1,-1,-1,-1,-1,-1],"loss_changes":[3.7673835E3,2.0988726E3,3.2888184E0,1.9235107E2,5.0186685E2,1.0589676E0,1.3884277E0,4.830664E1,3.387442E2,2.7393707E1,2.0797055E2,1.1059189E-1,0E0,8.342285E-1,0E0,2.5394287E0,3.887976E1,8.69523E1,9.598572E0,8.8134766E-2,5.9235992E0,7.227722E0,2.1475128E1,0E0,0E0,4.2797852E-1,1.9650879E0,8.0145264E-1,1.7913208E0,2.0543335E1,1.3098145E0,2.2780228E-1,3.4288055E1,9.1134644E-1,1.1624115E1,1.6731644E-1,1.3534546E-1,2.722847E0,1.5987015E0,6.8503323E0,7.7195435E0,6.395833E0,7.9279175E0,2.7010078E0,1.505127E-1,1.2914734E0,3.881836E-2,0E0,0E0,0E0,0E0,0E0,0E0,0E0,0E0,0E0,0E0,0E0,0E0,0E0,0E0,0E0,0E0,0E0,0E0,0E0,0E0,0E0,0E0,0E0,0E0,0E0,0E0,0E0,0E0,0E0,0E0,0E0,0E0,0E0,0E0,0E0,0E0,0E0,0E0,0E0,0E0],"parents":[2147483647,0,0,1,1,2,2,3,3,4,4,5,5,6,6,7,7,8,8,9,9,10,10,11,11,13,13,15,15,16,16,17,17,18,18,19,19,20,20,21,21,22,22,25,25,26,26,27,27,28,28,29,29,30,30,31,31,32,32,33,33,34,34,35,35,36,36,37,37,38,38,39,39,40,40,41,41,42,42,43,43,44,44,45,45,46,46],"right_children":[2,4,6,8,10,12,14,16,18,20,22,24,-1,26,-1,28,30,32,34,36,38,40,42,-1,-1,44,46,48,50,52,54,56,58,60,62,64,66,68,70,72,74,76,78,80,82,84,86,-1,-1,-1,-1,-1,-1,-1,-1,-1,-1,-1,-1,-1,-1,-1,-1,-1,-1,-1,-1,-1,-1,-1,-1,-1,-1,-1,-1,-1,-1,-1,-1,-1,-1,-1,-1,-1,-1,-1,-1],"split_conditions":[3E0,7E0,5E0,1E0,6E0,3E0,3E0,5E0,2E0,2E0,2E0,6E0,9.627677E-2,1E0,1.1395034E-1,6E0,6E0,7E0,5E0,4E0,5E0,7E0,6E0,1.4748432E-1,1.2549426E-1,7E0,6E0,4E0,6E0,1E0,6E0,5E0,6E0,6E0,6E0,3E0,1E0,4E0,1E0,4E0,1E0,1E0,1E0,1E0,5E0,4E0,6E0,-1.1930716E-1,-1.0785793E-1,-1.0864275E-1,-1.2454953E-1,-1.1624592E-1,-7.947698E-2,-1.11271404E-1,-1.2799942E-1,-1.0800477E-1,-8.761703E-2,-7.2961114E-4,5.4970466E-2,-1.0391303E-1,-1.2515035E-1,-8.3736874E-2,-1.2829743E-1,-1.1701872E-1,-8.83578E-2,-9.6284844E-2,-1.07845634E-1,-8.5670464E-2,-6.2369272E-2,-5.313031E-2,-3.5614386E-2,-3.9933432E-2,2.004895E-2,-8.7434895E-2,-4.9918063E-2,1.5017882E-3,1.6373001E-2,1.4738704E-2,2.3615357E-2,1.273725E-1,4.6709456E-2,7.8938834E-2,1.0130092E-1,9.215013E-2,7.6301105E-2,9.4170816E-2,9.756751E-2],"split_indices":[3,4,4,1,5,7,7,4,3,3,3,6,0,6,0,6,4,5,4,5,5,6,6,0,0,4,6,4,5,3,5,5,4,5,4,5,1,6,1,6,3,1,1,1,5,6,4,0,0,0,0,0,0,0,0,0,0,0,0,0,0,0,0,0,0,0,0,0,0,0,0,0,0,0,0,0,0,0,0,0,0,0,0,0,0,0,0],"split_type":[0,0,0,0,0,0,0,0,0,0,0,0,0,0,0,0,0,0,0,0,0,0,0,0,0,0,0,0,0,0,0,0,0,0,0,0,0,0,0,0,0,0,0,0,0,0,0,0,0,0,0,0,0,0,0,0,0,0,0,0,0,0,0,0,0,0,0,0,0,0,0,0,0,0,0,0,0,0,0,0,0,0,0,0,0,0,0],"sum_hessian":[1.6287879E4,1.3116628E4,3.1712505E3,3.8731255E3,9.243503E3,4.5510406E1,3.12574E3,2.8446375E3,1.0284879E3,8.4507153E2,8.398432E3,3.3346703E1,1.2163704E1,3.0734204E3,5.2319633E1,9.4347485E2,1.9011627E3,4.9502502E2,5.3346295E2,2.840703E2,5.610013E2,5.743354E2,7.8240957E3,1.3157933E1,2.018877E1,2.4587976E2,2.8275405E3,4.1489566E2,5.2857916E2,1.6205787E3,2.8058395E2,5.7985466E1,4.3703955E2,1.8478043E2,3.4868253E2,6.731613E1,2.1675417E2,2.311182E2,3.2988306E2,2.3152994E2,3.4280545E2,1.8500941E3,5.974002E3,3.420459E1,2.1167517E2,5.173303E2,2.3102102E3,1.03535706E2,3.1135992E2,9.8047195E1,4.3053198E2,1.6922047E2,1.4513583E3,7.582388E1,2.0476007E2,4.427111E1,1.37143545E1,2.2529362E2,2.1174593E2,3.055449E1,1.5422594E2,2.7370215E2,7.498038E1,4.5443254E0,6.277181E1,1.8808488E2,2.866928E1,7.9695404E1,1.5142279E2,2.605475E2,6.933559E1,2.1108253E2,2.0447407E1,6.8924324E1,2.7388113E2,1.4957761E3,3.543179E2,4.7050005E3,1.2690011E3,2.8927977E1,5.276615E0,7.310776E0,2.043644E2,4.5060718E2,6.672317E1,2.2653543E2,2.0836748E3],"tree_param":{"num_deleted":"0","num_feature":"8","num_nodes":"87","size_leaf_vector":"1"}},{"base_weights":[-3.370869E-4,-6.5788764E-1,9.1274634E-2,-8.130531E-1,-5.249735E-1,-1.2016264E-2,1.3097388E-1,-9.2469335E-1,-6.464468E-1,-6.406005E-1,-3.9803734E-1,-9.013149E-2,6.265763E-2,-4.4211946E-2,1.4477465E-1,-9.8821706E-1,-7.859461E-1,-7.387911E-1,-5.0274956E-1,-8.6485285E-1,-4.5227945E-1,-6.4376616E-1,-3.616914E-1,-3.7060603E-1,-7.000997E-2,5.0720457E-2,5.3496075E-1,-6.3430294E-2,8.239813E-1,-7.357526E-2,1.518499E-1,-7.1614075E-1,-1.0071592E0,-8.37585E-1,-4.267347E-1,-7.7943194E-1,-5.3256106E-1,-5.3766114E-1,-3.34362E-1,-9.4503427E-1,-7.153416E-1,-5.4893595E-1,-1.2714355E-1,-1.03025384E-1,-6.184934E-1,-3.3841166E-1,-4.21577E-1,-2.535417E-1,-8.9307094E-1,-1.10207625E-1,6.929845E-3,2.2163965E-2,1.2495898E-1,3.106491E-1,9.328396E-1,-1.296269E-3,-2.3166744E-1,9.668923E-2,6.6532105E-2,2.3738705E-2,-6.0336334E-1,1.7646295E-1,1.105016E-1,-6.679197E-2,-9.5963255E-2,-1.0293314E-1,-9.475166E-2,-8.67201E-2,-6.4950846E-2,-7.5475454E-2,-8.946503E-3,-1.02834605E-1,-7.539595E-2,-4.4741355E-2,-7.69993E-2,-5.6482084E-2,-4.866081E-2,-2.2087606E-2,-5.772912E-2,-1.0572652E-1,-8.9662075E-2,-6.8922706E-2,-9.2165284E-2,-7.66627E-2,-5.28421E-2,3.283981E-2,-1.5950983E-2,-6.6060886E-2,-4.4637162E-2,-3.601442E-2,-3.1790998E-2,-7.077116E-2,-3.9603055E-2,-3.7058603E-2,2.4783446E-2,-7.822133E-2,-1.4636227E-1,-2.2972336E-2,-9.195693E-3,-6.2393593E-3,2.1654408E-2,-1.6735644E-3,1.1904082E-2,1.5335872E-2,-1.6003419E-2,6.391563E-2,1.0979245E-2,8.1316344E-2,1.3588616E-1,4.324887E-3,-6.693833E-3,-1.1707067E-2,-3.1546153E-2,1.201518E-2,-2.3787946E-2,-6.4220145E-2,-4.829163E-2,1.155766E-2,2.5501657E-2,1.5556121E-2,6.6065425E-3],"categories":[],"categories_nodes":[],"categories_segments":[],"categories_sizes":[],"default_left":[0,0,0,0,0,0,0,0,0,0,0,0,0,0,0,0,0,0,0,0,0,0,0,0,0,0,0,0,0,0,0,0,0,0,0,0,0,0,0,0,0,0,0,0,0,0,0,0,0,0,0,0,0,0,0,0,0,0,0,0,0,0,0,0,0,0,0,0,0,0,0,0,0,0,0,0,0,0,0,0,0,0,0,0,0,0,0,0,0,0,0,0,0,0,0,0,0,0,0,0,0,0,0,0,0,0,0,0,0,0,0,0,0,0,0,0,0,0,0,0,0],"id":13,"left_children":[1,3,5,7,9,11,13,15,17,19,21,23,25,27,29,31,33,35,37,39,41,43,45,47,49,51,53,55,57,59,61,63,65,67,69,71,73,75,77,79,81,83,85,-1,87,89,91,93,95,97,99,101,103,105,107,109,111,-1,-1,113,115,117,119,-1,-1,-1,-1,-1,-1,-1,-1,-1,-1,-1,-1,-1,-1,-1,-1,-1,-1,-1,-1,-1,-1,-1,-1,-1,-1,-1,-1,-1,-1,-1,-1,-1,-1,-1,-1,-1,-1,-1,-1,-1,-1,-1,-1,-1,-1,-1,-1,-1,-1,-1,-1,-1,-1,-1,-1,-1,-1],"loss_changes":[9.595631E2,4.003833E1,5.7339066E1,1.6550598E1,1.5300232E1,2.2639866E1,2.442772E1,4.557373E0,4.6629333E0,2.3044952E1,4.371277E0,1.0663971E1,1.112449E1,1.2222264E1,1.4471878E1,1.7226257E0,3.013832E0,1.7050705E0,7.450676E-1,2.8316498E0,9.315563E0,4.680748E-1,5.3258896E-1,7.632822E0,5.4865007E0,4.0871086E0,4.2206736E0,7.5154495E0,1.976347E-1,1.5184995E1,9.201263E0,1.0376549E-1,3.175354E-1,7.822037E-1,2.3248131E0,8.1134033E-1,6.064167E-1,6.46019E-2,6.0561633E-1,6.338806E-1,2.5066376E-1,7.6821136E-1,1.0271788E0,0E0,3.5757446E-1,7.2208405E-2,7.090759E-1,6.2169447E0,1.189436E0,2.462741E0,8.92593E0,5.327159E0,4.483326E0,2.006358E0,6.455059E-1,1.5603659E0,1.8480396E0,0E0,0E0,6.310869E0,1.1402702E-1,2.7341202E1,6.8284035E0,0E0,0E0,0E0,0E0,0E0,0E0,0E0,0E0,0E0,0E0,0E0,0E0,0E0,0E0,0E0,0E0,0E0,0E0,0E0,0E0,0E0,0E0,0E0,0E0,0E0,0E0,0E0,0E0,0E0,0E0,0E0,0E0,0E0,0E0,0E0,0E0,0E0,0E0,0E0,0E0,0E0,0E0,0E0,0E0,0E0,0E0,0E0,0E0,0E0,0E0,0E0,0E0,0E0,0E0,0E0,0E0,0E0,0E0],"parents":[2147483647,0,0,1,1,2,2,3,3,4,4,5,5,6,6,7,7,8,8,9,9,10,10,11,11,12,12,13,13,14,14,15,15,16,16,17,17,18,18,19,19,20,20,21,21,22,22,23,23,24,24,25,25,26,26,27,27,28,28,29,29,30,30,31,31,32,32,33,33,34,34,35,35,36,36,37,37,38,38,39,39,40,40,41,41,42,42,44,44,45,45,46,46,47,47,48,48,49,49,50,50,51,51,52,52,53,53,54,54,55,55,56,56,59,59,60,60,61,61,62,62],"right_children":[2,4,6,8,10,12,14,16,18,20,22,24,26,28,30,32,34,36,38,40,42,44,46,48,50,52,54,56,58,60,62,64,66,68,70,72,74,76,78,80,82,84,86,-1,88,90,92,94,96,98,100,102,104,106,108,110,112,-1,-1,114,116,118,120,-1,-1,-1,-1,-1,-1,-1,-1,-1,-1,-1,-1,-1,-1,-1,-1,-1,-1,-1,-1,-1,-1,-1,-1,-1,-1,-1,-1,-1,-1,-1,-1,-1,-1,-1,-1,-1,-1,-1,-1,-1,-1,-1,-1,-1,-1,-1,-1,-1,-1,-1,-1,-1,-1,-1,-1,-1,-1],"split_conditions":[7E0,7E0,7E0,2E0,2E0,2E0,1E0,5E0,5E0,5E0,4E0,1E0,6E0,3E0,1E0,1E0,1E0,3E0,3E0,2E0,6E0,1E0,1E0,1E0,2E0,2E0,2E0,1E0,6E0,1E0,2E0,2E0,2E0,6E0,1E0,3E0,1E0,2E0,4E0,4E0,1E0,1E0,1E0,-1.03025384E-1,1E0,5E0,1E0,3E0,2E0,1E0,1E0,1E0,3E0,2E0,4E0,2E0,2E0,9.668923E-2,6.6532105E-2,2E0,2E0,2E0,2E0,-6.679197E-2,-9.5963255E-2,-1.0293314E-1,-9.475166E-2,-8.67201E-2,-6.4950846E-2,-7.5475454E-2,-8.946503E-3,-1.02834605E-1,-7.539595E-2,-4.4741355E-2,-7.69993E-2,-5.6482084E-2,-4.866081E-2,-2.2087606E-2,-5.772912E-2,-1.0572652E-1,-8.9662075E-2,-6.8922706E-2,-9.2165284E-2,-7.66627E-2,-5.28421E-2,3.283981E-2,-1.5950983E-2,-6.6060886E-2,-4.4637162E-2,-3.601442E-2,-3.1790998E-2,-7.077116E-2,-3.9603055E-2,-3.7058603E-2,2.4783446E-2,-7.822133E-2,-1.4636227E-1,-2.2972336E-2,-9.195693E-3,-6.2393593E-3,2.1654408E-2,-1.6735644E-3,1.1904082E-2,1.5335872E-2,-1.6003419E-2,6.391563E-2,1.0979245E-2,8.1316344E-2,1.3588616E-1,4.324887E-3,-6.693833E-3,-1.1707067E-2,-3.1546153E-2,1.201518E-2,-2.3787946E-2,-6.4220145E-2,-4.829163E-2,1.155766E-2,2.5501657E-2,1.5556121E-2,6.6065425E-3],"split_indices":[5,6,6,2,2,2,0,5,5,5,5,2,7,7,2,0,1,6,6,0,5,0,1,1,0,6,6,1,7,1,0,6,0,5,6,5,1,0,6,5,1,2,2,0,1,5,0,6,6,0,1,1,7,0,6,2,2,0,0,0,0,2,2,0,0,0,0,0,0,0,0,0,0,0,0,0,0,0,0,0,0,0,0,0,0,0,0,0,0,0,0,0,0,0,0,0,0,0,0,0,0,0,0,0,0,0,0,0,0,0,0,0,0,0,0,0,0,0,0,0,0],"split_type":[0,0,0,0,0,0,0,0,0,0,0,0,0,0,0,0,0,0,0,0,0,0,0,0,0,0,0,0,0,0,0,0,0,0,0,0,0,0,0,0,0,0,0,0,0,0,0,0,0,0,0,0,0,0,0,0,0,0,0,0,0,0,0,0,0,0,0,0,0,0,0,0,0,0,0,0,0,0,0,0,0,0,0,0,0,0,0,0,0,0,0,0,0,0,0,0,0,0,0,0,0,0,0,0,0,0,0,0,0,0,0,0,0,0,0,0,0,0,0,0,0],"sum_hessian":[1.5928235E4,1.94792E3,1.3980315E4,8.9837256E2,1.0495475E3,3.8807512E3,1.0099564E4,5.375473E2,3.608253E2,5.488192E2,5.007282E2,1.897318E3,1.9834333E3,7.3699817E2,9.362566E3,3.6821295E2,1.6933435E2,2.192277E2,1.4159758E2,2.5026076E2,2.9855847E2,6.415532E1,4.3657288E2,1.2666761E2,1.7706504E3,1.9347502E3,4.8683064E1,7.2115466E2,1.5843556E1,2.934156E2,9.06915E3,2.4323011E1,3.4388992E2,1.4780286E2,2.15315E1,1.8272194E2,3.6505764E1,1.1678357E2,2.4814014E1,1.6244629E2,8.7814476E1,2.2990404E2,6.865445E1,3.6320057E0,6.0523315E1,3.1558698E2,1.209859E2,1.03643936E2,2.3023676E1,1.1638645E3,6.067859E2,1.3982437E3,5.365066E2,3.129823E1,1.7384834E1,5.27084E2,1.9407062E2,7.757212E0,8.086345E0,2.477309E2,4.568468E1,5.683544E3,3.3856064E3,2.098352E1,3.339491E0,2.2647485E2,1.17415085E2,1.2414119E2,2.3661667E1,1.0688676E1,1.0842824E1,1.3767854E1,1.6895409E2,2.751512E1,8.990643E0,7.057938E1,4.6204185E1,1.7323553E1,7.4904613E0,4.312473E1,1.1932155E2,7.9860855E1,7.9536214E0,1.6495647E1,2.1340839E2,4.4457955E0,6.420866E1,4.7204655E1,1.331866E1,1.371114E2,1.7847559E2,8.699828E0,1.1228607E2,8.395803E1,1.9685902E1,1.9598858E1,3.4248195E0,1.4841484E2,1.01544965E3,4.5571616E2,1.5106975E2,9.9816705E2,4.000766E2,4.8704547E2,4.946109E1,1.1584792E1,1.9713438E1,1.3928364E1,3.456471E0,3.1314362E2,2.1394041E2,8.369961E1,1.1037101E2,1.812084E2,6.6522484E1,3.2968918E1,1.2715762E1,3.2415188E3,2.4420251E3,1.6572524E3,1.7283541E3],"tree_param":{"num_deleted":"0","num_feature":"8","num_nodes":"121","size_leaf_vector":"1"}},{"base_weights":[-4.7766543E-3,-2.2193943E-1,9.209836E-1,-8.0841047E-1,1.3589504E-2,1.0664028E0,8.1714237E-1,-9.4436276E-1,-4.4519147E-1,-5.86922E-1,7.3064305E-2,9.8074836E-1,1.092972E0,8.0761325E-1,1.1014096E0,-1.1351755E0,-8.51641E-1,1.0688908E-1,-9.771173E-1,-7.817545E-1,-3.2845998E-1,-1.599639E-2,1.0157053E-1,1.0871018E0,9.2081183E-1,1.102551E0,1.0142933E0,8.9882714E-1,7.8737754E-1,9.418125E-2,1.1524902E-1,-1.0749694E0,-1.1814364E0,-7.91994E-1,-1.2074839E0,-1.065145E0,3.62796E-1,-1.1745735E0,-8.7202895E-1,-6.949235E-1,-8.489894E-1,-2.810933E-1,-5.3301555E-1,-4.1224092E-1,-2.3608445E-4,8.256138E-2,1.72675E-1,1.3548528E-1,1.0676012E0,1.3821548E-1,9.124838E-1,1.3751982E-1,1.1000172E0,1.3441125E-1,1.0027349E0,1.1097442E0,8.65449E-2,1.0630479E-1,7.8490317E-1,-1.1812347E-1,-1.0325416E-1,-1.2059593E-1,-1.11734934E-1,-1.1289417E-1,-7.5006895E-2,-1.1035571E-1,-1.2502515E-1,-1.19601615E-1,-6.953878E-2,5.622208E-2,-2.8179318E-3,-1.2414435E-1,-1.094335E-1,-7.633106E-2,-1.247542E-1,-7.261853E-2,-1.3168863E-2,-1.14335455E-1,-7.709493E-2,-5.074711E-2,-2.3581611E-2,-2.0614676E-2,-7.675356E-2,-5.347434E-2,1.09943235E-2,-2.4050542E-3,9.85503E-3,8.618489E-3,7.530501E-3,3.0655848E-2,4.3948214E-3,1.4182822E-1,1.0480867E-1,1.04310654E-1,8.972842E-2,1.021782E-1,1.10407256E-1,1.1231051E-1,9.695463E-2,1.40577E-1,1.0473676E-1,7.050234E-2,7.8913376E-2],"categories":[],"categories_nodes":[],"categories_segments":[],"categories_sizes":[],"default_left":[0,0,0,0,0,0,0,0,0,0,0,0,0,0,0,0,0,0,0,0,0,0,0,0,0,0,0,0,0,0,0,0,0,0,0,0,0,0,0,0,0,0,0,0,0,0,0,0,0,0,0,0,0,0,0,0,0,0,0,0,0,0,0,0,0,0,0,0,0,0,0,0,0,0,0,0,0,0,0,0,0,0,0,0,0,0,0,0,0,0,0,0,0,0,0,0,0,0,0,0,0,0,0],"id":14,"left_children":[1,3,5,7,9,11,13,15,17,19,21,23,25,27,29,31,33,35,37,39,41,43,45,47,49,51,53,55,57,-1,-1,59,61,63,65,67,69,71,73,75,77,79,81,83,85,87,89,-1,91,-1,93,-1,95,-1,97,99,-1,-1,101,-1,-1,-1,-1,-1,-1,-1,-1,-1,-1,-1,-1,-1,-1,-1,-1,-1,-1,-1,-1,-1,-1,-1,-1,-1,-1,-1,-1,-1,-1,-1,-1,-1,-1,-1,-1,-1,-1,-1,-1,-1,-1,-1,-1],"loss_changes":[3.1806575E3,1.77026E3,4.520117E1,1.811897E2,3.2650018E2,2.637085E0,4.557129E0,4.7067383E1,2.9384857E2,4.137195E1,2.1129578E1,1.6903076E0,5.029297E-1,2.9622803E0,2.85614E-1,2.201294E0,3.796753E1,1.4713315E2,1.0364441E1,2.5844421E0,3.3514557E0,1.2551188E1,8.494087E0,3.218689E-1,5.091553E-1,3.4765625E-1,1.6680145E-1,1.6557617E0,7.7960205E-1,0E0,0E0,1.3500061E0,6.489868E-1,1.9806824E1,1.0090027E0,4.225395E0,3.1962276E1,7.249756E-1,1.3101776E1,3.9865265E0,5.6620636E0,2.829485E0,5.0509663E0,5.083987E0,4.6053276E0,1.2330246E-1,2.3103466E1,0E0,2.3904419E-1,0E0,6.472778E-2,0E0,3.9782715E-1,0E0,1.4356232E-1,3.7163162E-1,0E0,0E0,7.420044E-1,0E0,0E0,0E0,0E0,0E0,0E0,0E0,0E0,0E0,0E0,0E0,0E0,0E0,0E0,0E0,0E0,0E0,0E0,0E0,0E0,0E0,0E0,0E0,0E0,0E0,0E0,0E0,0E0,0E0,0E0,0E0,0E0,0E0,0E0,0E0,0E0,0E0,0E0,0E0,0E0,0E0,0E0,0E0,0E0],"parents":[2147483647,0,0,1,1,2,2,3,3,4,4,5,5,6,6,7,7,8,8,9,9,10,10,11,11,12,12,13,13,14,14,15,15,16,16,17,17,18,18,19,19,20,20,21,21,22,22,23,23,24,24,25,25,26,26,27,27,28,28,31,31,32,32,33,33,34,34,35,35,36,36,37,37,38,38,39,39,40,40,41,41,42,42,43,43,44,44,45,45,46,46,48,48,50,50,52,52,54,54,55,55,58,58],"right_children":[2,4,6,8,10,12,14,16,18,20,22,24,26,28,30,32,34,36,38,40,42,44,46,48,50,52,54,56,58,-1,-1,60,62,64,66,68,70,72,74,76,78,80,82,84,86,88,90,-1,92,-1,94,-1,96,-1,98,100,-1,-1,102,-1,-1,-1,-1,-1,-1,-1,-1,-1,-1,-1,-1,-1,-1,-1,-1,-1,-1,-1,-1,-1,-1,-1,-1,-1,-1,-1,-1,-1,-1,-1,-1,-1,-1,-1,-1,-1,-1,-1,-1,-1,-1,-1,-1],"split_conditions":[3E0,7E0,2E0,1E0,2E0,6E0,3E0,5E0,2E0,2E0,6E0,1E0,1E0,2E0,6E0,6E0,6E0,2E0,5E0,7E0,1E0,1E0,1E0,1E0,5E0,5E0,1E0,7E0,5E0,9.418125E-2,1.1524902E-1,4E0,2E0,1E0,7E0,1E0,3E0,4E0,6E0,4E0,1E0,1E0,6E0,2E0,1E0,2E0,2E0,1.3548528E-1,5E0,1.3821548E-1,1E0,1.3751982E-1,6E0,1.3441125E-1,6E0,5E0,8.65449E-2,1.0630479E-1,6E0,-1.1812347E-1,-1.0325416E-1,-1.2059593E-1,-1.11734934E-1,-1.1289417E-1,-7.5006895E-2,-1.1035571E-1,-1.2502515E-1,-1.19601615E-1,-6.953878E-2,5.622208E-2,-2.8179318E-3,-1.2414435E-1,-1.094335E-1,-7.633106E-2,-1.247542E-1,-7.261853E-2,-1.3168863E-2,-1.14335455E-1,-7.709493E-2,-5.074711E-2,-2.3581611E-2,-2.0614676E-2,-7.675356E-2,-5.347434E-2,1.09943235E-2,-2.4050542E-3,9.85503E-3,8.618489E-3,7.530501E-3,3.0655848E-2,4.3948214E-3,1.4182822E-1,1.0480867E-1,1.04310654E-1,8.972842E-2,1.021782E-1,1.10407256E-1,1.1231051E-1,9.695463E-2,1.40577E-1,1.0473676E-1,7.050234E-2,7.8913376E-2],"split_indices":[3,4,2,1,3,6,7,4,3,2,6,6,1,6,4,6,4,2,4,6,1,2,1,2,4,4,2,4,4,0,0,4,2,3,6,3,7,4,4,6,3,6,6,6,1,2,2,0,4,0,2,0,4,0,4,4,0,0,6,0,0,0,0,0,0,0,0,0,0,0,0,0,0,0,0,0,0,0,0,0,0,0,0,0,0,0,0,0,0,0,0,0,0,0,0,0,0,0,0,0,0,0,0],"split_type":[0,0,0,0,0,0,0,0,0,0,0,0,0,0,0,0,0,0,0,0,0,0,0,0,0,0,0,0,0,0,0,0,0,0,0,0,0,0,0,0,0,0,0,0,0,0,0,0,0,0,0,0,0,0,0,0,0,0,0,0,0,0,0,0,0,0,0,0,0,0,0,0,0,0,0,0,0,0,0,0,0,0,0,0,0,0,0,0,0,0,0,0,0,0,0,0,0,0,0,0,0,0,0],"sum_hessian":[1.5821297E4,1.2815238E4,3.0060583E3,3.672086E3,9.143152E3,1.251894E3,1.7541643E3,2.6717659E3,1.0003201E3,8.2378204E2,8.31937E3,2.9732944E2,9.5456464E2,1.6976299E3,5.653438E1,8.7335077E2,1.798415E3,4.9077206E2,5.0954803E2,4.6948303E2,3.54299E2,2.0163417E3,6.303029E3,1.06532585E2,1.9079684E2,8.497667E2,1.04797935E2,3.0729745E2,1.3903324E3,1.5806591E1,4.072779E1,3.8047696E2,4.928738E2,1.5404935E3,2.579216E2,8.788025E1,4.0289185E2,1.7664076E2,3.3290726E2,2.0555812E2,2.639249E2,2.8808838E2,6.621064E1,7.688431E1,1.9394574E3,4.974535E3,1.3284935E3,6.685567E0,9.984702E1,3.1035953E0,1.8769325E2,7.235127E0,8.425316E2,3.1650293E0,1.01632904E2,3.63222E1,2.7097525E2,1.1743249E1,1.3785892E3,9.294757E1,2.875294E2,3.196664E2,1.7320741E2,1.5273839E2,1.3877551E3,8.7421104E1,1.7050049E2,6.3686684E1,2.4193562E1,2.6562643E2,1.3726538E2,8.798362E1,8.865715E1,2.6163098E2,7.1276276E1,1.9327954E2,1.227858E1,5.176406E1,2.1216084E2,4.6027744E1,2.4206064E2,2.8180435E1,3.8030205E1,6.2160797E1,1.4723513E1,1.5635154E3,3.7594196E2,3.104145E3,1.8703901E3,6.460912E2,6.8240234E2,3.4125412E0,9.643448E1,1.2478964E1,1.752143E2,1.0382701E2,7.387046E2,1.7682617E1,8.395029E1,5.4130874E0,3.0909115E1,1.4027603E2,1.2383131E3],"tree_param":{"num_deleted":"0","num_feature":"8","num_nodes":"103","size_leaf_vector":"1"}},{"base_weights":[-4.1836817E-3,-2.0419547E-1,8.7430304E-1,-7.660821E-1,1.16627235E-2,1.0215697E0,7.707221E-1,-4.9733973E-1,-8.9061326E-1,-6.272908E-1,7.043128E-2,9.255051E-1,1.051473E0,7.6228476E-1,1.0173002E0,-9.790336E-1,-5.0765093E-2,-1.1107408E0,-7.8712296E-1,-8.864213E-1,-5.0568813E-1,-4.1172528E-1,1.04940556E-1,1.0272837E0,8.68753E-1,7.499476E-2,1.0565668E0,8.599916E-1,7.405855E-1,8.573322E-2,1.07116185E-1,-1.1386657E0,-7.8066057E-1,-9.602747E-1,1.7726612E-1,-1.0316706E0,-1.1619521E0,-7.0783716E-1,-1.195251E0,-9.6683997E-1,-7.6261896E-1,-6.9328684E-1,-3.3023173E-1,-6.310527E-1,-1.518153E-1,3.9063033E-2,1.2529954E-1,1.3076174E-1,1.0058358E0,9.9535584E-1,8.5867393E-1,1.22855395E-1,1.0520247E0,1.0366397E0,8.304832E-2,9.9607915E-2,7.3834455E-1,-1.0989975E-1,-1.15771614E-1,-1.0121082E-1,-5.6578696E-2,-1.10216536E-1,-8.362264E-2,-9.287571E-3,5.110136E-2,-1.1495904E-1,-9.64217E-2,-9.966632E-2,-1.18090466E-1,-6.4132474E-2,-7.7604376E-2,-9.899076E-2,-1.23092495E-1,-9.915346E-2,-8.920213E-2,-9.6129686E-2,-7.083119E-2,-9.114749E-2,-5.6746602E-2,-4.2391594E-2,-2.9394304E-2,-4.3694463E-2,-7.487968E-2,-8.6603634E-2,-1.3967466E-2,-3.1481642E-2,5.2321935E-3,-1.0364359E-2,1.278469E-2,1.1259394E-1,9.610131E-2,8.283761E-2,1.2647213E-1,9.7262226E-2,8.44657E-2,1.311152E-1,1.04401976E-1,1.4681521E-1,9.4902575E-2,6.594917E-2,7.406865E-2],"categories":[],"categories_nodes":[],"categories_segments":[],"categories_sizes":[],"default_left":[0,0,0,0,0,0,0,0,0,0,0,0,0,0,0,0,0,0,0,0,0,0,0,0,0,0,0,0,0,0,0,0,0,0,0,0,0,0,0,0,0,0,0,0,0,0,0,0,0,0,0,0,0,0,0,0,0,0,0,0,0,0,0,0,0,0,0,0,0,0,0,0,0,0,0,0,0,0,0,0,0,0,0,0,0,0,0,0,0,0,0,0,0,0,0,0,0,0,0,0,0],"id":15,"left_children":[1,3,5,7,9,11,13,15,17,19,21,23,25,27,29,31,33,35,37,39,41,43,45,47,49,-1,51,53,55,-1,-1,57,59,61,63,65,67,69,71,73,75,77,79,81,83,85,87,-1,89,91,93,-1,95,97,-1,-1,99,-1,-1,-1,-1,-1,-1,-1,-1,-1,-1,-1,-1,-1,-1,-1,-1,-1,-1,-1,-1,-1,-1,-1,-1,-1,-1,-1,-1,-1,-1,-1,-1,-1,-1,-1,-1,-1,-1,-1,-1,-1,-1,-1,-1],"loss_changes":[2.7273787E3,1.5336362E3,4.372876E1,1.1730762E2,3.4295306E2,3.2115479E0,3.3358154E0,2.39E2,5.443274E1,2.4099579E1,1.3916005E2,1.4408875E0,1.1875E0,3.303833E0,3.169632E-1,1.6734314E1,1.197258E2,2.8790283E0,5.2595642E1,2.267685E0,1.713971E1,3.176239E1,1.0454208E1,3.8230133E-1,4.373169E-2,0E0,4.874878E-1,1.116684E0,6.0595703E-1,0E0,0E0,2.0050049E-2,1.18181E1,1.8465118E0,4.2046333E1,2.11615E0,1.6604004E0,6.092285E0,2.018097E0,1.19125366E-1,8.290329E-1,6.775383E0,8.300743E-1,6.9505234E0,1.9923491E0,8.856044E0,4.4416656E0,0E0,2.5508118E-1,3.540678E-1,4.3792725E-3,0E0,2.9248047E-1,1.0617867E0,0E0,0E0,4.94812E-1,0E0,0E0,0E0,0E0,0E0,0E0,0E0,0E0,0E0,0E0,0E0,0E0,0E0,0E0,0E0,0E0,0E0,0E0,0E0,0E0,0E0,0E0,0E0,0E0,0E0,0E0,0E0,0E0,0E0,0E0,0E0,0E0,0E0,0E0,0E0,0E0,0E0,0E0,0E0,0E0,0E0,0E0,0E0,0E0],"parents":[2147483647,0,0,1,1,2,2,3,3,4,4,5,5,6,6,7,7,8,8,9,9,10,10,11,11,12,12,13,13,14,14,15,15,16,16,17,17,18,18,19,19,20,20,21,21,22,22,23,23,24,24,26,26,27,27,28,28,31,31,32,32,33,33,34,34,35,35,36,36,37,37,38,38,39,39,40,40,41,41,42,42,43,43,44,44,45,45,46,46,48,48,49,49,50,50,52,52,53,53,56,56],"right_children":[2,4,6,8,10,12,14,16,18,20,22,24,26,28,30,32,34,36,38,40,42,44,46,48,50,-1,52,54,56,-1,-1,58,60,62,64,66,68,70,72,74,76,78,80,82,84,86,88,-1,90,92,94,-1,96,98,-1,-1,100,-1,-1,-1,-1,-1,-1,-1,-1,-1,-1,-1,-1,-1,-1,-1,-1,-1,-1,-1,-1,-1,-1,-1,-1,-1,-1,-1,-1,-1,-1,-1,-1,-1,-1,-1,-1,-1,-1,-1,-1,-1,-1,-1,-1],"split_conditions":[3E0,7E0,2E0,2E0,6E0,6E0,3E0,2E0,5E0,2E0,2E0,1E0,5E0,2E0,6E0,1E0,7E0,6E0,6E0,2E0,2E0,2E0,6E0,1E0,7E0,7.499476E-2,7E0,7E0,5E0,8.573322E-2,1.07116185E-1,6E0,6E0,1E0,6E0,4E0,6E0,2E0,6E0,5E0,1E0,5E0,3E0,7E0,7E0,1E0,7E0,1.3076174E-1,7E0,2E0,1E0,1.22855395E-1,5E0,7E0,8.304832E-2,9.9607915E-2,6E0,-1.0989975E-1,-1.15771614E-1,-1.0121082E-1,-5.6578696E-2,-1.10216536E-1,-8.362264E-2,-9.287571E-3,5.110136E-2,-1.1495904E-1,-9.64217E-2,-9.966632E-2,-1.18090466E-1,-6.4132474E-2,-7.7604376E-2,-9.899076E-2,-1.23092495E-1,-9.915346E-2,-8.920213E-2,-9.6129686E-2,-7.083119E-2,-9.114749E-2,-5.6746602E-2,-4.2391594E-2,-2.9394304E-2,-4.3694463E-2,-7.487968E-2,-8.6603634E-2,-1.3967466E-2,-3.1481642E-2,5.2321935E-3,-1.0364359E-2,1.278469E-2,1.1259394E-1,9.610131E-2,8.283761E-2,1.2647213E-1,9.7262226E-2,8.44657E-2,1.311152E-1,1.04401976E-1,1.4681521E-1,9.4902575E-2,6.594917E-2,7.406865E-2],"split_indices":[3,4,2,3,5,6,7,2,4,3,3,6,5,6,4,3,5,6,4,2,2,2,6,2,5,0,5,4,4,0,0,5,5,3,4,4,5,2,5,5,6,5,6,6,5,2,5,0,4,6,2,0,4,5,0,0,4,0,0,0,0,0,0,0,0,0,0,0,0,0,0,0,0,0,0,0,0,0,0,0,0,0,0,0,0,0,0,0,0,0,0,0,0,0,0,0,0,0,0,0,0],"split_type":[0,0,0,0,0,0,0,0,0,0,0,0,0,0,0,0,0,0,0,0,0,0,0,0,0,0,0,0,0,0,0,0,0,0,0,0,0,0,0,0,0,0,0,0,0,0,0,0,0,0,0,0,0,0,0,0,0,0,0,0,0,0,0,0,0,0,0,0,0,0,0,0,0,0,0,0,0,0,0,0,0,0,0,0,0,0,0,0,0,0,0,0,0,0,0,0,0,0,0,0,0],"sum_hessian":[1.5522612E4,1.2643979E4,2.8786338E3,3.5093794E3,9.1346E3,1.1882385E3,1.6903954E3,1.1115161E3,2.3978633E3,7.6925275E2,8.365347E3,2.8290817E2,9.053303E2,1.6348813E3,5.551396E1,5.3462177E2,5.7689435E2,7.664908E2,1.6313726E3,2.4541936E2,5.238334E2,5.585444E2,7.8068022E3,1.0061401E2,1.8229414E2,1.558662E1,8.897437E2,2.9622778E2,1.3386536E3,1.5902489E1,3.9611473E1,2.9594415E2,2.386776E2,1.1572679E2,4.6116754E2,3.0210693E2,4.6438385E2,1.3662211E3,2.651514E2,1.4826637E2,9.7152985E1,2.5287535E2,2.70958E2,3.0271008E2,2.5583429E2,1.844205E3,5.962597E3,6.6383085E0,9.397571E1,1.2672038E1,1.696221E2,2.1473383E1,8.682703E2,3.6181652E1,2.600461E2,1.0998628E1,1.327655E3,1.2891324E2,1.6703093E2,1.1241295E2,1.26264656E2,5.1322887E1,6.440391E1,2.5544377E2,2.0572375E2,1.0025085E2,2.018561E2,6.42103E1,4.0017355E2,7.313637E2,6.348574E2,4.680756E1,2.1834383E2,1.0261892E2,4.564745E1,1.8856142E1,7.8296844E1,8.942644E1,1.6344891E2,7.114539E1,1.9981264E2,1.1793877E2,1.8477132E2,3.8432727E0,2.5199101E2,6.739207E1,1.7768129E3,8.267428E1,5.8799233E3,2.179519E1,7.218052E1,8.221272E0,4.450766E0,1.1594669E1,1.5802744E2,7.089619E0,8.611807E2,5.5080233E0,3.067363E1,1.04979935E2,1.222675E3],"tree_param":{"num_deleted":"0","num_feature":"8","num_nodes":"101","size_leaf_vector":"1"}},{"base_weights":[3.2896467E-4,-1.8280214E-1,8.309037E-1,-7.276791E-1,1.74252E-2,9.865177E-1,7.232603E-1,-4.7696516E-1,-8.4453136E-1,-5.903754E-1,7.074689E-2,5.945312E-1,1.0283202E0,4.9016356E-1,7.475536E-1,-9.4877374E-1,-6.0369287E-2,-1.0772307E0,-7.379982E-1,-8.487189E-1,-4.747455E-1,-3.7117478E-1,1.0170716E-1,8.891174E-2,5.6641493E-2,1.127396E0,8.522845E-1,4.7419917E-2,7.048912E-2,8.3203745E-1,6.598746E-1,-1.11621365E-1,-7.3912007E-1,-9.508446E-1,1.5231343E-1,-1.1645977E0,-1.046317E0,-6.580963E-1,-1.1616081E0,-9.31065E-1,-7.216331E-1,-6.472164E-1,-3.2004184E-1,-5.6962067E-1,-1.4038223E-1,-2.047776E-1,1.2511574E-1,1.2340504E-1,1.1159452E-1,4.6836786E-2,8.655907E-1,1.072305E0,8.235719E-1,6.4594424E-1,1.0230241E0,-9.8648995E-2,-5.255443E-2,-1.0619201E-1,-8.5384876E-2,-8.077573E-3,4.4764142E-2,-9.575479E-2,-1.1977653E-1,-1.0775062E-1,-9.8436795E-2,-5.8970634E-2,-7.298053E-2,-5.5501066E-2,-1.1750635E-1,-1.0055814E-1,-7.203461E-2,-4.2941205E-2,-7.345315E-2,-8.8385366E-2,-5.162519E-2,-7.629307E-2,-2.8972737E-2,-3.2876537E-3,-6.1526947E-2,-8.104156E-2,-1.2927556E-2,-9.1473E-3,-3.6659136E-2,1.6828915E-2,4.6304916E-3,1.2480487E-1,8.5696384E-2,8.005125E-2,1.1415155E-1,1.1692993E-1,8.147116E-2,1.0340949E-1,6.3834205E-2,7.93227E-2,1.09528415E-1],"categories":[],"categories_nodes":[],"categories_segments":[],"categories_sizes":[],"default_left":[0,0,0,0,0,0,0,0,0,0,0,0,0,0,0,0,0,0,0,0,0,0,0,0,0,0,0,0,0,0,0,0,0,0,0,0,0,0,0,0,0,0,0,0,0,0,0,0,0,0,0,0,0,0,0,0,0,0,0,0,0,0,0,0,0,0,0,0,0,0,0,0,0,0,0,0,0,0,0,0,0,0,0,0,0,0,0,0,0,0,0,0,0,0,0],"id":16,"left_children":[1,3,5,7,9,11,13,15,17,19,21,23,25,27,29,31,33,35,37,39,41,43,45,-1,-1,47,49,-1,-1,51,53,-1,55,57,59,61,63,65,67,69,71,73,75,77,79,81,83,-1,-1,-1,85,87,89,91,93,-1,-1,-1,-1,-1,-1,-1,-1,-1,-1,-1,-1,-1,-1,-1,-1,-1,-1,-1,-1,-1,-1,-1,-1,-1,-1,-1,-1,-1,-1,-1,-1,-1,-1,-1,-1,-1,-1,-1,-1],"loss_changes":[2.311096E3,1.3582283E3,4.580591E1,9.78761E1,2.9498074E2,1.8220337E1,9.065552E0,2.0899823E2,5.6377197E1,2.179486E1,1.1448305E2,6.641655E-1,1.747644E1,3.2976532E-1,1.0733337E1,1.7954498E1,1.0710108E2,1.7078857E0,